1024 64
988 0.059645988 -0.3596732 -0.16792607 -0.3940571 0.083292075 -0.62711513 0.22911596 -0.37133506 -0.0033924757 -0.8191725 -0.061996885 0.10241836 0.6963859 -0.63515043 0.7434545 0.28655386 -0.14746933 0.27275923 -0.80609816 0.21830682 0.017087623 0.9475181 0.5325757 0.19853242 -0.5284973 0.020781532 -0.6483226 0.34822893 -0.078290865 -0.03579806 0.83468634 -0.2131975 0.12962909 -0.47262958 -0.23863757 0.46423468 0.88552886 -0.5170718 0.018874492 -0.0295244 -0.5568772 0.7655025 -0.13979006 0.08262188 -0.0034310117 -0.64338905 0.72322184 -0.10477628 -0.6634174 0.86594677 0.62926763 0.5209961 -0.34487867 0.72991234 -0.53691465 -0.721005 0.09568288 -0.06890357 -0.60607177 0.9027918 0.19436614 -0.31520873 -0.04698165 -0.47941482
961 0.15629683 -0.108279765 -0.36027288 -0.49992764 0.57910806 0.10876524 -0.4792981 -0.23751426 -0.45098174 -0.57018596 -0.23972899 0.20098883 0.21596491 -0.3737724 0.8894515 0.44244388 -0.10066453 0.2941042 0.48239055 0.10366966 -0.21261306 0.25406936 -0.6143932 0.3694533 -1.4710566 0.21441923 -0.6660601 -0.028529434 -0.48618793 0.15124923 0.9558916 -0.90977746 -0.5998121 0.8734464 -0.1372626 0.7343048 -0.44870523 -0.78845996 -0.017177058 -0.047144894 -0.15162557 0.27414584 0.06300709 0.65029275 -0.5652873 -0.07839142 -0.4746335 -0.35459775 -0.3494639 0.17211682 0.38516042 1.1173869 0.32883903 -0.18539171 -0.39415622 -0.11570968 0.33463505 -0.54050624 -0.30123588 0.57315993 -0.61378896 0.4950194 -0.4464562 -0.2358108
986 -0.15886398 -0.5478649 -0.07051652 -0.06458466 0.017811464 -0.34739965 0.27594656 -0.7453911 -0.0364507 -0.6121604 -0.39875203 0.32586914 0.4127151 -0.50803477 0.5601641 0.12676777 -0.33034122 0.24511386 -0.6297189 0.2269851 0.19370843 0.79276824 0.033202752 -0.0055695428 -0.8366823 -0.10794996 -0.4643217 0.4416627 0.0721368 -0.12100216 0.99579495 -0.21537012 0.6281964 -0.06277538 -0.19631009 0.43670112 0.52033323 -0.45008212 -0.25956967 0.19552171 -0.34054133 1.0527978 -0.24284138 0.29962823 0.016713116 -0.35691392 0.82143587 0.17168972 -0.7376495 0.5928421 0.5638588 0.0032167463 -0.16889411 0.5886068 -0.78973746 -0.6854523 0.19888356 -0.28441766 -0.43233043 1.4731257 0.1942036 -0.2826613 0.1101426 -0.26915872
929 0.1394557 0.049052063 -0.43536723 -0.3475019 0.34838173 0.23152265 -0.60678154 -0.058777057 -0.48963442 -0.6096024 -0.12217574 0.02671579 0.12648425 -0.38796443 0.8007986 0.65908456 -0.23518388 0.1670238 0.4016324 0.087423116 -0.28624627 0.32847914 -0.7696967 0.49771932 -1.3773462 0.12297584 -0.6472826 -0.18876496 -0.33526993 0.5780093 0.9693239 -0.7308262 -0.5377406 1.0069059 -0.33791742 0.6030368 -0.2628697 -0.8032669 -0.042789638 -0.028191002 -0.27861625 0.17602538 0.11332291 0.74676585 -0.52938515 0.040566523 -0.5725612 -0.4701083 -0.3752394 0.11298556 0.38391966 0.82841545 0.35093036 0.116940066 -0.54847395 -0.30694 0.22417772 -0.12436146 -0.55488926 0.57115257 -0.49385804 0.44605997 -0.3263431 -0.21336769
958 0.24250464 -0.14673133 0.0025456473 -0.5341609 0.37959957 -0.53330964 0.23611896 -0.076248415 0.2198444 -0.6133745 0.09092821 -0.2571112 0.5651121 -0.6081372 0.7826366 0.454185 -0.23834272 -0.18993968 -0.9671175 0.34444478 0.4461907 0.9582321 0.020880694 0.50527537 -0.21990223 -0.41336504 -0.7499018 0.15795408 -0.17844878 -0.13093458 0.92896676 -0.15738513 -0.25235814 -0.12675168 -0.24675936 0.681072 1.2978512 -0.26585457 0.20009238 0.03541846 -0.738193 0.8408205 -0.19525829 -0.06448117 0.33185634 -0.38610947 0.4709076 0.23469694 -0.63752604 0.7107808 0.35370696 0.8941199 -0.33086106 0.77983016 -0.70197135 -0.2122109 -0.282543 -0.43661767 -0.46241403 0.42145684 0.011265007 0.026578084 -0.24569155 -0.53757745
957 0.27402174 -0.30785555 -0.2491678 -0.6462266 0.2682955 -0.31554568 0.29245996 -0.10701551 0.05501533 -0.68716085 0.30166787 -0.25759348 0.7547896 -0.7303632 0.8392356 0.4066916 -0.116132006 0.087125875 -0.78675944 0.33915138 0.2993666 0.73526317 -0.025738047 0.39730847 -0.33842975 -0.27862352 -0.85345733 0.20501532 0.15687628 0.024349123 0.9331591 -0.0751453 0.000992948 -0.27488175 -0.1820925 0.5685385 1.1148872 -0.30796412 0.12615918 0.050842404 -0.59886485 0.7277766 -0.3037082 -0.075186625 0.16987051 -0.49143612 0.68873465 0.12622531 -0.60110044 0.81936705 0.5400181 0.6927721 -0.20911208 0.8339431 -0.74237394 -0.69297683 -0.22547755 -0.12279105 -0.50605524 0.467094 0.13202007 -0.10724188 0.018629724 -0.48984668
94 0.20379718 -0.41673905 0.37879404 -0.7022673 -0.11208687 0.32501596 1.0845884 -0.22097489 0.31866944 -0.7333107 -0.052419826 -0.3254862 0.4824843 -0.39027226 0.96120995 0.75172645 -0.2367587 -0.02985821 -0.1555121 0.42023984 -0.5621753 0.73259175 -0.36714524 0.48620778 0.10126715 0.61512923 -0.6360802 0.9481228 -0.43624613 -0.4080601 0.41362762 -0.49259743 0.12811816 0.6844955 -0.008321249 -0.45100132 0.38521594 -0.7135726 -1.1140757 0.26550505 -0.06542636 0.24198924 -0.2021762 0.5289401 0.09143558 -0.4228542 -0.12319399 -0.27303582 -0.11533012 -0.7372774 0.018265873 0.45541516 0.43767813 0.7168256 0.20267315 0.46103877 0.04212789 -0.20922372 0.0897697 0.9014779 -0.52695626 0.0831284 -0.29925984 -0.49840358
987 -0.089081 -0.49216914 -0.18096557 -0.21796332 -0.089211665 -0.5125056 0.107632294 -0.5431182 0.04106367 -0.6349831 -0.2618396 0.13742419 0.60159475 -0.66330385 0.77989763 0.14000624 -0.16892672 0.29005036 -0.69020396 0.33002344 0.17446387 1.0645095 0.11030211 0.106786735 -0.5687624 0.06161216 -0.8330927 0.39399314 0.051027574 -0.28789902 0.8771953 -0.1814982 0.48397917 -0.3479667 -0.25018188 0.38800216 0.61895573 -0.52255386 0.065358065 0.12015071 -0.42938232 0.94500023 -0.18909799 0.04434986 -0.10528462 -0.6192909 0.7084765 -0.005250401 -0.57913244 0.6034877 0.52160215 0.11607798 -0.31415653 0.5365305 -0.7988409 -0.888551 0.264361 -0.18392335 -0.6246743 1.2419904 0.25088286 -0.257314 -0.0194211 -0.27506536
897 -0.07529415 -0.05522783 -0.34896022 -0.34652096 0.35071266 0.17578685 -0.5853153 0.07312593 -0.4673557 -0.41873682 -0.37805498 -0.07841031 -0.04586356 -0.51084036 0.7817974 0.8079586 -0.316523 0.4109769 0.01759431 -0.005575458 -0.017624872 0.5131907 -0.9189796 0.35929745 -1.3009601 0.06907475 -0.6749558 -0.33862582 -0.46666142 0.4700704 0.77088517 -0.4169949 -0.78347796 1.1264946 -0.2705868 0.1876819 -0.23829584 -0.7166445 -0.25533786 0.062817775 -0.27101052 0.09083929 0.14595929 0.7303108 -0.5099144 0.043135326 -0.65207464 -0.55680823 -0.54166514 0.14587198 0.41660655 0.8746074 0.27389446 0.3607332 -0.4892801 -0.5195936 0.182694 -0.03838589 -0.5196913 0.53208655 -0.31291535 0.4462398 -0.50183517 -0.06464802
126 0.32008803 -0.5753603 0.5269464 -0.7913332 -0.17487378 0.2731042 0.9450488 0.007283958 0.2589464 -0.8446797 -0.14935845 -0.42808187 0.63988614 -0.240788 0.761263 0.59413207 -0.26621053 -0.018847184 -0.16441824 0.4680267 -0.5314854 0.49501014 -0.5477976 0.4912506 -0.0587512 0.6596668 -0.30306432 0.8569342 -0.42750776 -0.29544303 0.21485019 -0.60059893 0.17858316 0.4071998 0.012572907 -0.4739415 0.4373774 -0.8735599 -1.0853411 0.24116184 -0.041844707 0.03539067 -0.48105574 0.50327986 0.067480676 -0.70007694 -0.12303563 -0.20351201 -0.020009506 -0.6343795 0.018385312 0.48177025 0.27876374 0.7624043 0.09913054 0.40692896 -0.26762864 -0.12411378 -0.11899718 1.056762 -0.20154598 0.38669008 -0.24909225 -0.47745702
963 0.029726218 0.2579416 -0.72386146 -0.54764205 0.20217676 -0.059261516 -0.42878625 -0.24714607 -0.5497722 -0.5061806 -0.33047158 0.08322432 0.33599925 -0.45864472 0.49946794 0.220681 -0.08226004 0.44034606 0.33010486 -0.11193626 -0.13356389 0.26616278 -0.66105485 0.5018851 -1.4856238 -0.15748946 -0.7817558 0.12626816 -0.15943147 0.083768755 0.9599683 -0.7096275 -0.61938685 0.6040912 0.2702777 0.65074986 0.1243879 -0.70008296 -0.30178165 0.165878 0.030296959 -0.043829914 -0.107315525 0.7286197 -0.77970916 -0.28209403 -0.59162354 -0.001920949 -0.01856229 0.012087835 0.41967356 0.49098518 0.66963375 0.29152155 -0.43323645 -0.10957712 0.16144606 -0.79837924 -0.26316708 0.60746646 -0.7998989 0.6565469 -0.59186673 -0.19371793
962 0.23620778 0.14386198 -0.6187887 -0.35172743 0.40198237 -0.029655386 -0.5139318 -0.30741167 -0.40064725 -0.6196187 -0.5248704 0.081144914 0.3631511 -0.49128613 0.6916472 0.30403677 -0.045768984 0.17814523 0.44445467 0.014727037 -0.25269875 0.20420676 -0.65934956 0.57614905 -1.3841991 -0.05132689 -0.63470566 0.05662518 -0.3539436 0.15961742 1.1387047 -0.6788036 -0.61558545 0.73563546 0.024513192 0.6685815 -0.11667913 -0.835466 0.02811323 -0.018446833 0.073504984 0.13168666 0.1729866 0.85136884 -0.7262547 -0.4306406 -0.47306165 -0.20801331 -0.12163002 -0.07467381 0.32986957 0.7620717 0.37600023 -0.07178309 -0.59529454 -0.059684128 0.24292785 -0.66889507 -0.50176996 0.48663822 -0.6558137 0.5815509 -0.5032224 -0.27695575
956 0.12560146 -0.30920318 -0.284377 -0.38530484 0.13548331 -0.31424192 0.26773793 -0.33330482 -0.16749813 -0.62579507 0.040138863 -0.08819442 0.8696613 -0.6761908 0.9038026 0.22856984 -0.20895883 0.3232145 -0.8563419 0.25271726 0.13447677 0.942615 0.017637042 0.11825187 -0.59215146 -0.12299726 -0.72502726 0.1800278 0.037568353 -0.18857317 0.80072546 -0.34906784 0.36535108 -0.41234404 -0.3453605 0.3554574 1.0394337 -0.20231119 0.01521524 -0.17815483 -0.5539274 0.8917145 -0.20767342 -0.15314576 -0.005346604 -0.7069043 0.7933323 0.012523554 -0.6377516 0.6446208 0.56858957 0.37488246 -0.06731177 0.67003024 -0.63165915 -0.7201601 -0.18574362 -0.27257025 -0.55164206 0.6528142 0.33050942 -0.1620359 0.037137892 -0.5151845
62 0.17432249 -0.31302977 0.5077535 -0.6588787 -0.12343758 0.64902896 0.9122407 -0.3703125 0.1297238 -0.7993151 -0.0678591 -0.2924848 0.5322513 -0.3668087 1.2456833 0.5548569 -0.19694321 -0.09283239 -0.31736705 0.42902836 -0.7390445 0.7631097 -0.15372843 0.5537615 0.02595207 0.57482666 -0.76288134 0.8162281 -0.5471395 -0.44247103 0.43373042 -0.23593421 0.027019626 0.63119334 -0.0044644484 -0.2780549 0.26025045 -0.9348501 -0.9967274 0.13929544 -0.098636225 0.2878735 -0.28622895 0.17268822 0.2346283 -0.63930774 0.107925594 -0.38126194 -0.11934546 -0.7028973 -0.00735638 0.24055745 0.47524652 0.771839 0.19996244 0.5793956 0.1907495 -0.3005397 0.09703345 0.6213257 -0.6386383 0.03709978 -0.6515755 -0.26057625
124 0.7480956 -0.5014591 0.44302806 -0.23816308 -0.2775101 0.1908465 0.8549852 0.20693806 0.2998822 -0.69842005 -0.12406278 0.07631981 0.2100507 -0.29012468 0.8655968 0.4078209 -0.32063976 -0.06622215 0.008916295 -0.03529833 -0.07796374 0.4524095 -0.6085904 0.66705865 0.042617466 0.43696097 -0.59961236 1.0917886 -0.30560037 -0.6307456 0.27220008 -0.78591824 -0.11601777 0.14458051 -0.32099235 -0.38588312 0.106668845 -1.2324525 -0.8848997 0.12230927 -0.07935338 -0.112229764 -0.4068287 0.48685068 0.22435148 -0.2670917 -0.078465804 -0.16958056 0.074392416 -0.68860257 0.055341803 0.48560715 0.36358717 0.9242696 -0.100235455 0.10659939 -0.41687304 -0.16729009 -0.23932946 0.9565014 -0.33766127 -0.08365657 -0.32581216 -0.36414587
898 -0.2281992 -0.053506836 -0.51244754 -0.5911559 0.2845484 0.035142776 -0.6561339 0.033692084 -0.5393736 -0.4479803 -0.51980495 0.14687471 0.036755003 -0.54476404 0.797374 0.529946 -0.31290466 0.2624676 -0.16312486 0.004315087 -0.1893293 0.46023744 -0.8746422 0.5982737 -1.3183333 0.04977911 -0.37768176 -0.31262118 -0.37674433 0.29047084 0.7766616 -0.3721036 -0.34978068 1.0238482 -0.012403605 0.35038713 0.025703942 -0.8224669 -0.20211224 0.2658781 -0.18621472 -0.057109974 0.13781057 0.91266346 -0.57399565 -0.13924868 -0.7208014 -0.42922693 -0.43238568 0.044728775 0.3731184 0.5646311 0.58921856 0.33017257 -0.6072448 -0.30569637 0.07012697 0.05866784 -0.5889956 0.47327495 -0.25615442 0.6387544 -0.44494724 -0.025611015
862 -0.18771787 -0.12243346 -0.005790111 -0.8285681 0.6133925 -0.34669578 -0.058814365 -0.035137504 0.4409863 -0.49408486 0.23581922 -0.056287605 0.4224836 -0.7181111 0.8877578 0.42667663 -0.3621646 0.1560184 -0.692833 0.3038781 0.7025659 0.6888891 -0.7220295 -0.13969418 -0.46021676 -0.028815312 -0.8462652 0.12564898 -0.008446499 -0.0571944 1.0275878 -0.54810536 -0.22703536 -0.17581575 -0.2761367 0.39118648 1.217872 -0.15904327 -0.05108338 0.07559963 -0.650152 0.035338167 -0.20975767 -0.2964209 0.24632797 -0.83195215 0.47321603 -0.057201784 -0.24764954 0.4329023 0.09917919 0.61490065 0.21610008 0.87596714 -0.5521964 0.437479 -0.29635102 -0.6656511 -0.7395666 -0.08477685 -0.1062014 -0.38801065 0.49427176 -0.24363618
955 -0.12394363 -0.42546844 -0.41022068 -0.17236033 0.030411208 -0.48502654 0.2064114 -0.35507083 -0.14487204 -0.6304888 -0.1361276 0.040668245 0.68555087 -0.6922599 0.95320326 0.064586505 -0.11114251 0.2249203 -0.72905946 0.0585235 0.14298072 0.70254004 -0.033609424 -0.04304441 -0.7821294 0.059539214 -0.62314665 0.32062414 0.13991539 0.041634887 0.9839173 -0.3857669 0.55104345 -0.46498245 -0.34061456 0.49110958 0.65898126 -0.36506155 -0.042230222 -0.10089099 -0.721369 0.94893616 -0.34990352 -0.004213994 -0.13852184 -0.5218857 0.770708 0.077638984 -0.5503842 0.61080176 0.38679105 0.022595601 -0.17156418 0.8753324 -0.72923297 -0.6035544 -0.23685056 -0.28331128 -0.50917786 1.0563692 0.32804328 -0.13910694 0.059106167 -0.1811216
964 -0.12809002 0.23587443 -0.5464226 -0.69038033 0.08579334 -0.1603145 -0.3690418 -0.26135942 -0.65780324 -0.4631931 -0.46698317 0.19791864 0.34781453 -0.46913326 0.22969219 -0.0011689527 -0.12931651 0.5068184 0.248412 -0.20325595 0.11287089 0.32979247 -0.6230975 0.4730402 -1.2132621 -0.47070977 -0.83278453 0.23637211 -0.24489908 0.018103559 0.57708514 -0.5885396 -0.5265372 0.34074217 0.2929831 0.7215819 0.2132844 -0.68956494 -0.39980373 -0.0088722855 0.23553532 -0.02253933 -0.16826819 0.7256307 -0.74998736 -0.40674344 -0.6127942 -0.029078042 0.023734346 0.29335368 0.31262335 0.6512777 0.8355013 0.5134508 -0.42686006 -0.13720006 0.11944502 -0.6211622 -0.47988594 0.66975486 -0.8119635 0.841565 -0.7860418 -0.44178194
990 0.40155697 0.1465742 0.1651221 -0.5918855 0.06617475 -0.66340345 0.2946692 -0.2717052 0.23478188 -0.40559816 0.03254249 -0.3809231 0.5101542 -0.5018227 0.7727083 0.55401486 -0.26517096 0.10336241 -0.7382843 0.43505037 0.15254727 1.1653622 0.19452 0.3892437 -0.26486614 -0.52212304 -0.82388574 0.4503965 -0.14906536 0.0939123 0.7947545 -0.33796927 -0.3760061 -0.32751814 -0.14121601 0.688081 1.0869063 -0.5193506 0.14906837 0.25342312 -0.69111836 0.7402344 0.043501545 0.03818984 0.2873659 -0.36049187 0.5195264 0.07083068 -0.48584157 0.96297693 0.41722938 0.86314785 -0.5482953 0.77102953 -0.7187175 -0.31895033 -0.2501504 -0.27935812 -0.60642093 0.67991227 0.116372146 0.025156291 -0.1814333 -0.4979388
125 0.33497113 -0.6470673 0.4700188 -0.6899634 -0.25232583 0.25077203 0.93102056 0.13601954 0.26540342 -0.8689253 -0.09340538 -0.14162599 0.30359694 -0.12986024 0.7247237 0.67289925 -0.5021164 -0.08688084 -0.1610028 0.11904267 -0.26112548 0.55373144 -0.6263233 0.74645525 0.03276416 0.4505282 -0.6434967 0.95839787 -0.1904851 -0.5941999 0.15141578 -0.6435086 0.07389923 0.3952086 -0.34391922 -0.49750885 0.2351402 -0.9356066 -1.064705 0.32668963 -0.096487455 -0.120974 -0.41880608 0.5616342 0.1550312 -0.34579286 -0.07630047 -0.24123895 -0.05202878 -0.7649401 0.11090443 0.4400595 0.18626146 0.98566556 0.10939469 0.22376898 -0.15793644 -0.06214018 -0.16241537 0.916438 -0.15882728 0.083167195 -0.21533903 -0.48366347
830 -0.24091978 -0.20819588 -0.06304792 -0.5104684 0.8165222 -0.31330585 -0.34433922 -0.031663544 0.39704058 -0.4206912 0.1850446 -0.13459943 0.5327305 -0.788785 0.8231799 0.5780356 -0.26392794 0.09956905 -0.6643456 0.35753942 0.62384254 0.6041052 -0.92136395 -0.026170745 -0.51139015 0.14408515 -0.6944519 0.268841 0.05768716 -0.21958646 0.86694485 -0.544094 -0.14238678 -0.31405583 -0.19161795 0.4495979 1.2365438 -0.17356646 -0.16819677 -0.11769969 -0.7784022 -0.26012945 -0.3210296 -0.64268357 0.21281445 -0.9367798 0.29912692 -0.046112724 -0.07673279 0.38669875 0.01386784 0.5550983 0.46001267 0.90206414 -0.29439425 0.4113736 -0.50956494 -0.34683037 -0.4794697 -0.14490531 -0.37400445 -0.44091713 0.3845139 -0.53254735
92 0.40454143 -0.36125198 0.18644024 -0.2181674 -0.19794956 0.30172402 0.7561061 0.09350279 0.32443064 -0.7468971 -0.21552275 0.09099874 0.13302349 -0.67112416 1.0437572 0.48079905 -0.26077455 -0.113966376 -0.12807699 -0.122373134 -0.2198174 0.5477431 -0.21683683 0.81102455 0.11267372 0.58343816 -0.83793384 1.0080774 -0.6228471 -0.7490919 0.30528945 -0.50495476 -0.13928236 0.24139723 -0.23786591 -0.6336209 -0.017878102 -1.2087598 -0.81140524 0.20767622 -0.09937398 -0.047556438 -0.25353542 0.41358534 0.1360907 -0.2118243 0.24098983 -0.2553408 0.06978039 -0.63594836 0.03521017 0.5453851 0.44440556 1.1048851 0.05862131 0.32170433 -0.27387503 -0.016811645 -0.140239 0.7446252 -0.39451987 -0.0060747373 -0.34041393 -0.39215454
58 0.5223537 0.31688434 0.014861165 0.06527998 -0.6064143 0.19846345 0.33287305 0.024227183 -0.056118764 -0.574103 -0.2481024 0.31585696 0.2980547 -0.5585544 0.9144944 0.50806665 -0.33010802 0.20982417 -0.12489431 -0.24899651 0.0952167 0.66088754 -0.34231123 0.6815317 0.19392987 0.24320869 -0.4853078 0.9264078 -0.97990644 -1.0256126 0.48258245 -0.13444176 0.23985632 0.34331325 -0.61879015 -0.18842894 -0.33753523 -1.3152268 -0.83234197 0.03683846 -0.465301 0.2668227 -0.36863062 -0.07952901 -0.11875362 0.045236874 0.29402602 -0.18436007 -0.043734062 -0.65036803 0.06969453 0.9164588 0.3017589 1.1511514 -0.21604933 0.41676354 -0.12374747 -0.23531638 -0.21335319 0.5379342 -0.6070043 -0.1692179 -0.28535828 -0.033470534
57 0.6904223 0.35588428 -0.2067884 0.073777266 -0.6339612 0.42267418 0.15872134 0.27323747 -0.29125 -0.518631 -0.017919645 0.563227 0.23938319 -0.5872421 0.6970844 0.5235481 -0.36205247 0.19965531 -0.23866725 -0.26445004 0.027992886 0.62665796 -0.49411857 0.4389208 0.13109007 0.42946923 -0.5199797 0.6798919 -0.7913047 -1.1800004 0.52128327 -0.143024 0.36069223 0.3344774 -0.45796567 0.18986584 -0.07361937 -1.3945034 -0.7178565 -0.09228941 -0.41564062 0.24358249 -0.43447757 -0.06536178 0.26257172 0.46630216 0.40285957 0.07240196 0.10701958 -0.42006618 0.0746831 0.95682645 0.5543553 1.1783371 -0.067037284 0.3775953 -0.12413854 -0.35089314 -0.46751565 0.39664456 -0.43930706 -0.033982165 -0.23037724 -0.25065824
930 0.044145122 -0.07551069 -0.6339618 -0.6594292 0.2908178 0.16694386 -0.525262 -0.026695106 -0.5745764 -0.4669933 -0.30294618 0.22973491 0.15658124 -0.33082026 0.89146626 0.38631505 -0.29288378 0.38798216 0.095141046 0.01867934 -0.14428242 0.23115721 -0.81625587 0.68960696 -1.2964071 0.08922757 -0.79927975 -0.05117712 -0.36828768 0.3510482 0.9675366 -0.5549646 -0.5601763 0.8216419 -0.02566416 0.502491 -0.0018215927 -0.7456832 -0.14265342 0.092607945 -0.009089671 0.005147041 0.17409793 0.7513197 -0.6979979 -0.119598635 -0.70277625 -0.4479741 -0.11274171 0.12598895 0.39069545 0.54771084 0.5634834 0.057456978 -0.55031085 -0.37693825 0.2943207 -0.4168679 -0.62835556 0.46334898 -0.39434105 0.6986089 -0.42506668 -0.101064906
965 -0.3384108 0.2735007 -0.56434244 -0.80449283 0.27890533 -0.13256964 -0.35880002 -0.39209673 -0.6346507 -0.30418757 -0.4588594 0.46030766 0.27517682 -0.25438353 0.11547215 0.17614204 -0.1677797 0.26294 0.11879126 -0.22291403 -0.12188704 0.47372174 -0.6958306 0.7662071 -0.94059384 -0.5988132 -0.8285207 0.2470719 -0.0714579 0.021972395 0.31935564 -0.6037234 -0.41587293 0.14735717 0.36025357 0.8731374 0.46558803 -0.654883 -0.56184924 -0.011703407 0.31970504 0.025669746 -0.16207595 0.73706895 -0.70603144 -0.29467785 -0.36557615 -0.08812698 -0.08990067 0.22701885 0.5902731 0.5286476 0.72694695 0.5546547 -0.2663165 0.18125391 0.04071935 -0.5466922 -0.2635007 0.5907619 -1.0569532 0.67259663 -0.7595574 -0.7467474
93 0.25025815 -0.26806682 0.49502048 -0.66864234 -0.28532487 0.2786284 0.9781488 -0.06952583 0.26830232 -0.8537315 -0.055418245 -0.25590348 0.44013005 -0.5813267 0.92744595 0.54506546 -0.26371393 -0.032641966 -0.2444478 -0.03406323 -0.31852806 0.56744623 -0.31552848 0.66233635 -4.21897e-05 0.5764438 -0.5117223 0.9214388 -0.36363348 -0.7233647 0.24896026 -0.48607054 0.0020839176 0.57027733 -0.049923476 -0.46234486 0.125661 -1.0223994 -1.0400907 0.49376807 -0.059459876 -0.06112539 -0.30448744 0.4787803 0.24306427 -0.30707335 0.038495455 -0.33263668 -0.07469153 -0.6412125 0.072273046 0.30831727 0.3567417 1.0802121 0.12571725 0.35612538 -0.18542765 -0.25532016 -0.010767273 0.8287274 -0.456512 -0.19008626 -0.4780623 -0.47269374
865 -0.03969022 0.060979757 -0.22351566 -0.3327949 0.23399457 0.27872044 -0.69611466 0.12070565 -0.5718009 -0.24447624 -0.40586075 -0.19689965 0.045808434 -0.5322571 0.6300098 0.87346023 -0.19435859 0.39094773 -0.2586844 0.22455056 -0.096905746 0.65209657 -1.0323056 0.50207716 -1.292222 0.18524918 -0.32953644 -0.30982333 -0.576489 0.3713562 0.7938008 -0.48909914 -0.6398644 0.8490486 -0.1180242 0.12309646 -0.204747 -0.9404138 -0.40685886 0.03378842 -0.33645597 -0.23799555 0.14056861 0.77843004 -0.31715742 -0.1743109 -0.55905867 -0.56708485 -0.8462286 0.127856 0.47033697 0.48115405 0.29237002 0.51260567 -0.6243618 -0.5001764 0.13808838 0.04601949 -0.5831252 0.2936671 0.1758347 0.33482623 -0.6529265 -0.14946094
59 0.5569106 0.03125605 -0.015476495 -0.1270733 -0.46317357 0.5113766 0.60282594 0.05480567 0.022974715 -0.75228125 -0.25431877 -0.003055248 0.17296539 -0.7274919 0.8208265 0.48886082 -0.11654656 0.1280662 -0.0066938326 -0.20071338 -0.06863087 0.6038761 -0.36841604 0.9145858 0.28562975 0.31660298 -0.75759816 0.8374734 -0.7817783 -0.77359873 0.41866136 -0.22890517 -0.077234544 0.289935 -0.39206293 -0.25063837 -0.16077752 -1.3242712 -0.8135863 0.09094252 -0.20950386 0.18884726 -0.14427917 -0.1971276 -0.09437458 -0.22603694 0.48078334 -0.1926992 -0.102025166 -0.7357374 -0.08266337 0.6089393 0.5069241 1.4112986 -0.09399453 0.45802796 -0.13474716 -0.18318678 -0.09813681 0.5208119 -0.45276916 -0.0673917 -0.34642968 -0.2963578
91 0.7490133 -0.035139833 0.19156088 0.01672577 -0.43964902 0.3348361 0.7176322 0.059679657 0.16096196 -0.68741786 -0.25349748 0.16658267 0.1609663 -0.5179032 0.98907983 0.559907 -0.40740412 0.28689557 -0.020231811 -0.14954425 -0.06073422 0.6281793 -0.36884588 0.7755933 0.23439538 0.48162556 -0.63163304 1.0415051 -0.6394491 -0.80375284 0.3248298 -0.44662574 -0.0478243 0.27249485 -0.4121436 -0.31880257 -0.21783541 -1.3338026 -0.7380152 0.055533893 0.03296409 -0.1294101 -0.12463327 0.104892306 -0.0061044735 -0.27232158 0.31489524 -0.14025871 0.18679254 -0.56641805 0.2346667 0.7072601 0.34661242 1.0909095 -0.026218602 0.123742305 -0.3489804 -0.0149586955 -0.29199082 0.63257104 -0.4868507 -0.15689583 -0.26148725 -0.30076805
41 -0.24657753 -0.020741342 -0.17544192 -0.6817242 -0.51352257 0.37977803 0.22995806 0.6769604 0.1169672 0.18789406 -0.40493605 0.7744462 0.8082818 -0.43831694 0.64115053 0.6038242 -0.8799043 -0.11738149 0.37036502 0.4682375 0.64698774 0.89208204 -0.27019024 0.26991075 -1.2614673 0.06924767 0.5217469 0.66170394 0.3050016 -0.07806351 1.0617173 0.16965628 -0.4614799 -0.21764366 -0.8574107 0.26586288 0.18196699 -0.33160168 -0.26446155 0.37282223 0.24157417 0.67424667 0.06992195 0.10561086 0.05363113 -0.8145562 0.15791225 -0.051355846 -0.6839724 -0.08408384 0.05940244 0.31637552 0.070653826 0.122316144 0.60873103 0.2498581 -0.22372688 0.31887463 -0.22580038 0.47190443 -0.44598266 0.22682983 -0.717957 -0.5312691
954 -0.18594971 -0.5748179 -0.221419 0.047850333 0.194671 -0.25793087 0.22346576 -0.6415674 -0.20775737 -0.35601842 -0.2556805 0.14957467 0.46615794 -0.7681089 0.9358753 0.048935182 -0.24144635 0.37100866 -0.6444414 -0.026446734 0.26991338 0.4740939 -0.19605206 0.076738514 -0.8179347 0.045984387 -0.47660777 0.3434494 -0.0016702935 -0.090016484 0.93407714 -0.45809495 0.56543493 -0.24934024 -0.2197349 0.45975885 0.3383724 -0.35764563 -0.23002145 0.05589789 -0.23966457 1.1961524 -0.15002295 0.0860113 -0.08519202 -0.5725689 0.99560446 0.033155933 -0.4999169 0.8365909 0.4663534 -0.061598886 -0.20911768 0.7404806 -0.6964115 -0.5525935 -0.030893708 -0.26236415 -0.3077228 1.2722322 0.1178355 -0.18425047 0.2970454 -0.12441383
87 0.6793375 0.25263107 -0.8408578 0.3377673 -0.72166455 0.1851313 -0.19946057 0.21610995 -0.34198406 -0.3351001 0.07807548 0.9747814 0.31328812 -0.26691723 0.47587836 0.3507008 -0.3396059 -0.04945857 -0.32717085 -0.060007103 -0.15779398 0.25801963 -0.63062006 0.23003334 0.27754414 0.22139019 -0.4134999 0.35158798 -0.5141606 -0.65624917 0.6221377 -0.42188463 0.1006247 0.111260094 -0.2807981 0.16587925 -0.23794231 -1.5023547 -0.9159694 0.3147558 -0.51472294 0.0029911774 -0.29170302 -0.2507996 -0.19980615 0.40729997 0.5147343 0.1863727 0.025575101 0.18596697 -0.0186123 1.4214889 0.2904028 0.92626244 -0.2096431 -0.3352952 -0.60514647 -0.3162535 -0.20620033 0.26287803 -0.37651148 -0.17250162 -0.12408764 -0.28450283
121 0.9070109 -0.19895634 -0.23650852 -0.039468907 -0.5916611 0.1672406 0.05665559 0.17592481 -0.15491818 -0.35557884 -0.19492872 0.48940805 0.29534745 -0.45590746 0.8092799 0.5338714 -0.91538644 0.11710212 -0.23642148 -0.22927825 -0.07015757 0.27237624 -0.61859053 0.43704873 0.21930718 0.039345283 -0.035658415 0.6567088 -0.766277 -0.8014485 0.20146796 -0.7148193 0.07790426 0.17354417 -0.26561227 -0.14294817 -0.03448571 -1.3580226 -0.6841542 0.24715842 -0.13363339 0.029016282 -0.29917717 -0.11946767 0.18884458 0.28908974 0.2523005 0.25215098 0.19005142 -0.4170236 0.48262742 1.0197552 0.100192055 1.167584 0.1642652 -0.11131102 -0.6398905 -0.6128812 -0.3987168 0.3780248 -0.4178099 -0.2210083 -0.25979632 -0.21428075
926 -0.11582409 -0.23331544 -0.060913496 -0.7758231 0.5791189 -0.38816175 0.21075463 -0.02853877 0.26701578 -0.30751175 0.2495264 -0.10958472 0.69049793 -0.53537077 1.1110964 0.4955084 -0.3509003 -0.10170801 -0.87640554 0.18690737 0.4847769 0.8007272 -0.31710976 0.3173751 -0.11024797 -0.14250603 -0.9615602 0.2829184 -0.026632188 -0.26802567 0.8805609 -0.3637142 -0.33749712 -0.2717309 -0.2766344 0.6289067 1.3762895 -0.19097532 0.18846714 0.05223219 -0.8287339 0.67725146 -0.01798401 -0.0987014 0.25506958 -0.320637 0.33816674 0.13862264 -0.58032566 0.6827768 0.32119274 0.737401 -0.12424898 0.7361725 -0.5914354 -0.25220078 -0.3024581 -0.63222927 -0.49656385 0.24135953 0.058039002 -0.10012376 0.16426028 -0.17919621
894 -0.14758082 -0.17903125 0.10130308 -0.7322504 0.6103472 -0.38256487 0.18415554 0.04203773 0.2363948 -0.4033496 0.18048403 -0.014180023 0.5639932 -0.6880533 0.8301953 0.29586962 -0.25743347 -0.13966724 -0.7523853 0.20928034 0.8361975 0.71260405 -0.58674264 0.099724464 -0.2974244 -0.023364859 -0.820029 0.035909038 0.01949195 -0.17985597 1.0502648 -0.4317496 -0.43097392 -0.20891742 -0.31744245 0.48567453 1.3159323 -0.30024862 0.18055461 0.16776057 -0.8642039 0.35922974 -0.15704393 -0.19840367 0.3916714 -0.70577765 0.3824276 0.08680482 -0.49572286 0.51895434 -0.023321535 0.52742267 0.12217214 1.0002899 -0.496864 -0.14090478 -0.1803998 -0.8466266 -0.68038744 0.1400053 -0.058883406 -0.24417436 0.28943074 -0.29759043
985 -0.3363706 -0.7051537 -0.1649596 0.20253593 0.05943965 -0.07705851 0.23277833 -0.82542175 -0.1768665 -0.5033638 -0.32480457 0.17834532 0.398178 -0.50581646 0.5082933 0.17613204 -0.39824256 0.07761367 -0.5194163 0.23254657 0.25525478 0.5161031 -0.16909097 0.17682 -0.66635555 -0.12054577 -0.5353441 0.57048756 0.21112952 -0.20824689 0.9931462 -0.2980384 0.56774914 -0.27526256 -0.088665195 0.24381547 0.20798858 -0.5990438 -0.5289799 0.16570103 -0.22393706 1.016638 -0.12301969 0.23869252 -0.3642145 -0.3682952 0.78210723 0.31704006 -0.9007385 0.6122336 0.7672737 -0.09591954 -0.3060821 0.4791684 -0.81910145 -0.58001524 -0.040336266 -0.10678707 -0.11782629 1.6188431 0.08465449 -0.3951031 -0.07983029 -0.14693664
50 0.66746336 0.3184574 -0.6877938 -0.35613555 -0.080138214 -0.124842115 -0.5199033 -0.28452295 -1.0025192 -0.00032851376 0.06860184 0.6992808 0.2688414 -0.18760695 -0.05383663 -0.09010951 -0.23798674 0.16785504 -0.12526657 0.7729349 -0.63479775 0.17798142 -1.3617892 -0.07613478 -0.14684598 0.4230005 -0.92600185 0.11335433 -0.14771983 -0.20537671 1.1463088 0.31546494 0.050327007 -0.163701 -0.35994953 0.0032073313 0.35371032 -0.6194707 -1.0915183 1.0361263 -0.2264163 0.35214344 0.003109909 -0.06142356 -0.14547811 -0.38044116 0.3057325 0.61834276 -0.4654327 0.8427651 -0.39056572 0.7897096 0.01239801 0.22472052 0.10661687 0.3888534 -0.3695318 0.1499429 -0.56175363 0.3440523 -0.31279883 -0.090517804 -0.06845483 0.19031931
289 0.06940256 -0.091709636 -0.5262314 -0.03725767 -0.81628686 -0.36665004 0.24800554 -0.569266 -0.66477823 -1.2587924 0.07352368 0.23122594 0.25440046 -0.65544844 1.1530756 0.96046686 0.13704683 0.06037861 -0.7158247 -0.0030836344 0.54123837 -0.03850309 -1.13782 0.23377065 -0.11301969 0.09190187 -0.5224949 0.42429414 -0.34695786 0.2035302 0.10460199 -0.6496358 -0.15701006 -0.49693203 0.41904268 0.47384053 0.23872341 -0.3948807 -0.083170496 0.5133015 -0.028280275 -0.43772393 0.43936867 -0.012907908 0.49354023 -0.061440505 -0.079217754 -0.08257865 -1.2276587 0.23252083 -0.5942026 0.42703405 0.035895776 -0.055134404 0.41508114 0.17711355 0.3783771 0.2131855 -0.13871464 0.7958835 -0.51439095 0.3347802 -0.20170341 -0.16179027
68 -0.3042313 -0.26305804 0.3066664 0.2620601 -0.9535686 0.5532322 -0.46899387 0.45527968 0.42353436 -0.25863782 0.11897656 0.9277456 1.2136334 -0.74815536 0.7027327 0.54210377 -0.73629427 -0.08085623 0.4680588 0.28857404 0.13118361 0.5118695 -0.27167207 0.58020806 -1.214672 -0.085853234 -0.39957312 0.48063067 0.19445428 -0.22788243 0.4031724 0.051501047 -0.20410454 0.060086425 0.8308805 0.3737611 0.2942762 0.0038830277 -0.85761756 0.06127789 -0.38945103 0.22087036 0.042399216 0.002225535 -0.27999237 -0.42003533 0.32055435 0.14086597 -0.5767137 0.15948464 -0.38242167 0.32431293 -0.6119697 0.6893365 0.18407434 0.26808807 0.23187329 -0.20389074 -0.5784205 0.03824639 -0.5171063 0.44035885 -0.19996385 -0.4556186
36 -0.29456556 0.044690944 0.32046613 0.24775048 -0.6996398 0.50772965 -0.29350314 0.32948568 0.503018 -0.1635724 0.07519361 1.0072556 1.100395 -0.93141544 0.77723795 0.6307009 -0.8766314 -0.34214503 0.16617769 0.14902262 -0.0071077896 0.5310393 -0.4009222 0.46141797 -1.4195266 -0.0065567275 -0.15027662 0.23905635 0.3999956 -0.034338437 0.3495333 0.09428989 -0.24164587 0.12854733 0.49709466 0.495686 0.19063413 -0.19422439 -1.0840939 0.115403794 -0.2440129 0.35767764 0.2731722 0.097752005 -0.36352172 -0.66875875 0.58552134 -0.007854811 -0.5382024 -0.18620425 -0.15917574 0.41777447 -0.72407293 0.562726 0.21199597 0.247607 0.1300713 -0.1495423 -0.51035 0.039499167 -0.5751024 0.525282 0.032419015 -0.19159026
193 0.20156915 -0.48953858 0.2541566 0.27634096 -0.882396 -0.1712311 -0.09255145 -0.23053218 -0.3959944 -1.0419806 -0.16456077 0.56616455 0.5921133 -1.0187138 1.043134 0.60795826 0.178117 0.44934455 -0.34439677 0.14936648 0.16877241 -0.030234095 -1.1268874 0.3886385 -0.30172706 -0.22131114 -0.6221981 0.42461756 -0.119513854 0.022838382 -0.09133567 -0.42117512 -0.12726931 -0.12717949 0.5116914 0.47310907 0.4732296 0.03536572 -0.6494417 0.1561979 -0.048459567 -0.26034164 0.35917795 -0.350318 0.07323492 0.25254676 -0.3909572 0.17284642 -1.1730301 0.31891057 -0.85425127 0.53751194 -0.6558917 0.23433876 -0.33012792 0.52754205 0.47541216 -0.17353581 -0.5356798 0.72836083 -0.31755185 0.23264751 -0.12613103 -0.32666582
931 -0.048331473 0.040735856 -0.5000422 -0.6555727 0.12778664 -0.0010338677 -0.47510913 0.0012976894 -0.74943405 -0.48752633 -0.5133063 0.1519635 0.3181777 -0.51274127 0.6848264 0.26189724 -0.14018726 0.4025309 0.07626704 -0.16862875 -0.24254537 0.38338754 -0.8131723 0.4671733 -1.1891983 -0.01188524 -0.56368953 0.049691767 -0.1492677 0.3659174 0.8237103 -0.42574316 -0.35151386 0.7572915 0.39926982 0.6569466 0.29576218 -0.8159912 -0.018478893 0.10203458 0.26253888 -0.005914294 0.009034842 0.6412185 -0.5891735 -0.24698398 -0.7740723 -0.260504 -0.15993947 0.06501778 0.45671737 0.5643914 0.7676557 0.40407217 -0.6395574 -0.2434361 0.085559376 -0.43300188 -0.5403942 0.42185032 -0.7284937 0.7494665 -0.7359474 -0.06274582
89 0.79318213 0.069782324 -0.27862826 0.05302907 -0.85717064 0.352002 -0.042218886 0.1628519 -0.07226605 -0.39067572 -0.055602655 0.54172575 0.18646742 -0.6065428 0.70927155 0.6519456 -0.42939642 0.12440684 -0.34968063 -0.04572125 0.058544245 0.5614189 -0.6705481 0.55210394 0.2741415 0.2751034 -0.28362998 0.63281053 -0.7376928 -1.0565462 0.23460515 -0.3188526 0.25767133 0.33156452 -0.39905655 -0.110669754 -0.007868195 -1.3146377 -0.81046844 0.087563105 -0.24740985 0.08398364 -0.5109165 -0.18415788 0.1659855 0.24791348 0.31259155 0.1478149 0.1930975 -0.42200005 0.33841395 0.83066064 0.30532208 1.1397555 -0.17681241 -0.1452796 -0.43161726 -0.42402637 -0.35582384 0.43707272 -0.5180327 -0.17112131 -0.207552 -0.20531397
925 -0.028593738 -0.38727278 -0.37550262 -0.719124 0.54741436 -0.1986244 0.37275591 -0.004653225 0.06698538 -0.46015686 0.17286426 -0.08612644 0.7500731 -0.5523759 0.88469565 0.36317766 -0.19059257 0.046857357 -0.73651284 0.2649776 0.5395424 0.66831815 -0.11956884 0.2012164 -0.32207748 -0.3316546 -0.91839004 0.1576681 -0.015603816 -0.14164676 0.89214534 -0.43022266 -0.09698853 -0.3192147 -0.42206734 0.4317145 1.1427323 -0.24250776 -0.13848355 -0.08432408 -0.7331954 0.6324607 -0.15009402 -0.11572849 0.19015618 -0.60956913 0.7073009 0.08478674 -0.8629009 0.7361874 0.20455578 0.587341 0.05123552 0.7812099 -0.82192874 -0.42463118 -0.2433503 -0.5315498 -0.30509272 0.3468917 0.14584252 -0.10252538 0.21718745 -0.3541839
966 -0.63445073 0.35324183 -0.59680855 -0.61853415 0.29075903 -0.406001 -0.31070796 -0.41249716 -0.5385744 -0.024940517 -0.5872165 0.6379281 0.46741706 -0.18931568 0.16964792 0.12607078 -0.11711467 0.11236959 0.08109776 -0.089645356 0.03238479 0.5758768 -0.7686638 0.7969489 -0.51627445 -0.4405217 -0.9915372 0.26624092 -0.25085402 -0.032346975 0.22356084 -0.6589908 -0.19677304 0.031500474 0.31943572 0.7880461 0.3396515 -0.62693304 -0.41765103 -0.17423221 0.40802488 -0.07365554 -0.13393936 0.4594044 -0.9221568 -0.61563826 -0.46793362 0.106430925 -0.039872896 -0.0052517564 0.47259554 0.2167592 0.43183368 0.6062233 -0.21059212 0.22643515 -0.080995746 -0.49733403 -0.5224086 0.8670284 -1.1206442 0.5063674 -0.7584427 -0.5332473
79 0.34959844 -0.14651357 -0.63991183 -0.6013324 0.5572565 -0.16677548 -0.2466173 -0.29328698 -0.8438173 -0.21891585 -0.19808407 0.15243417 0.2714763 -0.21398516 0.03778082 0.33692643 -0.42412335 0.16975436 0.13598485 0.54238474 -0.5319386 0.45441675 -1.0012921 -0.19739904 -0.55291027 0.6006156 -0.35216895 0.2889714 -0.36696464 -0.37987027 0.7230158 0.102772616 -0.3457755 0.006375419 -0.78415805 0.011594124 0.34344032 -0.0057782447 -0.81778526 0.9543035 0.41832703 0.8104343 0.20646806 -0.46774638 0.273529 -0.7572012 -0.029985962 0.60620755 -0.70409596 0.6255286 -0.50863403 0.3051502 -0.15970388 0.046141252 0.026449488 0.84183806 -0.11589036 0.3543371 -0.41046605 0.5550569 -0.43716246 -0.22571445 -1.097006 -0.18542264
88 0.8532445 0.22384241 -0.5062252 0.18488574 -0.7018908 0.44475296 -0.18630116 0.38765568 -0.3379437 -0.37425157 0.18118928 0.7447256 0.29637545 -0.57107806 0.57572263 0.44468197 -0.45289662 -0.20817594 -0.3619254 -0.27451095 -0.067259386 0.35690373 -0.6957862 0.26718554 0.17627327 -0.009482872 -0.4119125 0.57331526 -0.6458758 -0.9702073 0.45402864 -0.46319276 0.271601 0.14594713 -0.2322614 -0.09974116 -0.17354451 -1.4756734 -0.8721116 0.2195361 -0.28107345 0.16438691 -0.33521476 -0.0772381 0.22683007 0.36951846 0.5189786 0.0663195 0.0733979 -0.10752911 0.35741928 1.197568 0.34714517 0.92769504 -0.19927703 -0.11764357 -0.4482495 -0.28140453 -0.2772405 0.20835803 -0.3757803 -0.20439075 -0.12614848 -0.31709397
60 0.4597054 -0.044406757 0.13123898 -0.12723073 -0.25340235 0.60935146 0.79171777 -0.21408659 0.20024946 -0.8460734 -0.2044919 -0.033982594 0.37567335 -0.57698476 0.9894351 0.45738044 -0.17280981 0.040594194 -0.18983027 -0.089249134 -0.11133407 0.5641666 -0.13036062 0.75380486 0.069379956 0.5249053 -0.8566257 0.8430064 -0.50328183 -0.7572293 0.24028262 -0.14188716 -0.06651921 0.46129748 -0.26433542 -0.5150637 0.041826013 -1.3568513 -0.91160464 0.31419465 -0.047898173 0.12717044 -0.12451589 0.013466875 0.07758961 -0.32088327 0.3380304 -0.36424607 -0.17984565 -0.71990097 -0.070001386 0.60195404 0.5772687 1.04801 -0.23837182 0.51347077 -0.22414516 -0.18661435 0.0042746593 0.6234277 -0.5422196 -0.17670593 -0.66573244 -0.44430736
40 -0.39241472 0.109591894 -0.031776406 -0.32432887 -0.6517406 0.4445359 0.13184306 0.87126195 0.20046397 0.34258744 -0.2081693 0.7308058 1.0192138 -0.50057 0.8957095 0.65249956 -0.9356349 -0.107712835 0.48165932 0.20762768 0.68416613 0.9196601 -0.32075426 0.04213804 -1.1299456 -0.024332814 0.16549973 0.8620637 0.24451761 -0.032075714 1.1165782 -0.07078503 -0.58321136 -0.21816842 -0.49028128 0.2733127 0.11566361 -0.3678452 -0.44893625 0.27880886 0.29965726 0.7496042 0.091835305 0.049532384 -0.06480827 -0.57116586 -0.009386547 -0.054649707 -0.5001481 -0.14675637 0.1593883 0.11167507 -0.24253374 0.23805049 0.4850646 0.3731575 -0.10431677 0.21346633 -0.2926927 0.2760671 -0.412221 0.22264744 -0.4486892 -0.5295987
734 -0.39481792 -0.5679823 0.047094867 -0.54606783 0.68209064 0.10904543 -0.427209 -0.06921404 0.43087325 -0.49465746 0.20351368 0.078177914 0.60209763 -0.5067656 0.64867866 0.9027243 -0.38027397 0.17665744 -0.2905603 0.06534969 0.35430512 0.45925614 -1.2523489 -0.22385076 -0.4997923 -0.4067917 -0.30188107 0.3455136 -0.013118163 -0.34169695 1.0941741 -0.23854887 -0.38115957 0.09090756 0.23261821 0.22322465 0.35028192 -0.04431234 -0.32950988 0.39214107 -0.38876182 -0.6305884 -0.20594263 -0.76239794 0.25780326 -0.83754826 -0.15425852 -0.27297658 0.17004351 0.03753061 -0.39885044 0.7552057 0.92708176 0.1782496 -0.054110996 0.27305385 -0.50384176 -0.35396597 -0.5485785 0.09838345 -0.63608146 -1.0508983 0.18374862 -0.68541545
933 -0.35466582 0.19697636 -0.62787217 -0.7236753 0.1707055 0.012127682 -0.34298366 -0.20757347 -0.58705795 -0.16940908 -0.37150386 0.5806445 0.32755598 -0.21321467 0.17121314 0.27925482 -0.14868353 0.30537683 0.0032720573 -0.29093176 -0.15103404 0.45796296 -0.8861041 0.31036937 -0.78625256 -0.57832336 -0.7955998 0.29154897 -0.10638141 0.20800397 0.25132796 -0.5057862 -0.4002002 0.40725031 0.3327197 0.853555 0.3064947 -0.6820059 -0.15435079 0.0074156397 0.23126805 -0.24527897 -0.049321815 0.6625868 -0.65057594 -0.3045821 -0.5697636 0.024056716 -0.089172974 0.10773528 0.5404547 0.2807963 0.62702584 0.8194409 -0.6754491 0.25186968 0.10723252 -0.3026981 -0.54101634 0.7852559 -0.85657996 0.5884953 -1.0820768 -0.5150828
258 -0.054161478 -0.19488545 -0.18710756 0.13176818 -1.0607647 -0.1932199 0.05887184 -0.54674166 -0.5520183 -1.3801185 0.006604283 0.4346926 0.40484893 -0.34983325 1.4205395 0.68309414 0.23950642 0.17997353 -0.5524621 0.18136038 0.43763298 0.084340885 -1.0931351 0.29670137 -0.19792293 0.030732397 -0.29868904 0.38742858 -0.64133584 0.036391098 0.017267326 -0.6528453 -0.049914576 -0.11389446 0.41087714 0.5082237 -0.0053541 -0.11415915 -0.16141611 0.32316923 -0.19045319 -0.29949218 0.294764 0.10017202 0.3889412 -0.17979227 -0.23834951 0.14606033 -1.2463454 0.5986974 -0.6862519 0.37464812 -0.15403825 -0.029382616 0.3457885 0.4309472 0.3179134 -0.14667462 -0.37197363 0.5394738 -0.41221523 0.06532102 -0.0011595086 -0.4480726
42 -0.045147732 -0.035234448 -0.06088518 -0.6653489 -0.16955738 0.24145345 0.021310793 0.604891 -0.22787099 0.4560532 -0.47594067 0.50355816 0.71664065 -0.6714585 0.7323997 0.6048362 -0.5898545 -0.023870027 0.23679805 0.22367084 0.5403187 0.87859267 -0.46821353 0.24560589 -1.1400503 0.25453535 0.48748174 0.8566599 0.017736936 -0.21026506 0.9298461 0.17201889 -0.75312006 -0.34471056 -1.1198846 0.17184792 0.1708887 -0.21490458 -0.19031954 0.28093436 0.26896948 0.7615329 0.06596448 0.009833169 0.27856398 -0.77379775 0.12602852 0.0124118 -0.64455163 0.03764219 0.11024099 0.25917807 -0.032769598 0.2042517 0.65255576 0.4216381 -0.1386375 0.24448554 -0.06444192 0.6697303 -0.4405438 0.11748366 -0.95942014 -0.3508283
321 0.08190973 -0.15084253 -0.5819491 -0.034326967 -0.55899316 -0.40357605 0.20686899 -0.6421999 -0.37948486 -1.2169701 0.12556094 0.18857974 0.301314 -0.4351267 0.91966 1.1969658 0.2566529 -0.007371017 -0.6651186 -0.14069119 0.65079784 0.019665426 -1.2145834 0.11098259 -0.08655624 0.06680876 -0.580293 0.70758444 -0.4966969 0.5076556 0.27210692 -0.5702035 -0.19094552 -0.41784853 0.06643314 0.6866365 0.016570663 -0.40887734 -0.24413943 0.4192151 -0.04837345 -0.44647932 0.121032104 0.1424515 0.6994685 -0.05107481 0.043610066 0.1055414 -1.1177725 0.14374371 -0.24172407 0.45496035 -0.03888052 -0.113378055 0.2258898 0.18862827 0.6169974 0.32408842 0.09680044 0.7107852 -0.7002872 0.26527056 -0.1304617 -0.054448936
648 -0.18526392 -0.85488766 0.67578924 0.23903224 -0.33466148 -0.7288031 0.11738339 -0.22417243 0.5133539 -0.14133687 0.840642 0.61518204 0.7665939 -0.46646824 0.23049909 0.47363305 0.1506621 0.13818717 -0.46710056 0.34343833 -0.20019463 0.07775933 -0.35836062 0.38994652 -0.0075451666 -0.072333254 -0.19220763 0.5381233 0.0532457 -0.08684127 0.86491513 -0.33924425 -0.22452411 0.3879944 -0.97870386 0.040380515 0.01358486 -0.45646796 -0.17250282 0.9246062 -0.021988738 0.18699682 0.75230336 -0.45231768 -0.6031086 0.26203007 0.624874 -0.14810488 -0.23545262 0.5351949 0.048373133 0.11956198 0.9723743 0.27455088 0.14559129 0.4653939 0.09032844 -0.35581884 -0.87498856 0.5916722 -0.26712093 0.62915504 -0.72567517 -0.18976149
989 0.25030562 -0.05898574 -0.16499214 -0.47190404 0.010955318 -0.68284476 0.16527551 -0.4061014 -0.012853172 -0.6840793 -0.061890844 -0.27632806 0.73560655 -0.52216774 0.755955 0.50688684 -0.24130721 0.12635483 -0.6777427 0.46343422 -0.04199312 0.92940336 0.49127746 0.49162918 -0.356004 -0.43445837 -0.7672872 0.32492036 -0.009909988 -0.076143585 1.1033645 -0.26418293 -0.08523199 -0.3127602 -0.09788602 0.5753803 1.0498043 -0.32147115 0.00811597 0.20803982 -0.7789999 0.7596233 -0.062027518 0.05622681 0.1699644 -0.69104755 0.7336214 -0.037058458 -0.54012346 0.7416148 0.63192284 0.6451904 -0.42867503 0.7966532 -0.55288327 -0.6226732 -0.08009075 -0.20067598 -0.47123885 0.617094 0.1095811 -0.18056642 -0.098949425 -0.41817892
222 0.5240811 -0.79118896 0.545288 -0.48185307 -0.0902378 -0.0002594672 0.7423578 0.24429911 0.51776135 -0.6969424 -0.0155598475 0.16647251 0.30311522 0.11304571 0.53027564 0.6132289 -0.14848569 0.45338732 -0.0067004752 0.04305679 -0.54941326 0.06344495 -1.1533946 0.46440393 -0.41959447 0.3832752 -0.21881478 0.9978806 -0.33128715 0.020984925 0.10742837 -0.8134517 -0.1414536 0.4552588 -0.24431974 -0.46198753 0.91060275 -0.26800808 -0.6971536 0.5002368 -0.47232026 0.07937373 -0.54514563 0.87918466 -0.29330462 -0.977417 0.25935504 -0.15377335 0.05470828 -0.1697195 0.16808872 0.4172645 -0.24664655 0.5078375 0.24561524 0.100879684 -0.38240466 -0.07241095 -0.09825573 1.0525672 -0.49562776 0.38175717 -0.2135685 0.21515529
34 0.11857276 -0.32472903 0.48272905 0.19135703 -0.4067815 0.56532633 -0.18640928 0.13087101 0.3847255 -0.29056627 0.27053824 0.6528603 1.019214 -1.1101133 0.59172124 0.5983619 -0.91626716 -0.26006326 0.01108411 -0.17230587 -0.15677151 0.39534116 -0.41723374 0.43768468 -1.1088672 -0.15985596 -0.9299046 0.41356558 0.44588235 0.05518023 0.18185803 0.13308875 -0.0015722356 0.4028929 0.5884494 0.71047723 -0.010520213 0.010548886 -1.2489545 0.036179133 -0.16881219 -0.044466622 0.40477818 -0.015164073 -0.38181397 -0.39443707 0.28461808 0.4086122 -0.23374677 0.05131113 -0.3049235 0.7535053 -1.0038934 0.47912183 -0.09047834 0.30978358 0.10756741 -0.081280425 -0.99402153 0.27629706 -0.37441528 0.3686965 -0.08120567 -0.14120781
151 0.8240862 -0.17376333 -0.57317394 0.16108331 -0.6083764 -0.3360647 -0.1406067 0.17286772 -0.09317313 -0.109728284 -0.5511343 1.253817 0.3520895 -0.29760936 0.48255575 0.26307425 -0.7381756 -0.29507548 -0.040819474 -0.026389072 -0.14660908 0.5527859 -0.6906216 -0.26279062 0.079686955 -0.05920683 -0.2359573 0.42958662 -0.8124419 -0.7225358 0.57146573 -0.8451302 0.14928882 0.1690837 -0.21897356 0.06858828 -0.1081567 -1.2147628 -0.74345535 0.24848412 0.0043874243 -0.34998685 -0.18794037 -0.2770424 0.059415832 0.09821751 0.3572884 0.09310881 -0.00424214 0.12167403 0.18363884 1.1326882 0.06403493 0.8508945 -0.029920168 -0.49596485 -0.4863153 -0.4902882 -0.28834787 0.29077664 0.038957033 -0.19415992 -0.35450068 0.027203752
899 -0.37734795 0.01330403 -0.51902467 -0.5829815 0.050224993 0.065474935 -0.54929847 0.051842157 -0.72030413 -0.32193077 -0.64963245 0.10497764 0.3296815 -0.24558227 0.79958516 0.40758026 -0.35258996 0.37742504 -0.18731171 -0.3225181 -0.25904632 0.5968877 -0.78238255 0.613477 -0.92673784 -0.1891896 -0.37674245 -0.06937882 -0.36608464 0.18657717 0.8023117 -0.5153177 -0.39345875 0.86100525 0.1271191 0.5841568 0.13447355 -0.62622744 -0.2174264 0.2555022 -0.111962125 -0.02151267 0.34513193 0.84670275 -0.6434137 -0.1452231 -0.8450225 -0.329281 -0.20596592 0.12983058 0.36597288 0.3714772 0.75997514 0.53388613 -0.71799976 -0.01000727 0.16461669 -0.22400242 -0.66391516 0.4586649 -0.33411986 0.6836979 -0.6972824 0.11406422
924 -0.046124026 -0.5245289 -0.4633215 -0.32122624 0.3351001 -0.09302563 0.4153458 -0.21290551 -0.006535983 -0.54391944 0.10374891 -0.17071204 0.7050345 -0.6346602 0.94499576 0.12563466 -0.26975852 0.24149355 -0.5716489 0.3140096 0.39383453 0.8736124 -0.2115837 -0.03943561 -0.45216107 -0.10785959 -0.83869857 -0.038848966 0.108805336 0.023407625 0.7048933 -0.577961 0.1714004 -0.2520539 -0.4227594 0.4890065 0.8012253 -0.14859013 0.07206346 0.07035813 -0.74659395 0.925198 -0.2439001 -0.26637423 -0.016315097 -0.72481734 0.803714 0.10114122 -0.6533882 0.69550973 0.2303292 0.36792254 0.11146366 0.9111558 -0.82871264 -0.55482125 -0.2876815 -0.3476028 -0.5187102 0.49772143 -0.050788045 -0.2259061 0.21711059 -0.5124478
67 -0.23982674 -0.37705982 0.5096865 0.2551128 -0.7477949 0.328834 -0.33062965 0.37413767 0.38995925 -0.3819997 0.041659597 0.89047587 1.0257938 -0.9168923 0.8525213 0.4995754 -0.8104734 -0.25403175 0.34794 0.06967879 -0.15491277 0.4823794 -0.39489272 0.5174679 -1.1438043 -0.25408703 -0.61836106 0.24905653 0.24504524 0.0400734 0.45288268 0.09451776 -0.116789445 0.22145036 0.6758799 0.28127453 0.27356365 -0.0639168 -0.9121027 0.034577463 -0.44023678 -0.014171321 0.27155203 0.018645845 -0.5091783 -0.1890251 0.23579049 0.50732785 -0.60095966 -0.08082435 -0.56268615 0.33449882 -0.8658859 0.60740966 0.03337327 0.3908145 0.22731338 -0.15095147 -0.8153268 0.3145921 -0.52286917 0.3191477 0.039011184 -0.09941648
61 0.16825649 -0.14624995 0.29842114 -0.4604864 -0.21728373 0.62308204 0.96302736 -0.12235849 0.1073387 -0.81378007 0.03066423 -0.19462785 0.36389592 -0.471062 1.2860643 0.7116874 -0.17895883 -0.041865114 -0.22813493 -0.066368274 -0.43500024 0.7471168 -0.006288606 0.6000133 0.09830078 0.5061275 -0.78317213 0.8102436 -0.43709278 -0.60694325 0.21224149 -0.3851281 -0.100004904 0.5511343 -0.14460847 -0.4398813 0.22825435 -1.1243736 -0.9791825 0.34824297 -0.11270443 0.29293284 -0.29942203 0.012143407 0.24380055 -0.27537155 -0.013120497 -0.30368033 -0.14036784 -0.5684147 -0.03011829 0.31001163 0.58190197 0.9616113 -0.00028770088 0.6372735 -0.11194554 -0.189402 0.1145671 0.7890122 -0.755424 -0.104201645 -0.53780586 -0.3495293
51 0.5703821 0.26062304 -0.6783676 -0.3313662 -0.20693158 -0.090105675 -0.5644913 -0.2859762 -0.94980466 -0.0667144 0.050993558 0.95977193 0.26818612 -0.19006203 -0.021020744 0.20738876 -0.28515467 0.11734823 -0.15588094 0.6042319 -0.567519 0.2325423 -1.1249306 -0.22472547 0.0384615 0.30420956 -0.7924007 0.026724145 -0.20745239 -0.5706414 1.1018109 0.27832365 0.15768157 0.13719322 -0.27641344 0.29720947 0.1846965 -0.6337172 -1.1279674 1.0906812 -0.46867654 0.44545612 -0.18254803 -0.08637522 -0.08484947 0.012024731 0.27645916 0.5993636 -0.36658072 0.8932255 -0.31918558 1.0085617 -0.02181611 0.44591606 0.033008087 0.15107639 -0.25775674 0.20846973 -0.3179703 0.18725826 -0.4574282 -0.058403887 -0.009141176 -0.17727359
90 0.95792407 0.025285525 -0.14713608 0.054644644 -0.46427065 0.22195263 0.4207476 0.14915901 0.091944784 -0.46112418 -0.14575952 0.31745604 0.21864389 -0.5254963 0.9475668 0.6527677 -0.48090404 0.21038295 -0.106823444 -0.10207895 -0.043306675 0.5255663 -0.55161583 0.7839409 0.21205233 0.1807794 -0.34911665 0.6574489 -0.8539854 -1.0883566 0.27725485 -0.28466138 -0.08153347 0.2266116 -0.43954572 -0.2256722 -0.12799415 -1.320088 -0.84185624 -0.22248586 -0.2620034 0.0642071 -0.33367643 -0.035246078 0.04811784 -0.06158749 0.4710305 0.11756582 0.18883915 -0.57630885 0.31521365 0.86891234 0.40565544 1.0868319 0.13589182 -0.09621043 -0.124891326 -0.24247652 -0.14526595 0.8014754 -0.4856276 -0.1297887 -0.17983805 -0.18070766
866 -0.22015716 -0.20510434 -0.37910202 -0.2050529 0.3453294 0.115838304 -0.55205256 0.19514965 -0.47019875 -0.29210383 -0.6612142 0.010672821 -0.052273966 -0.30876008 0.7738368 0.59649867 -0.2705151 0.2947986 -0.37134442 -0.032795545 -0.20640185 0.7818225 -0.89311725 0.58290726 -1.140394 0.08054917 -0.43925738 -0.17096914 -0.58172053 0.42529836 0.7382073 -0.34111992 -0.58183134 0.90815634 0.143691 0.23150967 -0.19377533 -0.65391064 -0.24695295 0.15616405 -0.422133 -0.118395105 0.28211752 0.7735422 -0.57494164 -0.12507994 -0.7571575 -0.45428568 -0.5242376 0.35279948 0.33691916 0.32508978 0.5410886 0.8047915 -0.4816618 -0.23699154 0.029058767 0.12396645 -0.6192703 0.22908345 -0.13036953 0.51960033 -0.8181586 -0.17181168
638 -0.4183561 -0.27951485 0.19017123 0.070009306 0.061865743 0.4617658 -0.44201306 -0.30892518 -0.015526297 -0.5992449 -0.09009238 0.41834185 0.5178637 -0.43842858 0.14830408 1.1619228 0.17319433 -0.027933791 -0.18449172 0.07271951 -0.42150226 0.86039454 -0.72626674 0.03666523 -0.6013783 -0.599603 -0.29029477 0.80136925 -0.35131502 -0.08024467 0.93303895 0.1553283 -0.20693602 -0.23489705 0.090853706 0.3901964 0.12703359 -0.23230012 -0.5081895 0.12579761 -0.31397852 -0.39176658 -0.06513769 -1.0114132 0.081508614 -0.7490838 -0.48079255 -0.5835669 0.26632494 -0.09888865 -0.42979068 0.9351443 1.1298339 -0.39675683 0.05970243 -0.11648987 -0.5148009 -0.034732368 -0.56865793 0.52705073 -0.597942 -0.8944909 -0.15766856 -0.45455104
35 -0.16603696 -0.13227013 0.46171752 0.24380451 -0.5568276 0.5718131 -0.14889158 0.2730473 0.48265818 -0.2995318 0.14777401 0.85784566 0.90835303 -0.9340407 0.50166476 0.63647115 -0.9975539 -0.41015366 0.2032918 0.07871504 -0.009763522 0.6885635 -0.34508952 0.52275705 -1.1989875 -0.16579276 -0.77524924 0.30149448 0.4690507 0.08991131 0.52381206 0.08036832 0.046648808 0.36234817 0.5911291 0.4101402 0.12230616 0.037654374 -1.123914 0.10888789 -0.22871524 0.15601806 0.52291995 0.18189003 -0.4062166 -0.45081735 0.42677617 0.22952573 -0.56145465 -0.02636155 -0.45732334 0.6462832 -0.7259196 0.6135761 0.17378701 0.3115585 0.033898573 -0.08013097 -0.77127445 0.10678765 -0.4792889 0.48846424 0.019184206 -0.17752151
48 0.7702825 0.01189109 -0.6690649 -0.4739344 0.31443858 -0.19484168 -0.28908214 -0.33932137 -1.0071949 -0.18294078 0.036594503 0.22895093 0.3737851 -0.30789146 0.10228355 0.13153753 -0.26574078 0.46586683 -0.14821303 0.3976078 -0.6338392 0.45912942 -0.9831168 -0.19347776 -0.35478386 0.5195802 -0.6757084 0.29398233 -0.28135785 -0.00765491 1.0382925 0.3300971 -0.1701146 -0.08442326 -0.62915826 -0.089224435 0.2413767 -0.0024529477 -0.83907765 0.97398525 -0.052183047 0.750274 0.21233149 -0.30568796 -0.1923384 -0.76785314 -0.1698122 0.6248751 -0.51086766 0.84706163 -0.34908777 0.6713984 -0.2679913 0.1067056 0.54236895 0.6668242 -0.309304 0.19620737 -0.5540475 0.44188848 -0.510328 -0.27230144 -0.77000463 -0.06146222
74 -0.38795996 -0.21631733 -0.46984276 -0.79977685 -0.47020966 0.32359827 -0.09389882 0.5662708 -0.022559352 0.43460938 -0.26260847 0.3725924 0.74880224 -0.4116585 0.57543033 0.57528996 -0.63671523 0.18880607 0.33884627 0.38274366 0.61944276 0.69041425 -0.58439213 0.5493543 -1.037131 0.19489776 0.4043693 1.0965149 -0.026862843 -0.015777033 0.8580063 0.2494998 -0.4859826 -0.20527449 -0.9515863 0.15655008 0.40978047 -0.061688866 -0.27784905 0.24885888 0.462017 0.76112926 0.12566388 -0.11407971 0.4329131 -0.49725658 0.13482624 0.036245763 -0.63323367 0.113588795 0.08909219 0.34903362 0.0876407 0.12651694 0.50812113 0.33293015 -0.20199846 0.23701309 -0.18286262 0.5738471 -0.2096257 -0.08446118 -1.0612651 -0.27863687
165 -0.672368 -0.21274905 0.084656864 0.008954084 -1.5199044 0.32995525 -0.05739363 0.4986859 0.07606986 -0.6903723 0.029020404 0.8387415 0.8325635 -0.09940747 1.2896253 0.20352747 -0.05223219 0.27981588 0.31386933 0.6375274 0.16049176 0.36478314 -0.81076473 0.44367617 -0.8686764 -0.13942266 -0.4561862 0.33546886 -0.084701344 0.038427696 0.43792996 0.030045815 -0.2651572 0.2362485 0.4455552 0.2058387 0.44867802 -0.41229746 -0.36084744 -0.22708234 -0.027192302 -0.28787768 0.16319937 -0.12511753 -0.046506625 -0.2752584 0.3992939 0.43810055 -0.7452338 0.5568041 -0.22928311 0.5011275 -0.40121394 -0.10817327 0.17201331 0.55317956 0.12958553 0.024585884 -0.36043218 0.4171129 0.035639912 0.13960415 -0.08841238 -0.87197214
54 0.486172 0.6132643 -0.7370481 0.12436154 -0.63303006 0.116234355 -0.39914843 0.013350572 -0.4388132 -0.038703356 0.0303059 0.8021137 0.41623703 -0.34007517 0.29751578 0.27130568 -0.45399818 0.30170527 -0.33385053 0.0038385289 -0.11425631 0.2852273 -0.88981056 0.09131979 0.44402835 0.2746242 -0.6358492 0.27974743 -0.61405474 -0.7238318 0.8477596 0.1869825 0.021888744 0.21976875 -0.22205506 0.22015367 -0.08015676 -1.478768 -0.76488984 0.45649898 -0.59823686 0.19093692 -0.08472191 -0.31711984 -0.43855953 0.37922174 0.6045521 0.36666197 -0.021365134 0.38170296 0.07264563 1.413524 0.042108614 0.79345566 -0.06064859 0.06602222 -0.33137685 -0.018990379 -0.40753508 0.47886023 -0.43484277 -0.21302539 -0.004329564 0.02056186
112 0.15702462 0.09906001 -0.6524048 -0.62580186 0.34976953 -0.46393093 -0.29526404 -0.3982213 -0.84579825 -0.3238374 0.12369518 0.2847637 0.05169112 -0.11540923 -0.031541012 0.3322816 -0.45439556 -0.12883638 0.006934542 0.1612826 -0.74210614 0.4284015 -1.0657289 -0.24310571 -0.5444679 0.46790692 -0.66892856 0.22245677 -0.5408815 -0.09559895 0.9363714 0.19003059 -0.4094033 0.12575166 -0.86299443 -0.07326534 0.48805246 -0.038982194 -1.1709992 0.837234 0.36943978 0.51952034 0.38241893 -0.3719773 0.27831215 -0.5437889 0.17778222 0.50452566 -0.18829732 0.78423804 -0.7838338 0.250603 -0.35147703 0.33215642 0.045898695 0.20840093 0.23932333 0.10882521 -0.5605394 0.6095922 -0.29443154 -0.09013482 -0.7754791 0.10153861
317 0.13059537 -0.72225285 0.18837197 -0.124384 -0.06290001 0.20041 0.42598304 0.7874319 0.092393234 -0.77180535 0.11181621 0.4957945 0.05852119 0.022796864 -0.19450392 0.3364616 -0.086828515 0.39943203 -0.44049925 -0.0789773 -0.4108053 0.06718383 -1.4174567 0.49205858 -0.4547932 -0.05734567 -0.2723944 0.8667006 -0.33413246 0.08556422 0.2249105 -1.340182 -0.40732887 0.28002387 0.017079249 0.56486374 0.8536819 -0.27599236 -0.35132214 0.52251256 -0.5175059 0.61548513 -0.39443624 0.62168664 -0.4119067 -0.75784534 0.5200139 -0.1858624 -0.22763452 0.11549073 0.21075366 0.33050814 -0.45704326 -0.1927309 0.45031935 -0.19261277 -0.84296864 0.3724576 -0.48519734 0.5689478 -0.21172507 0.34551778 -0.2946172 0.23033896
145 -0.03119626 0.06015789 -0.49990702 -0.34741187 0.25289106 -0.6042227 -0.5371975 -0.58598256 -0.6099702 -0.32529637 0.2986611 0.3845375 0.44391644 -0.031246055 0.13412912 0.06980682 -0.72176355 -0.5199107 -0.032633197 0.36923715 -0.8155219 0.30171257 -1.019622 -0.3058864 -0.25064322 0.511719 -0.59695536 0.21344884 -0.8029756 -0.060295828 0.9344615 -0.16731493 -0.28854457 -0.24266897 -0.47133517 0.18550166 0.56386536 -0.21917854 -1.1698841 0.8961755 0.2997115 0.5237928 0.17527443 -0.16764171 0.07186379 -0.055990998 -0.080253474 0.37901336 -0.01905818 0.6963302 -0.76145583 0.5168602 -0.47168064 0.35010082 -0.20369354 -0.20756069 0.024322703 0.19770935 -0.58600014 0.31443584 -0.10366084 -0.112210885 -0.9491063 0.043740544
66 0.12634301 -0.51916665 0.6168396 0.11024976 -0.68201935 0.52991676 -0.30059236 0.11307397 0.23083416 -0.4543717 0.3809539 0.62300587 0.80419666 -1.0945452 0.7624185 0.5882579 -0.7799385 -0.21093026 -0.11661638 0.05729042 -0.25381714 0.507478 -0.60301274 0.41825798 -1.0169368 -0.23437071 -0.6573241 0.2508842 0.28707382 0.30842522 0.08359374 0.0847805 0.041351337 0.4399459 0.80402815 0.4657474 0.13578203 0.0045400313 -0.9786488 -0.027973203 -0.41295192 0.009205911 0.3017317 -0.16930717 -0.35825154 -0.07771917 0.26633462 0.6212604 -0.49934328 -0.017384475 -0.5775547 0.4654388 -0.9319452 0.5691632 0.062817335 0.22573543 0.181279 -0.18839595 -0.9745789 0.3578561 -0.56879765 0.19037127 -0.19277227 -0.33695653
133 -0.6057392 -0.32893386 0.1507303 -0.039682344 -1.3996234 0.52746224 -0.17162254 0.60579294 0.17530823 -0.33484703 -0.0047333622 0.90630025 1.0141706 -0.40510485 1.1993998 0.2869569 -0.0011176724 0.030393077 0.39162832 0.44852722 0.27505836 0.3441336 -0.44542035 0.5479398 -0.92979 -0.06298424 -0.16042916 0.33688527 0.04249132 -0.059210703 0.5099846 -0.14695291 -0.3035351 0.21298102 0.5650676 0.18107119 0.23975678 -0.29897478 -0.50760114 0.0028278532 -0.12763232 0.02240647 0.2890159 -0.0918529 -0.025203152 -0.45258367 0.07203941 0.48340023 -0.62806267 0.6017453 -0.46554747 0.48500267 -0.57886523 0.18875739 0.1335613 0.39666373 -0.15084347 -0.30943877 -0.42801875 0.46238816 -0.016186122 0.24627739 -0.12649244 -0.8822686
910 0.32825541 0.085132174 -0.39939126 -0.703356 0.30066264 -0.105809405 0.48516896 -0.06318932 -0.18077154 -0.13827468 -0.32305136 0.70639193 0.7735621 0.25888237 0.5602051 1.2791489 0.88834035 -0.7139926 -0.3433149 0.7584568 0.24157165 -0.032465912 -0.49890384 0.042795602 -0.5749913 0.09425078 -0.23150058 0.22046405 0.004498019 -0.32747677 0.44363427 -0.32322857 -0.30529574 -0.1860014 0.27294794 0.06746591 0.12764677 -0.091118984 -0.47716114 -0.027143057 -0.07593999 0.20801479 -0.4809614 0.048595972 -0.15719545 0.42433098 0.61867106 -0.74300766 -0.12802047 0.03879961 -0.21478714 0.5684795 -0.5266478 0.6626178 0.49865657 0.28197783 -0.24813187 0.31716812 -1.5188434 0.4617299 -0.46412086 -0.5652381 -0.54103124 -0.02180301
134 -0.87643284 -0.28907827 0.056583766 -0.12523273 -1.2879609 0.47436595 -0.036245484 0.69252175 0.18060388 -0.18263622 -0.10038479 1.0346457 0.8185802 -0.07912622 1.0964572 0.32576925 -0.14641477 0.042167388 0.3777822 0.27973154 0.45115748 0.4185454 -0.36278054 0.5963651 -1.1964197 -0.32621166 -0.19918782 0.34050676 0.00010126463 -0.15844847 0.52585226 0.060295302 -0.46819806 0.328694 0.10207288 0.14520214 0.26207027 -0.21423942 -0.47473118 -0.0076628146 -0.30371934 0.13402334 0.13261126 -0.045721553 0.24304536 -0.26162243 0.25290886 0.47088227 -0.4446803 0.4337777 -0.07359649 0.6623906 -0.5467782 0.13520885 0.41789865 0.5110654 0.11320638 -0.2730499 -0.34453928 0.62036085 0.079411276 0.17687689 -0.32425117 -0.9462185
487 0.6701759 -0.68539405 0.5202045 -0.17252448 -0.52674216 -0.69877535 -0.31803742 -0.47016802 -0.5040921 0.03590835 0.27147353 -0.046462517 0.5195121 -0.30143538 0.3553362 1.1652173 -0.62129503 -0.5734054 -0.20704524 0.26410013 0.22467405 0.37104493 -0.20875746 -0.20816267 -0.44866166 0.20644823 -0.8426702 0.6059214 -0.21999478 0.17679992 0.32528582 -0.11348098 -0.3996088 0.5150891 -0.46529996 0.7007404 0.12879665 -0.6170292 -0.26684105 0.74910825 -0.05757361 -0.023331584 -0.612237 0.025328247 -1.0444698 -0.22227822 0.9681907 -0.26060414 -0.29899284 0.16359513 -0.14719313 -0.47832248 0.7081182 -0.22610514 0.15201852 0.2573807 -0.63863635 -0.51887715 -0.5610173 0.26526263 -0.35022217 0.22056119 -0.35847574 -0.41230753
701 -0.3737108 -0.40510213 0.23568858 -0.28988755 0.39288908 0.065926224 -0.2085822 -0.17202981 0.11723043 -0.46324527 0.037133876 0.24411404 0.7150146 -0.6124809 0.41885933 1.2493107 -0.46138757 0.36406162 -0.16950054 0.22033954 -0.014217997 0.3757131 -1.1547067 -0.23759088 -0.8413135 -0.44868228 -0.3473715 0.15898599 -0.09063353 -0.30742735 1.0739433 0.09749339 -0.21656801 -0.37548965 0.04136966 0.20473278 0.14344433 -0.09610978 -0.35146862 0.21925381 -0.24394377 -0.90257674 -0.24412523 -0.66601133 0.31479716 -0.68949527 -0.19830588 -0.39136273 0.419189 -0.13981232 -0.38215637 0.77460915 0.987708 0.12385299 -0.14177185 0.16896196 -0.67438847 -0.10811434 -0.46282604 0.42934906 -0.43055823 -0.76117533 0.24183102 -0.5273108
923 -0.23815253 -0.5351847 -0.4558812 -0.14345923 0.2662158 -0.07061146 0.34378472 -0.42110828 -0.22101566 -0.356569 -0.07186326 -0.054133017 0.6521476 -0.6715225 1.0414042 0.15721858 -0.43046904 0.662584 -0.7887411 0.194844 0.3924168 0.61588526 -0.24163133 -0.20187905 -0.5637082 0.0030086136 -0.69315565 0.21700571 0.19819438 -0.07666286 0.8065965 -0.5226022 0.44035882 -0.18916014 -0.294334 0.37375322 0.6562509 -0.2719885 0.05532489 -0.17549874 -0.64418364 0.9626241 -0.36304873 -0.07599573 0.09134438 -0.7214582 1.013975 -0.0022547988 -0.59383816 0.74311763 0.027222723 0.112521395 0.06416614 0.92068017 -0.6681498 -0.46355382 -0.29886603 -0.41494134 -0.37889814 0.73048145 0.018844377 -0.10040497 -0.010121552 -0.1053098
190 0.51831996 -0.99397224 0.5473269 -0.51227653 -0.07871161 0.27702302 0.77032155 0.2832597 0.2896878 -0.89633507 -0.123508185 -0.08976708 0.5489133 0.20803477 0.6076514 0.715255 -0.22475001 0.3682434 -0.0023716085 0.05442902 -0.58172864 0.10722296 -0.8583952 0.5789121 -0.3007759 0.5211908 -0.27846003 1.0685016 -0.45273998 0.018018551 0.054485396 -0.684414 -0.0020664704 0.31204054 -0.2631959 -0.42963064 0.84924096 -0.65343857 -0.7941717 0.5203768 -0.166188 0.13118401 -0.49178064 0.58420783 -0.21060765 -0.8968903 -0.06912828 -0.24048352 0.10422471 -0.22408463 0.21124722 0.29060864 -0.25183362 0.8250143 0.018280262 0.23720267 -0.3448903 -0.085834645 -0.1140843 0.8634703 -0.46741182 0.51187223 -0.0234827 -0.05399225
152 0.7985415 -0.47631025 -0.57316494 0.029537136 -0.46320543 -0.20717914 0.03988364 0.20505677 0.03976265 -0.23131268 -0.23047867 1.017788 0.28115556 -0.39145765 0.5856866 0.37215018 -0.7306085 -0.2678289 0.10267925 -0.18667156 -0.0634389 0.36367413 -0.69645137 0.3013192 0.24672924 -0.17969632 -0.08670453 0.6342894 -0.7713225 -0.72898984 0.32238927 -0.82705635 0.14439206 0.24234793 -0.16778758 0.028851407 -0.08778866 -1.4651123 -0.62167984 0.3948382 0.023812255 -0.11183697 -0.09457986 -0.09449172 0.17527461 0.12525597 0.1422028 -0.093234174 -0.072579995 0.17055076 0.30764797 1.0652835 0.043842874 1.0492132 0.22289258 -0.46372914 -0.4420235 -0.6538608 -0.25844127 0.27209535 -0.25931787 -0.4727804 -0.16319346 -0.030325998
52 0.53317696 0.32544208 -0.67914337 -0.33511785 -0.40815258 0.051514562 -0.4717041 -0.13927157 -0.8453352 0.03593339 0.13928166 1.0067364 0.39922345 -0.14434119 -0.051842913 0.17331721 -0.38344535 0.17861895 -0.24427746 0.31409347 -0.29349226 0.1483372 -1.256778 -0.40156716 0.084027365 0.25565255 -0.69354784 0.02555766 -0.6238208 -0.9046362 0.9586459 0.38371634 0.12742808 0.23585416 -0.17411423 0.20424908 0.10803078 -0.90300226 -0.9546923 0.94845504 -0.591917 0.37714097 -0.18426608 -0.12357504 -0.21979743 0.04113246 0.348184 0.7336079 -0.23351602 0.60977894 -0.16409227 1.1219332 -0.10311977 0.5748901 -0.065520465 0.091060154 -0.10622374 -0.3128141 -0.6422141 0.17890574 -0.24127252 -0.048844237 -0.1144833 -0.035554375
934 -0.46118343 0.26345298 -0.7705573 -0.62970626 0.18734774 0.040817685 -0.3281323 -0.32873532 -0.4032042 0.09319881 -0.45808607 0.6889306 0.29182303 -0.09462904 0.1963962 0.29729435 0.023175308 0.21943289 -0.19475679 0.14434142 -0.047999833 0.74246675 -0.9792092 0.54154146 -0.5127998 -0.6606148 -0.80067885 0.2447801 -0.17577209 0.1630936 0.053729724 -0.4862787 -0.16872585 0.07964348 0.35404453 0.70681506 0.383708 -0.6945554 -0.33121827 -0.026470797 0.39839384 -0.0036385027 0.030120317 0.6581718 -0.7263304 -0.6588817 -0.26272923 0.056605708 0.08879715 -0.028337441 0.5588914 0.2692963 0.61416024 0.7182986 -0.58781314 0.36405352 0.15472591 -0.33977908 -0.5328441 0.78821754 -1.007818 0.6249964 -0.8308718 -0.35681093
382 -0.09176821 -0.38576284 0.6931892 -0.01197953 0.061290544 0.27483314 0.45927727 0.49927136 -0.3115657 -0.5298524 0.22492076 1.0485911 0.160264 -0.5178981 -0.20733714 0.51842695 0.39543918 0.4006971 -0.35991326 -0.27364704 -0.4444305 0.3575121 -0.8959146 0.26423514 -0.6385704 -0.20513375 -0.21087642 0.7137874 -1.0255524 -0.19620153 0.48884478 -0.8979586 -0.4848492 0.12771067 -0.061443746 0.38002554 0.76667917 0.07685619 -0.05395912 0.62304735 -0.5559115 0.35388067 -0.61525685 0.5408876 -0.34393606 -0.65141755 0.5092887 0.057625465 -0.581947 0.4262671 0.052706253 0.28244263 -0.47648472 -0.56157637 0.047565307 -0.41839325 -0.7056141 0.586221 -0.5798788 0.6319826 -0.5828467 0.3565193 -0.6103184 0.23419324
252 0.7038581 -1.0741247 0.22846301 -0.15956463 -0.18461359 -0.18854831 0.5046803 0.58544844 0.39205396 -0.7904993 -0.25331023 0.44425595 -0.08138211 -0.32837966 -0.008665529 0.5372053 -0.27772787 0.34661117 0.026026612 -0.15643615 -0.24781837 0.38670263 -1.2570761 0.48175928 -0.20872237 0.09948061 -0.03506373 0.7878214 -0.36534554 -0.18040898 -0.018493677 -1.4387445 -0.29200813 0.4111019 -0.037726842 0.045886856 0.6286411 -0.38236547 -0.26743338 0.5658189 -0.038501184 0.213876 -0.41425464 0.6108797 -0.14983928 -0.85064167 0.27385885 -0.109486476 -0.016098818 -0.17422415 0.48185775 0.4403837 -0.46711808 0.585037 0.4821554 0.07237 -0.6308189 -0.07409566 -0.55842644 0.7303205 -0.096356295 0.02062243 -0.25691918 -0.21908864
49 0.7103324 0.071975976 -0.88977396 -0.41065702 0.22770347 -0.2180569 -0.3647014 -0.24298371 -0.93316215 -0.23793149 0.26224878 0.4601776 0.20494908 -0.105952226 0.034712195 0.291848 -0.4258743 0.28523478 -0.28866363 0.7286627 -0.74141335 0.30873832 -1.1266478 -0.17579393 -0.2168835 0.6121912 -0.7671991 0.12589699 -0.15103091 -0.053628635 1.0957909 0.34401906 -0.13281243 -0.07662679 -0.43878955 -0.13948412 0.27657816 -0.3801898 -1.0146116 0.976381 -0.2600313 0.55822855 0.17695966 -0.22951894 -0.29539877 -0.7119361 -0.0054284725 0.69839346 -0.490838 0.8213525 -0.17466506 0.64768255 -0.32147455 0.15195042 0.45656484 0.43534127 -0.27278408 0.25426352 -0.43409568 0.4128825 -0.6059899 -0.19907232 -0.29322413 0.03307669
118 0.60590327 0.22897385 -0.76939774 0.34332308 -0.6114408 -0.18129586 -0.40601635 0.0620655 -0.29113987 -0.13199289 -0.24575067 1.144669 0.3185538 -0.21010047 0.27373675 0.23086509 -0.68246543 -0.25923857 -0.25922012 0.22062169 -0.10301763 0.5060719 -0.69899 -0.24315183 0.21588324 0.13192162 -0.4041468 0.35853404 -0.9700817 -0.395821 0.9149379 -0.5053912 0.13901383 0.022256566 -0.3762318 0.11402135 -0.03533397 -1.1489693 -1.1115025 0.25654694 -0.21052028 -0.08290886 -0.009115032 -0.18619893 -0.09100166 0.15055777 0.46713132 0.12496041 0.07347964 0.40780634 -0.0031834007 1.3328118 0.06555948 0.8731266 0.009811536 -0.42396986 -0.4015201 -0.41157585 -0.31123042 0.039734934 -0.31716457 -0.013325012 -0.07496723 0.08628669
253 0.56463027 -0.94602036 0.2941594 -0.3554857 -0.117316656 -0.08494545 0.5361156 0.5385249 0.4638098 -0.81224257 -0.15764175 0.16333504 0.15959938 -0.040079284 0.08148237 0.5157741 -0.1215422 0.4250611 -0.055639837 -0.18055241 -0.41708922 0.17119898 -1.2937148 0.57532454 -0.19788451 0.24395011 0.06128459 0.8784323 -0.40828848 -0.23056197 -0.005980983 -1.3069084 -0.34105444 0.39696863 -0.27196977 -0.11789021 0.7068544 -0.34841502 -0.3892674 0.4233118 -0.4641001 0.08678558 -0.2560849 0.8034712 -0.43728235 -0.9306839 0.49518052 0.053764284 -0.04259533 -0.0745306 0.2667909 0.4585313 -0.46463963 0.28676686 0.33308592 -0.0108637465 -0.40777013 -0.046004653 -0.482672 0.98838264 -0.392318 0.09657609 -0.23960805 -0.14665404
158 0.40099743 -0.7130077 0.5569668 -0.6472927 -0.1453177 0.23273826 0.9227161 0.08892371 0.27524614 -0.81305075 -0.20323405 -0.40660426 0.5104696 0.024092644 0.7140275 0.6179812 -0.28114754 0.19984657 -0.1852216 0.3394113 -0.3671477 0.2599185 -0.9910739 0.65956235 -0.17883018 0.42973804 -0.28861767 0.8923989 -0.20746087 -0.2704523 0.027123254 -0.6484976 0.08334985 0.25865898 -0.16905116 -0.44112554 0.72642624 -0.85016364 -1.211515 0.48520213 -0.011382214 0.19037145 -0.40715724 0.5411691 -0.10743708 -0.8113025 -0.073186874 -0.39964953 0.016583115 -0.53126204 0.04394511 0.30980715 0.095069975 0.76275605 0.12810846 0.13696477 -0.34246978 -0.11507591 0.011175061 0.9236781 -0.30698407 0.51444685 -0.013447282 -0.2574524
932 -0.34683344 0.1266251 -0.74678236 -0.7188491 0.07190593 -0.005598581 -0.42741495 -0.15965915 -0.62690794 -0.10918959 -0.4218111 0.18687962 0.50358856 -0.3934535 0.43404052 0.24193376 -0.17132297 0.5217006 -0.16723153 -0.18350807 -0.2137736 0.46137014 -0.77690464 0.37837976 -0.9840405 -0.32554236 -0.6544544 0.27538046 0.044137713 0.21968454 0.6179485 -0.5908423 -0.35778955 0.53132445 0.49808067 0.92056394 0.20946148 -0.69846374 -0.36405918 0.21230946 0.29358009 -0.11311914 0.07845967 0.89188325 -0.6354195 -0.19732004 -0.7852439 -0.13866557 -0.028601918 0.07623972 0.57446957 0.5353194 0.6771041 0.4975964 -0.6242681 -0.009699178 -0.030198207 -0.43294546 -0.42102566 0.5847281 -0.5209666 0.68076384 -0.8399138 -0.31056994
257 -0.060890544 -0.41696993 -0.1651763 -0.090284504 -0.93874073 -0.43568864 0.15126692 -0.5519602 -0.57493085 -1.2948437 -0.050461035 0.55327624 0.18077436 -0.68242574 1.3783953 0.70668274 0.21700104 0.2706301 -0.6095531 -0.05691217 0.3834078 0.075108506 -1.2954373 0.3383207 -0.09945679 0.10577371 -0.49577367 0.33930907 -0.22990735 0.055220895 -0.16108271 -0.5308298 -0.30262044 -0.44977322 0.15766338 0.73133594 0.12852864 -0.2264355 -0.1822904 0.35204315 -0.13081725 -0.2865946 0.27667028 -0.12735727 0.24324475 0.20207706 -0.25128326 0.14369345 -1.1293105 0.32352757 -0.66749203 0.42280263 -0.25606218 0.1146361 0.24399954 0.24755709 0.50103706 0.084723145 -0.40985408 0.5623393 -0.4294262 0.1715593 -0.149869 -0.31556013
908 0.12441747 0.063981734 -0.4005075 -0.55437756 0.34792927 -0.15990315 0.24662553 0.13646872 -0.0430095 -0.14909215 -0.2696465 0.9542141 0.81795704 0.4983239 0.63658476 1.1083148 1.0264145 -0.5506516 -0.6957988 0.6446364 0.15520898 0.35549054 -0.4092257 0.29144397 -0.38331267 -0.43561634 -0.7029796 0.14479466 -0.10872017 -0.17930187 0.47847918 -0.31439957 0.02229966 -0.21297425 0.24389121 -0.0061940122 0.23295328 -0.11665879 -0.23481111 0.076477654 0.39024442 0.28216326 -0.19727744 0.11212124 -0.3962293 0.03245599 0.5200441 -0.30524147 0.061786063 -0.21481556 -0.48385936 0.22268401 -0.5472546 1.0661445 0.42810175 0.39886767 -0.52461076 0.079776704 -0.939365 0.5483378 -0.9645341 -0.3821131 -0.77795506 0.07385834
226 -0.15130295 -0.32616672 -0.0015633164 0.2629318 -1.0880736 -0.15815432 0.047665134 -0.63182354 -0.42933187 -1.2368472 -0.25992948 0.7313661 0.5386093 -0.47174436 1.2946169 0.6516931 0.08573259 0.4491276 -0.5081873 0.32842198 0.2770275 -0.106859446 -1.0284643 0.38149402 -0.31754303 -0.090940796 -0.44843543 0.31221268 -0.5000556 0.046396438 -0.05119631 -0.29433477 -0.13722868 -0.016140936 0.38053006 0.44892937 0.4887643 -0.0893221 -0.43820894 0.18745233 -0.23662235 -0.4210673 0.27829328 0.0055987104 0.46055025 -0.029273445 -0.24704066 0.15913813 -1.1553248 0.28282645 -0.67354995 0.23158775 -0.5411178 0.20920686 0.2111583 0.40718618 0.43245155 -0.36842787 -0.5436975 0.49908742 -0.35359007 0.19896026 -0.11547869 -0.48097777
143 -0.42515975 -0.09659005 -0.55262226 -0.49119627 0.41717517 -0.49434543 -0.2086491 -0.31618845 -0.7049866 -0.44657642 0.111138016 -0.009041399 0.16681968 -0.12154621 0.11989696 0.14157256 -0.48533106 -0.2523712 -0.03920822 0.2788998 -0.58671653 0.36115494 -1.1143571 0.14709684 -0.6990005 0.545078 -0.33242464 0.32872656 -0.29414123 0.03799735 0.55621696 0.20582 -0.5850351 -0.08058702 -1.0261368 0.01402814 0.74112564 -0.20285597 -1.0698384 0.9256134 0.5135451 0.8982647 0.19794913 -0.18052551 0.42777768 -0.36959982 0.27397788 0.41643932 -0.17342992 0.30017024 -0.6791883 0.4162131 -0.26466602 0.29421678 -0.0935132 0.13782887 0.12319798 0.12569591 -0.52500737 0.37407216 -0.32140735 -0.30420125 -1.049917 0.24565743
975 0.16557167 0.12665884 0.053918667 -0.5792017 0.21870969 0.3453149 0.67735046 0.04606674 0.13009596 -0.5283247 -0.65805167 0.6865996 0.24768704 0.41048566 0.5350686 1.4561595 0.4214001 -0.7885151 0.07804323 0.6787309 0.46989644 -0.0153432395 -0.79495394 0.120005265 -0.26972654 0.43809092 -0.28997833 0.13125606 -0.18481171 -0.27948782 0.6619677 -0.07931233 -0.07388315 -0.055562664 0.055492952 0.4423712 0.33549917 -0.11029796 -0.75637645 -0.089843035 0.2889841 0.0442743 0.07841687 -0.16392365 -0.471354 0.35109824 0.7244299 -0.92443687 -0.34903374 0.5359851 -0.03474703 0.47780627 -0.5676854 0.29374543 -0.047136873 0.4345833 -0.7382323 0.0013532909 -1.1501825 0.35216296 -0.7593866 -0.55985665 -0.59470814 0.010177723
285 0.35285348 -0.82046247 0.21500231 -0.055296578 0.13632934 0.048298392 0.6558024 0.72847503 0.31376475 -0.6056294 -0.07119138 0.3932873 0.031155806 -0.05991893 -0.11872206 0.49478063 -0.23855361 0.35726544 -0.308667 -0.016455432 -0.24902734 -0.07698698 -1.4220752 0.5532049 -0.2982642 0.11489685 -0.046580713 0.8852333 -0.5609459 0.1250667 0.16290648 -1.3564954 -0.53446656 0.36395335 -0.074942954 0.23531531 0.85743934 -0.36466324 -0.37397617 0.26443604 -0.33370492 0.40864208 -0.2824129 0.77396876 -0.22066468 -0.92842215 0.4623748 0.09631226 -0.1879488 -0.11079084 0.111378916 0.40545356 -0.4644284 0.09497371 0.470633 0.029475473 -0.6304111 0.043357402 -0.58057547 0.8790983 -0.18959919 0.4583374 -0.15752394 0.03178155
185 0.93103623 -0.7408027 -0.43777615 0.21404132 -0.4609404 0.039045364 0.11143169 0.5185322 0.39671564 -0.51661146 -0.5078735 0.7396112 0.25471726 -0.012849341 0.4437093 0.362714 -0.75987613 -0.39541 -0.14978172 -0.2804917 0.018755395 0.4174962 -0.7990453 0.5337241 0.024722356 -0.20202135 0.010525699 0.62573946 -0.5807532 -0.46260905 0.2939856 -1.0071329 0.15864299 0.43034452 -0.31554115 0.029141124 0.2083061 -1.1944708 -0.5310183 0.33936548 -0.11314626 -0.2131539 -0.053799976 -0.015305376 0.26096165 -0.17352451 0.22660658 -0.103504576 -0.03418264 -0.17468472 0.39360806 1.0439041 0.02776237 0.81091624 0.22843057 -0.02950476 -0.53893125 -0.76098436 -0.20840017 0.7554081 -0.06701309 -0.32997632 -0.2956925 0.4052387
254 0.27013692 -0.5349205 0.4934504 -0.36131912 0.011745849 -0.1118468 0.76375496 0.44355264 0.39528644 -0.6976938 0.017865693 0.31410685 0.39229414 0.1578572 0.054027386 0.58191586 -0.1732165 0.40435812 -0.11385685 -0.07064993 -0.50349593 0.085889086 -1.2469503 0.57431257 -0.2624787 0.44850153 -0.24639137 1.1190073 -0.43327317 0.049893226 0.31945577 -1.1846436 -0.25760368 0.5512901 -0.24894166 -0.3270703 0.9608784 -0.30723193 -0.44204223 0.42302534 -0.5496388 -0.083153255 -0.47682646 0.7350374 -0.55390024 -0.9643457 0.3493247 0.076269306 -0.08634394 -0.18046229 0.09913605 0.30351296 -0.5927423 0.23520975 0.18167683 0.1081868 -0.4486005 -0.04496431 -0.25324896 0.9983456 -0.3104977 0.3960179 -0.29355782 0.032453142
902 -0.28237167 0.14207688 -0.7027508 -0.50534374 0.3118736 -0.04714015 -0.20741157 -0.041605767 -0.37557846 0.1872974 -0.31923106 0.6427521 0.3803833 -0.19653036 0.4315062 0.1877689 0.07499763 0.03743241 -0.5621732 0.029491648 -0.04762327 0.6349114 -0.90942377 0.4292549 -0.6459184 -0.8094239 -0.58507216 0.14285491 -0.32665393 0.14449142 0.24967112 -0.52293974 -0.34595564 0.25334617 0.35570547 0.5716888 0.3781672 -0.5276856 -0.34998912 0.05289055 0.3820475 -0.26870334 0.29652354 0.52933896 -0.6666693 -0.49914837 -0.35765356 0.2202263 0.1600943 -0.11926738 0.70373285 0.09620714 0.6455549 0.82478714 -0.6906079 0.2667197 0.32441634 0.0892684 -0.39727437 1.0619307 -0.89200026 0.53651196 -0.89435345 -0.31133717
967 -0.4781596 0.40657318 -0.7167078 -0.57241696 0.08183536 -0.29858997 -0.3495496 -0.25836673 -0.4309379 -0.06390318 -0.4076677 0.7657732 0.58316576 -0.10367902 0.31550577 0.14546044 0.30190334 0.032097317 -0.18915488 -0.15383822 0.09616506 0.7375801 -0.7302379 0.89301986 -0.40792522 -0.45775363 -0.9594913 0.039756864 -0.15273209 -0.2360044 0.099840805 -0.473431 0.14264987 -0.13234694 0.26530558 0.69813824 0.6288614 -0.4807863 -0.38089794 0.07288231 0.55008096 -0.053107813 -0.3409164 0.42815727 -0.805427 -0.6636683 -0.44235426 0.043012626 0.22899628 0.08091445 0.3866188 0.0531778 0.32139432 0.55537647 -0.13610888 0.32204005 -0.106891386 -0.61779094 -0.58022165 1.0275846 -1.2214564 0.26586112 -0.86223274 -0.4478601
123 0.7952241 -0.39065227 0.096585006 0.18970309 -0.40659225 0.10220321 0.4948146 0.21379717 0.22722094 -0.63004726 -0.50529724 0.1848546 0.17805998 -0.31648043 0.8282398 0.4816988 -0.61077476 0.114550576 -0.11412897 0.028006189 -0.118142374 0.42321354 -0.5034237 0.7516911 0.053794794 0.49050555 -0.49523097 0.97678804 -0.45426792 -0.7352334 0.21987648 -0.74617094 -0.19722189 0.20429742 -0.2440842 -0.36734822 0.010861041 -1.2967542 -0.73403525 0.13587648 -0.24750178 -0.15669325 -0.3143616 0.1650464 0.3205287 -0.20308226 0.30945617 -0.18515877 0.4132344 -0.7859753 0.16418931 0.53905565 0.26045227 1.045483 0.12354351 -0.12005424 -0.30456415 -0.23233423 -0.35861504 0.8852914 -0.50362706 -0.013208935 -0.30495018 -0.33477974
481 -0.08565992 -0.18451856 -0.38684863 -0.32030988 -0.21307172 -0.4476826 0.070057094 -0.6484322 0.18551558 -0.1977415 -0.015085521 -0.12717806 0.77136403 -0.3165274 0.074837774 1.7025505 0.18734314 -0.30767116 -0.042697288 -0.8583711 0.43582472 0.66541153 -0.7384313 0.16752975 -0.164089 0.6958709 -0.54754364 0.5886273 -0.16227299 0.3504371 0.7368621 -0.43978727 0.098955564 -0.48182258 0.38611993 0.7250184 -0.17935985 -1.0822017 -0.28577816 0.8482156 0.0580344 0.20525067 -0.3855404 0.09280871 0.65688676 -0.63418895 0.8959525 0.580845 -0.29534975 -0.11682464 0.097998016 0.31680605 0.051196918 -0.21400931 0.3098288 0.1451884 0.15122245 -0.20067583 -0.4012723 0.19975735 -0.5332051 0.4638875 -0.3581359 0.10331482
111 0.14392528 -0.0803387 -0.6226772 -0.5900458 0.43177083 -0.5400661 -0.25335738 -0.31395128 -0.76315355 -0.26835614 -0.0058005443 0.05991907 0.11741867 -0.3242766 -0.05701275 0.28041133 -0.44266355 -0.027404819 0.12978235 0.5421124 -0.4128907 0.39671117 -1.0645869 0.0015839607 -0.6888299 0.554821 -0.42447644 0.51290894 -0.38079882 -0.19465007 0.65729564 0.2512728 -0.40469104 0.20612775 -0.947641 -0.10274003 0.51610744 0.016557695 -0.84349096 0.8747541 0.4711621 0.6728588 0.09281336 -0.29415685 0.5691464 -0.6429078 0.14488141 0.4182032 -0.3344838 0.6917208 -0.78102183 0.3569785 -0.1651961 0.16805114 -0.17728192 0.30693698 0.11114414 0.36753014 -0.5742326 0.5568438 -0.52821195 -0.21518147 -1.0966287 -0.006100973
316 0.29110143 -1.0107031 0.04738015 0.14150457 0.040509634 0.2755458 0.5986532 0.90782523 0.16759999 -0.850589 -0.19485033 0.64815634 0.1169689 -0.195066 -0.18014121 0.23992065 -0.11351429 0.34114772 -0.28111792 -0.18024021 -0.18023892 -0.020332977 -1.1075388 0.50735855 -0.3708799 -0.13316403 -0.33883822 0.7252957 -0.42602596 0.2148113 0.18208869 -1.3064576 -0.52505815 0.20385975 -0.021351604 0.4598385 0.76737314 -0.26159477 -0.1728525 0.69201165 -0.20328923 0.53776616 -0.27512005 0.6538674 -0.25921935 -0.70683426 0.3479605 -0.008740474 -0.32676283 0.21875127 0.40267423 0.27471474 -0.38301072 -0.032451868 0.6937372 -0.13941053 -0.712855 -0.09647779 -0.76032543 0.4707734 -0.16127048 0.029766887 -0.3385129 0.3596127
284 0.38655496 -1.1356697 0.09903184 -0.09542004 -0.06688238 -0.050908737 0.4372769 0.9294957 0.29534736 -0.8046303 -0.27280307 0.45699573 0.05371065 -0.20363456 -0.16842075 0.44096297 -0.22447278 0.4756558 -0.27217147 -0.113002405 -0.040283438 -0.0063422117 -1.1896863 0.4461128 -0.23336928 -0.10025323 -0.023527414 0.78105986 -0.3259343 -0.26303095 0.11412457 -1.5164661 -0.52121294 0.31837684 -0.0009401772 0.2767702 0.6385289 -0.4237361 -0.38444287 0.5906577 -0.14978476 0.3480323 -0.45563492 0.70274514 -0.16738673 -0.8430864 0.26424876 -0.035186533 -0.2084438 -0.048302136 0.3370245 0.3152741 -0.39253354 0.16152482 0.43144676 -0.088850304 -0.5139475 -0.13662505 -0.5824399 0.6259436 -0.17240304 -0.026955435 -0.28602517 0.18580881
166 -0.9042687 -0.36780006 0.120192744 -0.20906556 -1.5141904 0.36716163 -0.06110689 0.6109735 -0.048092972 -0.49822274 -0.1598916 0.78008777 0.6926971 -0.10570363 1.4754909 0.083562806 -0.046392456 0.08736122 0.47674644 0.36059082 0.33789346 0.38713926 -0.5166269 0.27967677 -1.0054643 -0.37912777 -0.16423716 0.29166335 -0.44421193 -0.04654744 0.36910406 -0.006291606 -0.35258484 0.27322167 0.054288253 0.14781351 0.44362193 -0.34496945 -0.39729133 -0.19386542 0.058658097 0.0774032 0.17810316 -0.047344517 0.21185799 -0.34353048 0.44599393 0.44367725 -0.48506355 0.46997443 -0.111778945 0.5488747 -0.19200727 0.047947813 0.27882865 0.61850345 0.074107766 -0.09763167 -0.58302975 0.3326462 -0.09283893 -0.008014576 -0.1531494 -0.7455432
387 0.04761271 -0.13205934 -0.4106302 0.08508339 -0.82621044 -0.47556376 -0.063093476 -1.1134351 -0.46941957 -1.0390308 -0.10375015 -0.14796335 0.6617921 0.10949327 0.6013283 1.3254064 0.008038812 -0.518267 -0.3060769 -0.4408987 0.8983996 0.49993 -0.9722494 -0.027509376 -0.32252023 0.33546233 -0.8510564 0.5736092 -0.71688575 0.42154092 0.11857013 -0.3324372 -0.3270256 -0.22137305 -0.21958482 0.6438265 -0.033948712 -0.17934234 0.13031618 0.7876685 -0.15653811 -0.10247267 -0.39142796 0.41766095 0.2561325 -0.2316341 0.45396045 0.41737112 -0.60707194 -0.047737878 0.008529742 0.1606288 0.3873486 0.123929985 0.45600206 0.2574866 -0.2213188 0.091366455 -0.25808597 0.38630527 -0.5193924 0.13514052 -0.11666865 0.010598605
161 0.40605807 -0.6062157 0.105355375 0.43748716 -0.62011546 -0.060012255 -0.1083344 -0.012559785 -0.21265234 -1.0130614 0.00957759 0.7303869 0.4738845 -1.0537435 1.0330945 0.6258361 0.02645248 0.30444983 -0.33808437 0.25762904 0.043766964 0.18182103 -0.8831547 0.56752175 -0.7376351 -0.14044532 -0.720698 0.22873966 -0.059173193 -0.05243084 -0.08762762 -0.2919362 -0.053232953 -0.18686675 0.54908144 0.34372625 0.4451257 0.15762337 -0.88020337 -0.29069373 -0.11180542 -0.20000225 0.42822862 -0.4089613 -0.064535744 0.10937923 -0.342327 0.323591 -1.0521146 0.24426822 -0.8487415 0.629851 -0.5970841 0.23105544 -0.07266926 0.47597516 0.58535343 -0.18015046 -0.5623212 0.80434567 -0.30853447 0.412796 -0.15623048 -0.39911503
221 0.6868473 -0.77426416 0.5002703 -0.27986464 -0.2042376 -0.0888139 0.56803924 0.35529608 0.41346276 -0.8117943 -0.05365941 0.0893859 0.14620614 -0.08927733 0.2902298 0.65487134 -0.05006617 0.23795679 0.023148166 -0.23761702 -0.45991609 0.12179082 -1.3186703 0.54451674 -0.2714911 0.23592032 -0.22196642 1.0637661 -0.39186013 -0.13547663 -0.052256264 -1.0698628 -0.070064135 0.47099298 -0.41498134 -0.33265567 0.6507717 -0.51766306 -0.55224705 0.3290858 -0.26971728 0.1186256 -0.30481288 0.6459867 -0.058400895 -1.1162479 0.14944063 -0.30602324 0.19869028 -0.14019325 0.4247627 0.44358024 -0.56467247 0.5819934 0.32950267 0.09649128 -0.30268675 -0.3312213 -0.27970335 0.8484811 -0.38105008 0.18603957 -0.265887 -0.09720543
733 -0.5350287 -0.5863164 -0.06689436 -0.43813094 0.47629797 0.21831144 -0.3613914 -0.09353888 0.052114163 -0.41750717 0.19934979 0.21243797 0.6880733 -0.461144 0.41521612 1.2709602 -0.55990577 0.15190077 -0.2572284 0.024433274 0.04538286 0.33252022 -1.1867727 -0.10248347 -0.53852195 -0.28128773 -0.3742053 0.032332294 0.01859819 -0.23554853 1.0343138 -0.2710141 -0.3415569 -0.22268446 -0.12914848 0.12982811 0.37273115 -0.011301868 -0.14768815 0.13568906 -0.5318725 -0.8330613 -0.16919771 -0.7400153 0.3140926 -0.8903107 0.01697383 -0.3015875 0.18372676 -0.2306323 -0.47773433 0.67316467 0.8294442 0.47343102 -0.22227381 0.2568974 -0.5596772 -0.33540368 -0.5681723 0.3182572 -0.29960558 -0.84346056 0.30061367 -0.5969257
798 -0.2453466 -0.39346424 -0.20236044 -0.34630558 0.90448177 -0.005671148 -0.56001776 0.2006128 0.557908 -0.62009084 0.2447389 -0.11842944 0.592579 -0.5567686 0.72661424 0.82832575 -0.23841758 0.35922313 -0.66553736 0.17698207 0.5475271 0.65155387 -1.1572108 -0.076991215 -0.4315304 0.06766795 -0.7297947 0.44453615 -0.046223193 -0.14734839 1.0661396 -0.35155013 -0.18727985 -0.013059819 -0.11317334 0.20559801 0.98282623 -0.030969843 0.010189886 -0.18575782 -0.5590075 -0.419213 -0.15120904 -0.7247847 0.17136692 -0.7731935 0.31070858 -0.02518967 0.077407375 0.29796183 -0.22100616 0.7940823 0.6152959 0.5492644 -0.3336845 0.32657304 -0.4186985 -0.4813645 -0.41219214 -0.056091465 -0.46000758 -0.50712514 0.24145514 -0.5671324
153 0.9575185 -0.58609205 -0.515302 -0.15340199 -0.58073956 -0.0033507042 0.28255266 0.38857132 0.18723309 -0.30398953 -0.28070903 0.64481026 0.3023955 -0.28885058 0.546794 0.43616027 -0.94105244 -0.019864127 -0.14429249 -0.20348258 -0.0052815634 0.29971388 -0.60984886 0.4378845 0.22748399 -0.09846859 -0.07555457 0.8582487 -0.64454776 -0.49646604 0.1969457 -0.87402385 0.039727543 0.515004 -0.23275055 0.04446474 0.039098933 -1.1701864 -0.74496526 0.46111152 0.021664444 -0.08740894 -0.21779172 -0.23762602 0.15199563 0.1614497 0.23833393 -0.076327726 0.2970904 -0.25954297 0.46338448 1.02109 0.018757574 0.98563457 0.009240721 -0.2591367 -0.4389122 -0.6056674 -0.30186513 0.6749996 -0.23393197 -0.4323364 -0.2263449 -0.048756767
73 -0.37619194 -0.061342824 -0.2503593 -0.78295815 -0.7374804 0.338462 -0.10637639 0.9155653 -0.10056933 0.380274 -0.23313321 0.6504049 0.7948526 -0.59361744 0.7954015 0.49322486 -0.5400339 0.035178654 0.55930483 0.187129 0.5952953 0.5071608 -0.19956693 0.45486838 -1.252729 0.045479234 0.17626728 0.9057354 0.16855781 -0.15373471 1.1052183 0.22237054 -0.4710879 -0.25369447 -0.68582994 0.07563203 0.520266 -0.45124835 -0.23896557 0.17648023 0.34804428 0.5651766 0.16414286 -0.03519542 0.36116615 -0.7895968 0.29938188 -0.14510006 -0.42881447 0.034746863 -0.019226914 0.2730643 0.051025122 0.23983282 0.5197742 0.29788646 -0.12070449 0.39620617 -0.25945282 0.4935775 -0.14163534 0.14875293 -0.82573324 -0.3388973
702 -0.41517186 -0.28789648 0.09953962 -0.48375538 0.29193425 0.13802488 -0.51682234 -0.26362124 0.3066833 -0.55701226 -0.07922973 0.17403339 0.39621034 -0.71055025 0.22891577 1.0310712 -0.112168126 0.115435 -0.13775143 0.10267221 0.04918075 0.6663291 -1.2619735 -0.027943553 -0.6797448 -0.52343804 -0.28612763 0.49386707 -0.051415358 -0.43252236 1.0927844 -0.057182014 -0.1320369 -0.20351031 0.12802987 0.24181677 0.17189616 -0.034529652 -0.45438105 0.25432366 -0.30489117 -0.8815854 -0.10305478 -0.83798414 0.07436721 -0.86011344 0.0030391326 -0.32864195 0.17221634 -0.17518261 -0.46993077 0.75477076 1.0919234 0.14529565 -0.08910216 0.24871244 -0.44936666 -0.19956832 -0.6234153 0.19583578 -0.31615472 -1.0164686 0.21015903 -0.5648451
157 0.621403 -0.89144987 0.5434889 -0.51353383 -0.24118958 0.13628508 0.9711251 0.27094674 0.16643997 -0.9077143 -0.03991983 -0.15453906 0.33850405 -0.05364673 0.7560776 0.4283406 -0.3157662 -0.0693303 0.04659838 0.051310126 -0.24026433 0.13043083 -0.8320385 0.63743585 -0.09583892 0.35126996 -0.49334657 0.9659893 -0.3410501 -0.347005 0.08397829 -0.75366783 0.16493759 0.3135441 -0.3549988 -0.30883488 0.27439016 -0.7932081 -1.0680386 0.45081308 -0.31823215 0.20822817 -0.52893263 0.54911923 0.079006046 -0.61355585 -0.3619687 -0.22141013 0.16772893 -0.5331567 0.15702103 0.44793892 0.00048316896 0.94664025 0.09625055 0.043657623 -0.4829022 -0.12562002 -0.30314755 0.85041726 -0.4162004 0.25255045 -0.15318167 -0.31070277
455 0.59630203 -0.71050996 0.42148244 -0.0036186895 -0.32033867 -0.5621277 -0.418572 -0.47423947 -0.7059722 0.12009302 0.011471884 -0.061469447 0.48095453 -0.087844335 0.47433668 1.4028147 -0.38120064 -0.69357723 -0.29095668 -0.059509777 0.29222345 0.52288955 -0.1898917 -0.11794696 -0.42430863 0.102065906 -0.7789359 0.6064488 -0.5800927 0.16765353 0.18150246 0.046201043 -0.48676226 0.596951 -0.6399677 0.78198975 0.32857838 -0.61266345 -0.20624779 0.51151586 0.22752336 -0.14989781 -0.35926208 0.18097585 -1.1173984 -0.4063833 0.97342235 -0.09067337 -0.22439906 0.26810405 -0.16626091 -0.31799868 0.5839656 -0.08601874 0.28929436 0.24176128 -0.40751824 -0.29673722 -0.2728747 0.6028948 -0.15556844 0.12461874 0.04648604 -0.37323916
65 0.1310753 -0.5025126 0.5145511 0.19878554 -0.3801043 0.371656 -0.2802302 -0.11940644 0.26558056 -0.5302202 0.13885061 0.6956464 0.764562 -1.2096732 0.66253483 0.51377857 -0.6319719 -0.012626029 -0.19991066 -0.20225455 -0.38531774 0.40426636 -0.61557686 0.75751185 -0.8929319 0.086104296 -0.86066186 0.33476827 0.5464402 0.09728837 -0.19345918 0.047758285 0.12135328 0.4022325 0.7487849 0.6004359 0.18503828 0.029348204 -0.8274025 -0.064200975 -0.21498209 -0.08599125 0.451196 -0.18210538 -0.42631367 -0.0034812738 0.33010206 0.49113357 -0.6375021 0.12640688 -0.6746052 0.92353064 -0.7550187 0.41596812 -0.11749306 0.3716527 0.0026430914 -0.16946052 -1.125099 0.4607297 -0.4007518 0.13525479 -0.35338593 -0.17861646
164 -0.5097718 -0.21647625 -0.015807547 0.2821783 -1.4304345 0.42643306 -0.044688504 0.13521323 0.09080324 -0.6449862 0.013040014 0.77121425 0.80689204 -0.25881004 1.3804611 0.3497406 -0.108386874 0.22244954 0.22119434 0.49790016 0.033828497 0.20398471 -0.8167634 0.5397964 -0.7337797 -0.17345886 -0.59505993 0.33000365 -0.12377111 0.20083451 0.1922211 -0.3614431 -0.40975043 0.0403074 0.6963931 0.18960664 0.43460828 -0.30312285 -0.40491286 -0.07694579 -0.18740967 -0.0077641313 0.6107346 -0.3756641 -0.22098775 -0.25808844 0.11254485 0.2311447 -0.8149427 0.33659002 -0.2929448 0.42059967 -0.61006147 0.14280318 0.14260875 0.5851305 0.013054132 -0.2128963 -0.39223862 0.4718723 0.038381066 0.17994227 -0.031172572 -0.8924595
187 1.0384579 -0.8132037 -0.18183723 0.13917467 -0.5351719 0.090862 0.39553896 0.5432855 0.3101144 -0.70746326 -0.21678674 0.22670421 0.2600862 -0.119235404 0.2830509 0.47209555 -0.4318638 0.06083627 0.034656376 -0.2193697 -0.18111214 0.35075516 -0.80572426 0.34722066 -0.09450615 0.3514874 -0.35589916 1.000343 -0.30932936 -0.46178168 0.10491509 -1.10474 0.10239169 0.14579047 -0.15684384 -0.078564286 0.49384293 -0.91498375 -0.55626065 0.22942924 -0.39068636 0.12546727 -0.015864294 0.26888165 0.05550745 -0.58260906 -0.09569243 -0.36019883 0.375759 -0.58515817 0.37996757 0.6494931 0.009294401 0.9647361 0.5367942 -0.1995771 -0.49775872 -0.3547238 -0.3977415 0.8413509 -0.05253915 -0.111322284 -0.5010375 -0.12466965
968 -0.353343 0.32188588 -0.55462307 -0.699383 0.010516278 -0.2043455 -0.27405658 -0.11264327 -0.36817592 -0.067034096 -0.39728603 0.7653522 0.75512147 0.027871672 0.44476217 0.13537624 0.33485627 0.086931854 -0.23337764 -0.09351085 0.3185683 0.5449775 -0.7814137 0.5511647 -0.19504166 -0.6673825 -0.86512136 -0.06189817 -0.1616883 -0.37254182 0.14838423 -0.32702196 0.20096427 -0.2812962 0.33921635 0.6476184 0.49278444 -0.41661936 -0.61523944 0.0076934765 0.63345915 0.13070896 -0.3541486 0.62400883 -0.81578 -0.66576624 -0.079432644 -0.011979196 0.18338431 -0.035924733 0.11326448 -0.09213147 0.27976474 0.591674 -0.061692923 0.13117506 -0.26781055 -0.3451172 -0.7171008 0.93052995 -1.4428773 -0.019774495 -1.0355928 -0.35616854
37 -0.40079972 -0.03273439 0.04682279 0.07032802 -0.74441165 0.4601171 -0.20590149 0.6192064 0.5462791 -0.069093786 -0.0025146266 0.9102459 1.1247656 -0.8985732 0.8476661 0.8043779 -0.891562 -0.16412596 0.11963169 0.08295683 0.06788548 0.6326132 -0.16058241 0.523041 -1.2376264 -0.12459364 0.1456195 0.4150664 0.34656397 -0.09292595 0.58929884 0.1333563 -0.45883772 0.23318006 0.541905 0.28118843 0.14542198 -0.18623179 -0.7450411 0.1221393 -0.102731325 0.50112337 0.30637044 -0.09224403 -0.46365643 -0.7408387 0.6153851 0.047625765 -0.38774052 0.11177162 -0.09881392 0.6381616 -0.6359982 0.49139154 0.37351745 0.16824567 0.1076017 0.08270821 -0.21960099 0.07932734 -0.55762017 0.5651048 -0.121923715 -0.489954
136 -1.1373323 -0.21443792 -0.14882916 -0.49981302 -1.2761068 0.23856261 -0.20969623 0.72167283 -0.04096481 0.15902472 -0.023549508 0.36568654 0.61232394 -0.28350437 1.1176162 0.6041408 -0.053261384 0.04963269 0.78501695 0.35428846 0.2741994 0.50219905 -0.26494116 0.69931775 -1.1468035 -0.058758553 0.08045392 0.593803 -0.2682883 0.069823295 0.84437937 -0.05769175 -0.53071076 0.0987791 -0.4383401 0.11851291 0.49030766 -0.20608348 -0.14935055 0.018542664 -0.11904005 0.2919464 0.087391905 -0.1740938 0.24293147 -0.44240662 0.40448034 0.40690127 -0.1005113 -0.033154 0.2400102 0.31175786 -0.43242902 0.42276344 0.5126566 0.35572964 -0.11781127 0.14388351 -0.22073433 0.6739231 -0.1544027 -0.0015719084 -0.64163375 -0.56695426
422 0.6683686 -0.6810125 0.109894276 -0.10331317 -0.49396735 -0.40349433 -0.37209076 -0.45777965 -0.911764 -0.15660934 0.13907284 -0.05927394 0.6639622 0.2547889 0.37092704 1.1681688 -0.0823905 -0.6679586 -0.40418103 -0.14380074 0.7444667 0.30421168 -0.40152106 -0.09855656 -0.5669514 0.33066306 -0.92526567 0.57843137 -0.8781269 0.048606925 0.0017369123 -0.0469328 -0.51524234 0.5213862 -0.19604975 0.8107697 0.18698584 -0.4085733 -0.15893584 0.5585455 -0.029623475 -0.33823106 -0.5183174 0.24418542 -0.51006424 -0.5639996 0.9129514 0.14287211 -0.2755402 0.36927828 0.06448979 -0.116529144 0.70160925 -0.13310567 0.303488 0.44797197 -0.09622406 -0.17856686 -0.14481826 0.71138084 -0.07297884 -0.153384 -0.0913876 -0.25548565
901 -0.14744648 0.110385865 -0.6839785 -0.56140715 0.14912575 0.07879048 -0.2587339 -0.11745196 -0.52411515 0.016035436 -0.44352746 0.41238803 0.611571 -0.06327735 0.48826945 0.18085192 -0.12292223 0.31014317 -0.35913867 -0.17406997 -0.3243983 0.7007447 -1.0155145 0.39046276 -0.794396 -0.5443022 -0.5446646 0.110411115 -0.11296099 0.2826612 0.09646902 -0.24681014 -0.37425 0.36653516 0.1461204 0.9378923 0.1862821 -0.5391647 -0.38688982 -0.0014135101 -0.08154901 -0.24174963 0.20454097 0.5980474 -0.76619726 -0.38925642 -0.43256715 0.093333654 0.053944446 -0.11943795 0.7041669 0.29775384 0.8954513 0.6944253 -0.7596604 0.122379184 0.27760446 0.05622618 -0.44909802 0.92027915 -0.56579715 0.61043215 -1.1193612 -0.16736263
47 0.7143279 -0.19038665 -0.5930816 -0.7372143 0.25381398 -0.11697512 -0.3397482 -0.27087754 -0.8892138 -0.28735763 -0.17413737 0.06893964 0.41125757 -0.26609358 -0.07985051 0.37523183 -0.19269562 0.32816726 -0.022161731 0.48034805 -0.5173202 0.5878977 -1.0799898 -0.03482772 -0.44696298 0.5856165 -0.21708582 0.35589883 -0.12126807 -0.3141088 1.1276689 0.41199854 -0.03287988 -0.13978198 -0.85843116 0.2490199 0.4112768 -0.018708374 -0.67256695 0.89252657 0.2339463 0.82533544 0.2509217 -0.16284065 -0.011792587 -0.8756272 -0.25132713 0.46887544 -0.55769354 0.7138193 -0.38351774 0.40429664 -0.27034163 0.15007646 0.42151794 0.6119603 -0.21940094 0.41684842 -0.37100515 0.45558143 -0.35948393 -0.15616567 -0.9348484 -0.3819858
119 0.7510649 0.11739539 -0.43989027 0.23162748 -0.774403 0.010862696 -0.15951596 0.22759867 -0.37138516 -0.07234419 -0.23829658 1.0155364 0.3958343 -0.29469103 0.33377862 0.2924091 -0.5680454 -0.2034766 -0.2715288 -0.016142448 -0.1628104 0.5378501 -0.77391773 -0.087115996 0.20675978 0.045602746 -0.37154666 0.7090441 -0.7308459 -0.6031498 0.61095035 -0.56107897 0.058396846 -0.093095176 -0.22977306 0.07817735 -0.07629373 -1.4199439 -0.84928006 0.28685218 -0.14876343 -0.12188021 -0.20369372 -0.33099654 -0.0786982 0.19435075 0.42783806 0.11774512 -0.024543975 0.2015624 0.22730422 1.2153003 0.1228229 1.1752326 -0.048602715 -0.5591738 -0.6780748 -0.42974427 -0.11024965 -0.073952496 -0.2544795 -0.15437531 -0.23699743 -0.024998728
154 0.92713606 -0.5682143 -0.2854422 0.15557922 -0.55444145 0.23284334 0.35045815 0.31304556 0.3068508 -0.3678181 -0.1631741 0.46791697 0.33675653 -0.017482411 0.69657385 0.43680283 -0.84681445 0.1885125 -0.022691036 -0.14064066 0.054742575 0.27025133 -0.704163 0.51795393 0.20006283 0.25279838 -0.2848635 0.7840793 -0.61275077 -0.5068274 0.08267011 -0.9733356 -0.037658673 0.26377004 -0.18627937 -0.13048325 0.22924513 -1.1396155 -0.79378825 0.24796635 -0.13776512 0.048665408 -0.11740864 0.062681094 0.1527427 -0.10767417 0.087978244 -0.20987664 0.20673089 -0.5449905 0.4998037 0.76599187 0.22091694 1.0304829 0.27277553 -0.20541841 -0.61820775 -0.5316405 -0.4497902 0.8573923 -0.34449324 -0.38981742 -0.2007841 0.041136105
120 0.7742612 -0.29522213 -0.5169186 -0.09635624 -0.7703097 0.098283835 -0.044773817 0.19278292 -0.21891044 -0.3315333 -0.12542099 0.89425564 0.1631853 -0.4879114 0.545269 0.4004965 -0.50242704 -0.16238186 -0.19295098 -0.12161684 -0.15488532 0.42671752 -0.62723064 0.111260064 0.25724626 0.012770198 -0.28561193 0.37039387 -0.7644726 -0.7308797 0.40973943 -0.6272116 0.1523663 0.17139715 -0.40095285 -0.12789617 -0.06261738 -1.4162349 -0.7132671 0.26783854 -0.21936077 -0.12106358 -0.21237983 -0.13196239 0.23225458 0.4523367 0.3802692 0.1375905 0.020397933 -0.19094266 0.39443383 1.3025148 0.18222068 1.0394282 0.08834104 -0.47081423 -0.592686 -0.6836176 -0.3579133 0.2713756 -0.36193922 -0.3029582 -0.3789098 -0.25234216
582 0.48016593 -1.0345204 0.740013 -0.105401576 -0.23670799 -0.79328173 -0.1975245 -0.106986664 0.054643884 -0.06555379 0.7241777 0.31042793 0.80877596 -0.29724213 0.03534067 1.3001714 -0.23344097 -0.26892176 -0.19969131 -0.036242925 0.09344735 0.19510548 -0.15492184 0.58096194 -0.23671407 0.19315831 -0.325441 0.1751664 -0.18306147 -0.24645789 0.73974067 -0.29146454 0.038148228 0.0850957 -0.4840029 0.25651464 0.11425015 -0.5489674 -0.7960007 0.5443095 -0.25052774 0.2677478 -0.053384107 -0.7501183 -0.62636024 -0.0009902027 1.013888 0.12864739 -0.23969114 0.46139434 0.2812964 -0.02536742 0.88621306 -0.36150375 0.044390444 0.5421309 -0.2530169 -0.12675849 -0.48203886 0.21121293 -0.075865075 0.69492483 -0.82057273 -0.45229822
614 0.14183801 -0.9337947 0.95788556 -0.058593005 -0.24591304 -0.8502494 0.06498926 -0.059009578 0.22266553 -0.14241323 0.5737165 0.62094045 0.8272388 -0.32470694 0.1786237 0.9590326 -0.09143635 -0.07590096 -0.30684385 -0.03836149 -0.047472276 0.267598 -0.30193025 0.50258845 -0.24620979 0.0014031401 -0.21513191 0.15872836 -0.007808237 -0.18208803 0.78050053 -0.19551612 0.12837225 -0.039749507 -0.7783089 0.074226506 0.18235326 -0.87628335 -0.8839106 0.6438409 -0.16369335 0.2706196 0.055224694 -0.5582142 -0.5490062 -0.027344894 0.8206679 0.021531394 -0.2222472 0.4889691 0.3641333 -0.14121754 0.9514849 -0.30174968 -0.3182928 0.7564384 -0.025474729 -0.030623257 -0.74957556 -0.06385977 -0.0393225 0.6750489 -0.7695388 -0.19154344
103 -0.7783318 -0.099494256 -0.0886446 -0.2719776 -1.0934194 0.38856027 0.063183874 0.8024087 0.30190644 0.29307422 0.020868609 0.8607715 0.7629934 -0.43072182 1.0560722 0.5364825 -0.3812167 -0.18851474 0.7576527 0.29692844 0.5695219 0.4832926 -0.32959217 0.5690972 -1.2829198 -0.32492048 -0.20030552 0.70728475 0.038996242 0.17662989 0.74736905 0.0882894 -0.48208168 0.23199652 -0.17781335 0.035045464 0.12248596 -0.20771815 -0.30586296 -0.01573912 -0.2285469 0.41026327 -0.03684284 -0.20758039 0.3418822 -0.32643119 0.2266459 0.28067228 -0.32808533 0.20655556 0.14111933 0.43631256 -0.4511804 0.35340655 0.4367078 0.27515662 -0.07022621 -0.08294554 -0.28438386 0.55797684 -0.25987616 0.24609861 -0.57447046 -0.7269447
875 0.15263715 -0.0355031 -0.22871228 -0.5271903 0.35828477 0.029051507 -0.086518124 0.07338192 -0.2642386 -0.20021927 -0.12017382 0.9658786 1.3242233 0.49854565 0.27715373 0.78325677 1.0884013 -0.33903655 -0.6994232 0.6990093 0.1562483 0.34528375 -0.5082237 0.2682478 -0.45857546 -0.809121 -0.51777226 0.21743287 -0.06849288 -0.086137176 0.46334705 -0.34892875 0.16447328 -0.2816032 -0.13021967 0.117546596 0.20911798 -0.21473235 -0.22761145 0.23427868 0.6587685 0.13089392 -0.043431252 0.28817222 -0.353677 -0.13188525 0.36258253 -0.12288406 0.102339715 -0.43745214 -0.05507001 0.43285045 -0.41690022 1.1975548 0.12730162 0.38847846 -0.06777293 0.16767788 -0.97434324 0.595325 -0.77622837 -0.1202932 -0.44487435 -0.065813035
