200 64
34 0.06464283 0.461272 0.4639786 0.26531214 -0.05980547 -0.74380845 0.20967992 0.9971975 0.48985228 -0.30963442 0.23126383 0.23775981 0.44911787 -0.12041662 -0.30551898 -0.046308912 0.34906888 -0.42224598 -0.22276214 -0.3155739 -0.05640287 0.26284653 -0.06602393 -0.15335242 -0.18074906 0.37588945 0.32149172 0.17620589 -0.32852545 -0.12380983 0.34348464 0.095298715 0.18059711 -0.25397193 -0.94771886 -0.36750516 -0.50771976 0.17499629 -0.3782331 -0.11014202 0.06195506 0.143358 -0.6725648 -0.2544858 -0.4112517 0.050003137 0.106001034 -0.15465434 0.013125141 0.07035258 0.11480707 0.3955476 -0.5649677 -0.29627585 -0.3830558 0.27432892 -0.060151983 0.16557191 -0.26807794 -0.36589077 -0.14061558 0.1811676 0.4030026 0.53976005
33 0.12071228 0.5236219 0.68541014 0.30411318 -0.07481071 -0.7326739 0.32762676 0.76696765 0.3310926 -0.24814554 0.33084267 0.18621813 0.3819908 0.020088663 -0.4229576 0.14005625 0.31582436 -0.25105694 0.15378848 -0.030305665 -0.21007256 0.24256632 0.0065536704 -0.20574114 -0.3779907 0.38211957 0.42326996 -0.00069485226 -0.3269755 -0.07672837 0.1523189 0.2946128 0.20583613 -0.20388773 -0.81783456 -0.2957209 -0.47854567 0.24996728 -0.6082011 -0.10590962 0.2002474 -0.054472707 -0.74757385 -0.2928216 -0.24869463 -0.065198645 0.18074293 -0.23840289 -0.0014664906 -0.12545656 -0.114695735 0.5176556 -0.54683596 -0.20074189 -0.12582193 0.3098074 -0.10048638 0.1445419 -0.44882825 -0.33656296 -0.23093289 0.036930665 0.38116735 0.57295156
54 0.040787462 0.318915 0.38340747 0.2630901 -0.20119491 -0.6867084 0.20586602 0.971012 0.3276119 -0.3536546 -0.06332621 -0.040727824 0.77833086 0.014124519 -0.47090998 -0.17380887 0.5847547 -0.23904553 -0.16319577 -0.2835037 -0.22988011 0.040439174 -0.078273945 -0.35904098 -0.18311852 0.2762273 0.37230587 0.03971077 -0.28534797 0.07902937 0.061833657 0.11905037 0.108993165 -0.04995924 -0.66462386 -0.38098764 -0.45616588 0.1770581 -0.3164862 0.16109769 -0.0061865286 0.025284529 -0.5405735 -0.1800293 -0.3892161 0.09795809 0.06794848 -0.2221192 0.028720688 0.010496193 -0.09092951 0.49644393 -0.47901154 -0.16080631 -0.37161827 0.11751176 -0.13023007 0.21007486 -0.36020812 -0.35761788 -0.080101006 0.082769684 0.61743665 0.47909084
53 0.045153283 0.4591633 0.4991439 0.22766957 0.05935452 -0.69509315 0.19582382 0.81928104 0.2231146 -0.32330826 0.12874365 0.079734355 0.48240593 -0.037504915 -0.5098912 -0.24343903 0.48002255 -0.21923415 0.022258377 -0.09935866 -0.27009854 0.22254412 -0.18254781 -0.117418036 -0.25125065 0.2127293 0.4926796 -0.1314573 -0.092835724 0.01624463 0.048779532 0.2313297 0.025410447 -0.084061354 -0.6588188 -0.30395448 -0.4955999 0.18354176 -0.4085688 -0.11838954 0.11492367 -0.26665112 -0.5732585 -0.51999605 -0.4329418 -0.13058418 0.09949368 -0.16873947 0.027032852 -0.07523515 -0.20224886 0.34132764 -0.64584017 -0.17210726 -0.36333552 -0.05136239 0.06922181 0.29971808 -0.32180813 -0.28776482 -0.28240174 -0.053465493 0.46801412 0.5862381
41 -0.18918912 0.6331772 0.9113972 -0.036280427 -0.68907297 0.22058076 -0.11184031 0.20329493 -0.046607934 0.06542542 -0.2811359 0.6546348 0.039890047 0.46154234 -0.18348038 -0.8761798 0.16301472 -0.25503758 -0.2821226 0.2735819 0.21707642 0.05225887 0.40042394 0.21458875 -0.30954963 -0.100412585 0.06371911 0.19922248 -0.096270286 -0.11202442 0.17057182 0.074916855 0.20053688 0.13325219 0.16469456 -0.30852586 -0.6775372 0.78444564 0.22229096 0.24710965 0.3807566 0.5438132 -0.5608924 0.038626425 0.2149862 0.17456956 0.11140158 -0.5412737 0.5057732 0.54005826 0.12421301 0.4793948 0.08725087 -0.66146225 -0.108395234 -0.050260786 -0.054295223 0.86420465 -0.414402 0.22223125 0.064209454 0.504998 0.18439713 0.14802329
161 -0.45285606 -0.40248442 1.0700946 -0.16073447 0.24141957 -0.27689776 -0.071418524 0.24995747 -0.14927167 -0.0018201091 -0.70952064 1.0647726 -0.20552044 -0.16886145 -0.524951 -0.3820072 0.4820504 -0.26587287 -0.29014596 -0.22483417 0.3126361 0.0338355 0.758203 -0.44023558 -0.6709412 0.22802083 0.283534 0.17806824 -0.19522649 -0.21163714 0.23628803 0.43125373 -0.21204966 -0.05436081 -0.17477445 -0.3164846 -0.26020378 0.67985916 -0.092161894 0.3738171 0.565451 0.08508682 -0.6249975 0.19531526 0.5383452 0.10129512 0.6982987 -0.22856946 -0.09526323 0.24477369 0.33198905 0.45160282 -0.07569093 -0.20151111 -0.6559552 0.13455689 0.31668988 -0.031738285 -0.20994945 0.3840374 -0.28335774 0.47180402 -0.033689994 0.092605725
21 -0.11057391 0.7773753 0.85499895 0.08977011 -0.72191685 0.21038693 -0.08525182 0.16516083 0.059164684 0.10164855 -0.38384858 0.873488 -0.100931406 0.4604386 -0.08670677 -0.79823893 -0.103976674 -0.14766411 -0.35127378 0.18628089 0.12829986 0.21726204 0.16165343 0.15992406 -0.45414212 -0.12862773 0.20964217 0.25043648 -0.022889713 0.010002058 0.03212594 -0.052214053 0.12819967 -0.18280286 0.10371762 -0.3698703 -0.92962426 0.735789 0.19529198 0.13077025 0.5502585 0.8648491 -0.49026713 0.014184853 0.0741469 0.18903302 0.2546913 -0.50471807 0.39283344 0.5445923 0.025532298 0.19237341 -0.1671717 -0.56286246 -0.11403495 0.018509597 -0.20302051 0.81086135 -0.60604423 0.23885438 0.23668769 0.48896602 0.34080166 0.0591353
32 -0.09332518 0.76059175 0.5893421 0.2466331 0.26839095 -0.6760333 0.4406769 0.8073316 0.13337739 -0.23438485 0.48223823 0.17395654 0.22433078 0.07671406 -0.4003089 -0.24679746 0.5135923 -0.32444856 0.22471792 0.0562718 -0.22634132 0.13343579 -0.19299434 -0.0177686 -0.5304797 0.21817578 0.38613847 0.12601045 -0.23027766 -0.06903996 0.24415453 0.26903084 0.11440215 -0.27926633 -0.6346669 -0.099584475 -0.5460172 0.08948947 -0.49442902 -0.2040874 0.25628084 -0.14851992 -0.7364245 -0.21308751 -0.27429026 -0.08404952 0.17318135 -0.28950512 0.056892905 -0.31727806 0.063755654 0.5113186 -0.43449593 -0.047563482 -0.12629095 0.16305359 -0.0903344 0.116134204 -0.53801066 -0.22236218 -0.22181237 0.041277487 0.31812966 0.6414061
178 0.28737003 0.10019179 0.37833774 -0.43905813 0.09625752 0.14777769 -0.77069974 0.48250785 -0.32930055 -0.49925062 -0.5135667 0.014821425 0.24098481 0.21122523 -0.08026451 -0.060466427 -0.05445232 0.0029245138 -0.2579705 -0.95009786 0.15200473 -0.043653097 0.09245077 -0.2164733 -0.64904237 0.366686 0.43334147 0.18274723 -0.27788734 -0.48328054 -0.23826443 -0.014042975 0.47768438 0.017471058 -0.08438318 0.29268312 -0.632078 0.26004836 0.22398448 0.2561303 0.22063006 -0.0034498875 -0.54313344 -0.2231477 0.07664857 0.42223832 0.6934707 -0.3833824 -0.23099257 0.30256593 0.15645742 -0.35082823 0.24255502 -0.40272644 -0.08786813 -0.36709717 -0.2690282 0.019156989 -1.0700129 0.3694203 -0.24305938 0.5851891 0.74194247 0.96938455
42 -0.14343822 0.6561454 0.7709541 -0.006090149 -0.5998302 0.12134801 -0.173536 0.13378121 0.09671545 0.31271467 -0.41029146 0.80964047 0.100291595 0.2757929 -0.17432052 -0.6907281 -0.23430236 -0.5638313 -0.25839674 0.20108597 -0.08339919 0.1610822 0.44878766 0.36180136 -0.456471 -0.04754563 -0.034977257 0.19062406 -0.105390154 -0.025131289 0.11591782 0.03312945 0.19359872 -0.03797174 0.11207783 -0.15674102 -0.45018345 0.7686227 0.22808407 0.15561458 0.4574818 0.1961124 -0.44149545 0.088783726 0.00054568506 0.20403153 0.20390545 -0.46501425 0.46714768 0.328422 0.19813095 0.16989318 -0.07087886 -0.75386214 -0.12782604 -0.026372474 -0.21711351 0.8889851 -0.467988 0.18155055 0.08032397 0.6630161 0.26398063 0.05146541
35 0.04217655 0.2589903 0.5517787 0.5494301 -0.10605477 -0.66349036 0.031315707 1.1136706 0.5538924 -0.41289127 0.28146708 0.23192084 0.43643782 -0.123147294 -0.13422522 -0.024028981 0.3731416 -0.30817074 -0.34103823 -0.28374684 0.049278885 0.24360096 -0.03356941 -0.42616484 0.047923762 0.43248764 0.29699504 0.22848424 -0.39508387 -0.02971063 0.29403266 -0.018788062 0.1726625 -0.26563278 -0.850827 -0.40081 -0.4997209 0.39984587 -0.44514787 0.050873894 0.07389331 0.10020392 -0.70710456 -0.2072799 -0.15993717 0.22210264 -0.112371564 -0.20753397 0.12278892 0.0721005 0.27774116 0.3460283 -0.29614457 -0.09344525 -0.45285296 -0.026731985 -0.01970731 0.33936962 -0.38714644 -0.2723321 -0.08099483 0.20186433 0.706243 0.35608548
22 0.07868361 0.789445 0.6809917 -0.04129213 -0.7798044 0.14406933 -0.10737148 0.12924288 0.053540688 -0.027065497 -0.38762322 0.87031764 -0.114056215 0.17033061 0.030963128 -0.7895372 -0.17897733 -0.2896886 -0.27127317 0.1309001 0.01854248 0.24811898 0.15709227 0.36751693 -0.3735284 -0.20171408 0.07760649 -0.20101966 -0.10567413 -0.041879456 0.203462 0.142053 0.2891305 -0.26024777 0.1665664 -0.25194478 -0.64534146 0.70051974 0.061788965 0.20550306 0.58907324 0.5377343 -0.46970284 -0.050334416 0.047298662 0.49892497 0.24543545 -0.5230274 0.35621718 0.5214714 0.19908473 0.23159608 -0.08125509 -0.65949535 -0.055322293 0.11016561 -0.19526108 0.86210364 -0.6080678 0.17309439 0.041111413 0.58204865 0.34790722 -0.12565795
158 0.26329845 -0.004371258 0.2618762 -0.43597263 -0.20176043 0.14706983 -0.76903844 0.565984 -0.2682771 -0.5282788 -0.38598266 -0.060193278 0.27068028 0.029607112 -0.15496255 -0.15890442 -0.03220329 -0.10969804 -0.27751845 -0.7688775 0.39542115 -0.19832842 0.033360817 -0.3423815 -0.5030817 0.53093076 0.405065 0.104294576 -0.3187922 -0.33762208 -0.2798889 -0.06513311 0.42623016 0.13885179 -0.42859957 0.25076398 -0.48085123 0.19143258 0.21395075 0.29636654 0.31203175 0.2538847 -0.3738904 -0.1923692 -0.04541035 0.43084386 0.6192849 -0.37073496 0.0063439864 0.191735 0.053917963 -0.31316537 0.21578771 -0.43208116 -0.43838528 -0.42717806 -0.27832204 -0.06685586 -0.9573981 0.28554326 -0.47469476 0.5059178 0.6862749 0.8598222
84 -0.55350935 0.78429633 0.6221738 -0.045743313 -0.3411374 0.17975296 -0.29118186 -0.3101931 -0.23550305 0.38403586 -0.5159359 0.5615204 -0.0064929724 0.022411123 0.1923496 -0.52485 -0.0014020192 -0.4738821 -0.2382057 -0.07295594 -0.09594854 0.048601236 0.6279284 -0.11150456 -0.13562554 0.1996405 -0.11832737 0.1656664 -0.6239941 0.18522386 -0.02709774 0.35137275 0.13143334 -0.46432018 -0.11723155 -0.15803534 -0.17834345 0.3194189 0.09709347 0.14471778 0.25056204 -0.20199026 -0.15014791 -0.23653248 0.2735665 0.2587294 0.24413449 -0.5062922 0.17314142 0.30127218 0.29350486 0.17095134 -0.015298259 -0.35809916 -0.31286228 0.24208023 -0.10403076 0.6340007 -0.14292102 0.17515993 -0.40792948 0.36433643 -0.1727999 0.14024574
177 0.33944902 -0.0060277064 0.57281554 -0.31458056 -0.020351185 0.038395315 -0.6660726 0.5564468 -0.11088035 -0.44182712 -0.62648296 -0.14632486 0.20859079 0.0063174036 0.07838081 -0.13356763 0.07404278 -0.02720267 -0.32334134 -0.93296856 0.13487008 0.03380289 0.07637937 -0.1911448 -0.6464796 0.48358592 0.6187719 0.0032843598 0.022248186 -0.37459603 -0.16274315 -0.067245424 0.4442513 -0.045178805 -0.088869356 0.29840186 -0.6154401 0.08511643 0.23885795 0.40675598 0.18854994 0.03523634 -0.48775312 -0.19470197 -0.012626416 0.19284555 0.65285504 -0.45672333 0.020140547 0.20481943 0.05009069 -0.22679728 0.35132948 -0.36485228 -0.05503114 -0.66706926 -0.4477861 0.044248577 -0.96219283 0.19379409 -0.48192176 0.66357696 0.35080698 0.70616406
62 -0.25798854 0.59632045 0.9705656 0.13594812 -0.6681725 0.22445847 -0.16448937 0.15222904 -0.10290473 0.2541423 -0.45286778 0.7732633 0.22711064 0.1511786 -0.12227221 -0.69269454 0.024564594 -0.2935275 -0.3179993 0.0880329 0.12712906 0.2372596 0.47301865 0.25151187 -0.384679 0.03782336 -0.001682191 0.29368654 -0.18374178 0.014596744 0.067473434 0.15639639 0.20648761 0.014386839 0.32871807 -0.22655308 -0.2697381 0.86212426 0.27861047 0.10009405 0.4908068 -0.12823924 -0.5404906 -0.0530005 0.2011988 0.106245294 0.12962836 -0.68207014 0.32260802 0.25990644 0.25804687 0.3576782 0.012332511 -0.6490424 -0.07786252 -0.0671448 -0.110728584 0.5561445 -0.1717512 0.14114718 -0.17782667 0.46425816 0.052887563 0.07638375
52 -0.21000215 0.71980417 0.3671907 0.06446048 0.17749774 -0.73010993 0.40434882 0.8124833 0.13733548 -0.20379123 0.13253504 0.17998238 0.39410305 -0.11620653 -0.3685907 -0.37067 0.38943633 -0.21191631 0.2663658 0.07682949 -0.18177101 0.32396004 -0.13457559 -0.32581332 -0.37490898 0.033310745 0.45650923 -0.20785718 -0.124628335 -0.09280331 0.09461604 0.2780785 0.137215 -0.24231064 -0.5746893 -0.28296927 -0.4163906 -0.020447724 -0.53689176 -0.19042195 0.19738339 -0.24606617 -0.6893963 -0.3566841 -0.12975517 -0.18289627 0.110302545 -0.3361916 0.20635957 -0.22603607 -0.31161338 0.3514523 -0.45189473 -0.0016030564 -0.14463079 -0.13015674 -0.11531542 0.12905778 -0.44979897 -0.288998 -0.39673772 -0.06904832 0.31383142 0.536828
131 -0.23216538 0.42541805 0.10080275 0.23618737 0.1803326 -0.34975955 -0.29321972 0.13451804 -0.34026 -0.13105579 -0.25546396 0.049753036 0.05392706 -0.39826903 -0.25406602 -0.49061453 0.7573748 -0.06393292 -0.024215695 -0.46890318 -0.23072816 0.08134696 -0.22039013 -0.21638693 -0.48459828 0.16969948 0.4622888 -0.07516571 -0.58899957 0.061415482 0.009107553 0.120007195 0.10162974 0.12742123 -0.6066187 0.1320596 -0.54882497 -0.34986869 -0.29337224 0.037814766 0.32403514 -0.16792597 -0.3352634 -0.50038654 -0.039383866 0.01785465 0.30059084 0.015902985 0.06165425 0.03153798 -0.7821511 0.45199525 0.19565237 -0.028300194 0.180975 -0.44675916 -0.31141153 0.5677109 -0.28121746 -0.30296952 0.09496764 0.2859864 -0.0154512115 -0.150722
78 0.20519905 0.30621275 -0.016525606 0.032876085 -0.2420887 -0.4333154 -0.24337137 1.1680597 0.35974082 -0.14071828 0.12419257 0.46507382 0.49141943 0.3577336 0.010864577 -0.19700691 -0.034405444 -0.04042224 -0.27524957 -0.64282256 0.9698867 -0.16203237 0.26801035 -0.35333282 -0.27741995 0.75853324 0.3003802 -0.04019846 -0.120654196 0.04828866 -0.25214076 0.12294857 0.26318648 -0.18337862 -0.36025193 0.026012722 -0.48379645 0.5560288 -0.32204473 0.30035937 0.04097713 0.048808675 -0.4190982 -0.52236027 0.1258357 0.45343125 0.104870975 -0.32620215 -0.18464412 -0.054964524 0.021518698 -0.1564985 -0.015571212 -0.3334821 -0.5891537 -0.010640349 -0.12832677 0.12780301 -0.67842466 -0.06933594 -0.265035 0.48407856 0.7258989 0.24545038
55 -0.041263357 0.24417354 0.39456165 0.42115936 -0.1178325 -0.49654594 0.27001196 1.1456867 0.3028193 -0.2602209 0.00892433 0.17163937 0.7142157 -0.15893 -0.33579597 -0.06450876 0.28484195 -0.13853486 -0.1093529 -0.47906876 0.041472834 -0.08495055 -0.113650225 -0.40016776 0.009787176 0.39964035 0.37632546 0.19462235 -0.1364883 -0.0462771 0.16323549 0.017918693 0.05735061 -0.13263161 -0.7635194 -0.4368871 -0.5763616 0.4269507 -0.32788804 0.040888503 0.025576968 0.015307678 -0.5710173 -0.20548864 -0.32521698 0.3106826 0.15291482 -0.18878824 -0.042535797 0.025831504 0.026506772 0.19090861 -0.37268448 0.016489353 -0.45293877 -0.19333749 -0.05416946 0.3697629 -0.24718393 -0.35081416 0.008310782 0.42773548 0.640157 0.40344808
81 -0.34471592 0.3727757 0.97422343 0.07921509 -0.43749377 0.3199941 0.16338421 0.038998406 0.003764608 0.23726803 -0.4867796 0.63529414 -0.10588858 0.13244806 0.024320988 -0.593636 0.1460183 -0.3230705 -0.39424744 -0.04709248 0.48321304 -0.006882433 0.5310873 0.06178605 -0.52652097 0.031842154 0.25991127 0.25117466 -0.3015218 -0.20821209 0.22298633 0.40526655 0.18390563 0.3596803 0.05596881 -0.24257094 -0.27395356 0.864658 0.35325217 -0.03035565 0.63582057 0.14196834 -0.6042438 -0.06417504 0.11928009 -0.065041564 0.10107657 -0.6485465 0.38579363 0.35364264 0.15442318 0.54117835 -0.10385724 -0.5066069 -0.45103014 -0.1603344 0.15350074 0.5021487 -0.019344563 0.26744148 -0.021176577 0.51380897 0.08750603 0.32910955
114 0.19469076 0.1436138 0.12132516 -0.06787707 -0.103299506 -0.26082224 -0.13952532 0.63480836 -0.12335256 -0.24415036 -0.09006372 0.15277873 0.4126443 -0.18756989 -0.34579587 -0.44357017 0.53037864 0.06846039 -0.29970258 -0.36792895 0.0700851 0.13717982 -0.060585797 -0.41499743 -0.39804083 0.7461226 0.48698732 -0.0852015 -0.10352093 -0.2633192 0.35199755 0.13694593 0.37971509 0.16098727 -0.14853026 0.09521293 -0.5461732 -0.18545623 -0.07794864 0.19918816 0.053020023 0.13205121 -0.77282125 -0.068454385 -0.31109205 0.23950446 0.25559574 0.20143569 -0.020740753 -0.22422978 -0.60363483 0.09583425 -0.25221473 0.0744245 -0.12603122 -0.4235639 -0.17609343 0.54140973 -0.53629535 -0.31061766 -0.14720172 -0.02590856 0.25855443 0.46024853
132 0.0756101 0.29190385 0.32933557 0.045614015 -0.020860724 -0.2927385 -0.23127508 0.38847205 -0.30490604 -0.16028902 -0.11304293 0.13622133 0.2488756 -0.575411 -0.13913085 -0.63867867 0.812142 0.028634463 -0.059601262 -0.58102435 0.038251106 0.051717684 -0.29578587 -0.34043568 -0.45280287 0.15694413 0.43830022 -0.21553649 -0.42484307 -0.31472984 0.08285108 0.17783788 0.035172496 0.09336246 -0.58463115 0.26665866 -0.61346 -0.19159181 -0.14911011 0.13027562 0.2712308 -0.17670663 -0.5133207 -0.31200585 -0.22402054 -0.04093185 0.20909886 -0.045949265 0.05199998 0.099549696 -0.7936819 0.041535486 0.17649686 -0.056918778 0.28998324 -0.4745184 -0.15202323 0.47058907 -0.24758488 -0.30355737 0.020713696 0.016934538 0.14067087 -0.04077748
64 -0.27958104 0.90986764 0.53455466 0.014069114 -0.595516 0.25968286 -0.26051658 -0.0053336066 -0.38316876 0.37277097 -0.5008764 0.8623867 -0.23933037 0.032161925 -0.00040651797 -0.36410052 -0.1088152 -0.5595959 -0.42118874 -0.05982214 -0.15260026 -0.07935319 0.23967515 -0.010885687 -0.17358984 0.10381951 -0.3513383 0.15859239 -0.391992 0.07675876 -0.081767865 0.38229215 0.12336152 -0.18882848 -0.11188982 -0.21478017 -0.21057752 0.30070472 0.15586795 0.052976947 0.24893866 -0.22120439 -0.17452912 -0.061918393 0.3142867 0.41210476 0.2647641 -0.5539844 0.36211392 0.21707182 0.41299227 0.10725051 -0.12278428 -0.3361407 -0.2737679 0.16641016 -0.22684209 0.71522135 -0.28930107 0.037368152 -0.33620602 0.43152794 -0.10908457 0.13455859
61 -0.2447245 0.5357054 1.066241 0.15213951 -0.5698189 0.31921658 -0.09360693 0.059104048 0.13865803 0.23591432 -0.18388103 0.66867965 0.09860495 0.16030179 -0.17871983 -0.7803734 -0.07983757 -0.33048704 -0.1803175 0.10890848 0.4348179 -0.016611094 0.3770856 -0.03473777 -0.5933429 0.00729214 0.1981172 0.2869621 -0.23670147 -0.11922961 0.22320747 0.14246276 0.15909833 0.26841375 0.1897671 -0.14768527 -0.34513113 0.8279849 0.16367304 -0.013779355 0.35951334 0.29403186 -0.61801237 0.18251806 0.21723343 0.043779917 0.11208949 -0.7403464 0.41509643 0.48737058 0.07222489 0.48306254 0.005220735 -0.54347706 -0.28702676 -0.13211164 -0.055045523 0.74800503 -0.29758477 0.34520504 -0.053926986 0.4625022 0.025899606 0.1285721
115 0.28686187 0.13078393 0.00037773195 -0.28729865 -0.13257603 -0.20938392 -0.06642169 0.55917794 0.06782195 -0.40307856 -0.010416813 0.26165435 0.5126945 -0.032711845 -0.39111188 -0.44817036 0.24942088 0.06691082 -0.41132355 -0.51432633 0.08842657 0.02075322 -0.043482427 -0.40575045 -0.43352318 0.5915082 0.67176276 -0.08428323 -0.004753532 -0.07227123 0.021998823 -0.018529546 0.46902093 -0.01463494 -0.27174714 0.23755135 -0.5478217 0.035968434 -0.18848029 0.34967962 0.17245619 0.24599114 -0.6708717 -0.101366654 -0.23445989 0.08895884 0.2237438 0.043889843 -0.21980065 -0.07460226 -0.33799943 0.1270548 -0.017695392 0.26701957 -0.36964342 -0.48615792 -0.056805614 0.562012 -0.5352175 -0.40563035 -0.07923876 0.19739254 0.3826793 0.6504185
24 -0.12513587 1.005485 0.48886937 0.08411426 -0.7433512 0.0068180645 0.16095 0.063195124 -0.37985778 0.007983848 -0.26287544 0.7673738 -0.3357335 -0.008288196 -0.0392302 -0.6935136 -0.29306147 -0.3082011 -0.30477715 0.014928611 -0.2933845 -0.07289454 -0.15027145 0.14533956 -0.43432045 -0.09463778 0.05475019 -0.082064174 -0.33164352 0.07628781 0.12074082 0.36549696 0.30934158 -0.4168602 0.22869322 -0.17408903 -0.22636378 0.4459339 -0.044548023 0.0036903722 0.30963072 0.23610668 -0.09897156 0.20357925 0.12706473 0.38298166 0.17976731 -0.47758526 0.3817701 0.37059492 0.47430047 -0.1850426 -0.3058953 -0.74561024 -0.09161881 -0.20893128 -0.27047488 0.6717312 -0.67356324 0.15715869 -0.4058292 0.6034977 0.3797964 0.033534735
75 0.15048997 0.1502165 0.20938785 0.24031997 -0.11197974 -0.57931525 0.02865889 0.9612018 0.17575018 -0.3494953 -0.1079657 0.22597073 0.67930347 -0.13131724 -0.6360636 -0.13213909 0.28968078 0.00062767946 -0.094667636 -0.5055927 0.09823004 -0.23822616 -0.21259917 -0.35866192 -0.14162418 0.3229572 0.40830338 0.03004271 -0.062633805 0.31044817 0.30406424 0.049299147 0.12536834 -0.0706879 -0.56310374 -0.11667151 -0.53001004 0.29412252 -0.15304585 0.12965032 -0.068059914 0.3610327 -0.62009615 -0.15838473 -0.3421043 0.27104485 0.09287883 -0.2683503 -0.1648202 -0.008471753 -0.14431414 0.2918684 -0.3605747 0.12222866 -0.35259244 -0.4209165 -0.2520977 0.3993605 -0.32075036 -0.23229513 -0.1775199 0.27314144 0.6345942 0.43197453
74 0.109919704 0.3425746 0.38379157 0.28047308 -0.19072077 -0.56430984 0.21491073 0.8376831 0.29289034 -0.12484915 0.062199183 0.029952414 0.8324072 -0.11797206 -0.46056062 -0.34021074 0.4877654 0.06762383 -0.10405227 -0.27256835 -0.21931787 0.03116965 -0.12530805 -0.27924985 -0.25335044 0.4869384 0.26771784 -0.05050231 -0.07002547 0.07324045 0.11284403 0.1717593 0.08750032 0.056317817 -0.5668593 -0.045704212 -0.35262516 0.0557041 -0.15974022 0.12782665 -0.102684684 0.18780604 -0.584146 -0.38231012 -0.38516346 0.121234156 0.4267478 -0.18874414 -0.06311152 0.030852435 -0.18717945 0.37720627 -0.41792053 0.08864245 -0.46198645 -0.42894903 -0.0029323446 0.34949932 -0.38690984 -0.2616472 -0.19113493 0.015882155 0.5580053 0.37188646
112 -0.030730123 0.24002597 0.28406936 0.14800121 0.1549496 -0.48571178 -0.07123079 0.4824931 -0.25249892 -0.1870348 -0.06806066 0.07519159 0.12362586 -0.36288697 -0.19195656 -0.6781638 0.5870251 0.1468284 0.008351191 -0.48303062 -0.27982816 0.11357953 -0.22494936 -0.3661774 -0.34143826 0.12925024 0.30742893 -0.012281138 -0.40639418 -0.3261697 -0.02529293 0.01333499 0.09259113 0.10651414 -0.48374677 0.26204127 -0.48608387 -0.25008282 -0.32545644 0.23142844 0.24256837 -0.073376246 -0.5857017 -0.3133414 -0.31510425 0.24316229 0.4065986 0.083740346 0.21498005 -0.27129117 -0.6280015 0.16305855 -0.091112316 -0.24033296 0.13832468 -0.36468533 -0.22381082 0.6911455 -0.2279984 -0.40792185 -0.07172922 -0.16097964 0.13057247 0.02648001
154 0.2505109 0.32778892 0.34386808 -0.19801046 0.12956701 -0.0961356 -0.22979555 0.4369827 -0.0921432 -0.49542102 -0.28036273 0.23015594 0.349924 -0.12555026 -0.0437086 -0.43168452 0.70012206 0.03155639 -0.1639226 -0.9258981 0.1229113 0.09187092 0.087971546 -0.21336721 -0.22586644 0.32657835 0.7031958 -0.03828809 -0.26722768 -0.18658198 0.19626297 0.17476343 0.50275886 0.19077602 -0.014019523 0.35019556 -0.6314682 -0.25739548 0.00057247677 0.35602677 0.25607488 0.19134629 -0.25271675 -0.20758532 -0.018952379 -0.21465288 0.34119713 0.17429264 0.15605749 0.35808825 -0.6651298 -0.22380848 -0.17362201 -0.06813525 0.0882044 -0.5815857 -0.056379974 0.40019533 -0.74838316 -0.33682463 -0.18346092 0.4055394 0.22562557 0.3369086
66 -0.4577434 0.8947418 0.58898944 -0.020042384 -0.27617523 -0.027701614 -0.36493635 0.033389162 -0.51452667 0.2895468 -0.3740424 0.52389836 -0.32057446 -0.0027874704 0.26581618 -0.6226699 -0.046440452 -0.31749058 0.09142713 0.12933521 -0.201079 -0.18177266 0.12607296 0.3319515 -0.22648522 -0.16689104 -0.23087417 -0.23043154 -0.56407714 0.07458707 -0.24735144 0.42987987 -0.051176123 -0.30508888 -0.3113871 0.037320457 -0.24777313 -0.053008717 -0.19452919 -0.17874014 0.3365461 -0.2501638 -0.27445364 -0.19221716 0.21300782 0.20205612 0.054400038 -0.44853505 0.24228844 -0.30493623 0.3399137 -0.016458612 -0.16411453 -0.18494296 -0.25202778 -0.067148894 -0.45138758 0.707018 -0.332999 0.08604049 -0.527235 0.1095296 0.075874746 0.31135598
162 -0.2564203 -0.18620247 1.0511751 -0.133063 0.24808997 -0.3732099 -0.24362603 0.122366995 -0.20085742 0.10393653 -0.73234737 0.9090939 -0.14447488 -0.09549583 -0.43026632 -0.5180265 0.37816885 -0.31928194 -0.22978276 -0.3312597 0.36530864 0.08567185 0.6406424 -0.353614 -0.5765915 0.27359182 0.20783277 -0.028310562 -0.3771138 -0.21354958 0.1772893 0.41078454 0.026913093 0.11296397 -0.22577277 -0.4965154 -0.32877335 0.70021313 -0.10815112 0.3222969 0.3837814 0.120247915 -0.50331205 0.29440928 0.55726063 -0.11522686 0.6655949 -0.09595551 -0.26021162 0.18768728 0.56724185 0.19693628 0.12135786 -0.32379067 -0.71608 0.35535502 0.20840767 0.107606985 0.12885694 0.24116305 -0.39067 0.2645357 0.010810496 0.09991275
73 0.043586772 0.42674536 0.4131167 0.09324985 0.21007694 -0.7511234 0.08526676 0.80317485 0.15915892 -0.22968034 0.072181076 -0.1685677 0.47456846 -0.3965655 -0.48513454 -0.4117721 0.46346086 -0.03394208 0.010808781 -0.25559387 -0.17299443 0.16694266 -0.10198418 -0.22863667 -0.27092955 0.4170611 0.29412743 -0.10004662 -0.061514907 0.0020264622 -0.069993384 0.16477099 0.004312959 -0.11984302 -0.40631485 -0.21997567 -0.2962811 -0.016984347 -0.20559569 0.19539832 -0.008929531 0.007641829 -0.5850893 -0.35551792 -0.27874786 -0.138748 0.41215184 -0.18380675 0.27253547 -0.020946803 -0.42817232 0.35486272 -0.5893367 -0.008939014 -0.3918811 -0.16511647 -0.23517226 0.36227593 -0.2720424 -0.23982126 -0.1976231 -0.16451767 0.48395196 0.5297769
122 -0.34424815 0.047004588 0.9895898 -0.077957086 0.09998925 0.15514947 -0.045427814 -0.10514249 -0.22884439 0.13330802 -0.3988132 0.9586345 0.046396356 0.19960055 -0.026155014 -0.57272303 0.2366735 -0.41349202 -0.32106116 -0.2674313 0.41489244 -0.26455316 0.6851889 0.07017573 -0.50748587 -0.052106883 0.19082081 -0.03968159 -0.41098145 0.021019492 0.32069066 0.4072671 0.20519249 -0.19029191 -0.20501553 -0.1779743 -0.23555197 0.5770893 0.24515708 0.43234977 0.6231715 0.033051684 -0.4918544 -0.13330244 0.31475824 -0.1364465 0.52331996 -0.3469538 0.0526778 0.22305483 0.5587224 0.31660324 -0.090711005 -0.37473547 -0.68984324 0.16272107 0.13892569 0.2589621 0.102403075 0.23497963 -0.16550827 0.08216951 0.15678267 0.13187411
82 -0.40438828 0.43077976 0.99970955 0.0787324 -0.29125187 0.3840124 -0.02821852 -0.034983817 -0.14684552 0.3145523 -0.5462057 0.8993601 0.050418843 0.014080118 0.008088707 -0.47913837 0.035851482 -0.28041247 -0.1739784 -0.17292024 0.28913546 -0.043769687 0.5250611 0.14878593 -0.4553784 0.1156988 -0.028662732 0.2766195 -0.36140567 0.06783883 0.13501164 0.32847682 0.18539287 0.046709567 0.09529719 -0.24961188 -0.1991513 0.8803052 0.35761645 0.0804342 0.36495033 0.0048428797 -0.57142776 -0.049815778 0.09512497 0.09140917 0.012959685 -0.66420853 0.2796763 0.42304018 0.1531665 0.36753038 0.009802323 -0.7486697 -0.32673755 -0.041946188 -0.12337788 0.4137944 0.059535034 0.049789872 -0.28210145 0.32288527 0.1140064 0.29110068
44 -0.20085174 0.89750814 0.466632 0.08679403 -0.73382735 -0.030911056 0.04566874 0.021279579 -0.30680758 0.31188834 -0.45903403 0.75273025 -0.12954026 0.23809323 0.12620239 -0.62355506 -0.12183677 -0.6014449 -0.33256358 -0.029208029 -0.2985417 -0.095912926 0.080274686 0.098226495 -0.34718353 -0.15671644 -0.14618285 0.07469776 -0.28816128 0.2126586 -0.14404692 0.34328172 0.34866065 -0.25880617 -0.054143067 -0.3055196 -0.08537485 0.39104432 0.11659168 -0.0016699857 0.33737698 0.015192947 -0.2338194 0.18470758 0.21301565 0.6605306 0.3684047 -0.5667614 0.30571857 0.20693466 0.44598633 -0.09296861 -0.23589285 -0.52195203 -0.09220451 -0.18250477 -0.3628897 0.62956345 -0.41709727 0.19709186 -0.36142284 0.44785243 0.10490736 0.15180986
176 0.26520172 0.2188303 0.36672282 -0.30977136 0.070796944 0.058501348 -0.6777734 0.50806946 0.08283783 -0.5510108 -0.78204894 -0.14338519 0.19282763 -0.0035115818 0.030268291 -0.16456623 0.3406811 -0.037046634 -0.20793428 -1.0473143 -0.022054356 0.19030377 -0.00852257 -0.16865708 -0.4427882 0.38438225 0.66339934 0.0068949778 -0.051625073 -0.20005372 -0.028921695 -0.15860392 0.34278497 0.12131052 0.103098735 0.40979975 -0.5460089 0.11783468 0.061216194 0.47752294 0.44661388 0.13236518 -0.42721906 -0.29554313 -0.10364769 0.044064034 0.5869757 -0.36616668 -0.013642722 0.040461347 -0.2799245 -0.090602405 0.18882257 -0.30669582 -0.13503002 -0.71642154 -0.17946668 0.3055326 -0.9273607 0.34771878 -0.49220172 0.632871 0.26218033 0.49328163
108 -0.2708852 0.7317781 0.35443214 -0.039771814 0.06617327 -0.34609345 -0.22223985 -0.03293182 -0.8112599 0.2937868 -0.08230248 0.30032808 0.18087557 -0.1584173 -0.061041635 -0.35344142 0.3809625 -0.14843918 0.23792616 -0.29189152 -0.14691485 0.1496548 -0.2405721 -0.1181621 -0.46966138 -0.072254226 0.17844488 -0.19114016 -0.96593773 -0.0614798 -0.27628896 0.68707377 0.1632656 -0.24507836 -0.37588045 -0.11748465 -0.022813572 -0.2460917 -0.032359038 -0.031932313 0.16603875 -0.4083137 -0.01735136 -0.39001265 0.29614002 -0.023718206 0.29561958 -0.22991556 0.08324506 0.13626239 -0.021426238 0.17166032 -0.2078401 -0.30164325 -0.06776312 -0.1906081 -0.512839 0.54108393 -0.020857442 -0.41041568 -0.2555567 -0.0020789471 -0.13161674 -0.05587319
151 0.011353949 0.26952782 0.28367883 0.2015508 0.25336537 -0.28936476 -0.36906016 0.41615433 -0.24004202 -0.048326004 -0.3449406 0.12753107 -0.016241975 -0.42417303 -0.15539807 -0.593604 0.766934 0.062351707 0.020448806 -0.4479522 -0.15200418 0.02557502 -0.36548886 -0.08603556 -0.8257095 0.1478032 0.4634356 -0.17656867 -0.72031176 0.009033846 0.10979923 0.2672996 0.0502254 -0.10273319 -0.25395527 0.038427703 -0.76307184 -0.18131834 -0.045983188 0.1222521 0.2172897 -0.07665916 -0.13143635 -0.4003055 -0.08439849 -0.40366977 0.2646622 0.074838325 -0.009992554 0.054568414 -0.790143 0.18921447 0.26420715 0.031076897 0.15313652 -0.44495147 -0.25288123 0.6103278 -0.26443905 -0.3333265 0.044858024 0.4845281 -0.22981791 -0.10446765
141 -0.5334012 -0.25661355 1.1016514 -0.1927118 0.027081354 0.017152507 0.05696457 0.17768776 -0.15624253 -0.07219682 -0.6824342 0.95698386 -0.11722045 -0.08105008 -0.36025223 -0.54878753 0.45130205 -0.49401736 -0.31592664 -0.31268558 0.39603272 -0.14832579 0.610326 -0.41445485 -0.66663575 0.004600384 0.13811705 0.06047791 -0.11683427 0.022984527 0.40396652 0.2984097 -0.032246273 0.0016804086 -0.08535583 -0.12640889 -0.38356322 0.5737659 -0.0803666 0.31486347 0.3721579 0.02824722 -0.7140453 -0.05053236 0.36810344 -0.15623999 0.70003164 -0.3125179 -0.04597538 0.14783205 0.50840694 0.42053083 0.09933741 -0.3320748 -0.73429364 0.2792753 0.27863404 0.19388574 -0.0033914258 0.38050967 -0.062084313 0.4491742 0.02344897 0.10759313
91 -0.18868709 0.6901491 0.12153879 -0.1327896 0.18223125 -0.73245937 0.1422173 0.5284968 -0.41907927 0.07714926 -0.05477315 0.04094725 -0.051897366 -0.26650897 -0.2660778 -0.42667636 0.4222931 0.027707119 0.07074379 -0.31347018 -0.3773581 0.017417932 -0.2233501 -0.44069514 -0.24182528 0.1621821 0.14324509 -0.012480799 -0.3710081 -0.22027123 -0.10867353 0.16944039 -0.08876841 0.056730866 -0.6438907 0.07577767 -0.24008691 -0.26282692 -0.60657287 0.20087124 0.35723877 -0.01643364 -0.5658333 -0.42332098 -0.22161771 -0.2388235 0.17338564 -0.030660676 0.26450613 0.092634395 -0.3379716 0.3249601 -0.22384551 -0.07205684 0.058455847 -0.36293688 -0.17529875 0.68533415 -0.25446016 -0.34834465 -0.2392966 -0.116929434 0.066891745 0.21632749
118 0.23666856 0.09740158 0.09555021 -0.019414797 -0.42127204 -0.3758775 -0.35596693 0.74295557 -0.082114875 -0.5084062 -0.14974141 0.030959617 0.47016317 0.059433855 -0.13464682 -0.4255513 -0.031023579 0.012892821 -0.3022931 -0.5916754 0.7050387 -0.04549481 0.2486021 -0.29798377 -0.15433018 0.6406661 0.4444179 -0.021208866 -0.24033438 0.1931741 -0.13580891 0.08840514 0.52957296 0.07605332 -0.31298643 0.09522888 -0.34242293 0.48926035 -0.023932189 0.23073074 0.2700582 0.042469565 -0.32201722 -0.4249449 0.016606672 0.50975716 0.50821257 -0.1675339 -0.107883826 -0.045208067 -0.18593565 -0.4612473 0.38398144 -0.42559177 -0.54148805 -0.09161427 -0.10936998 0.01377578 -0.72260535 -0.01577416 -0.3613099 0.5950469 0.77690226 0.8043062
56 0.112672366 0.33371148 0.2029873 0.33318347 -0.052890234 -0.46428806 0.04036902 1.2507523 0.31311008 -0.2757884 0.029696254 -0.009263131 0.49427757 0.018479608 -0.32200912 0.026993338 0.31747538 -0.13825509 -0.18818398 -0.53558 0.48254797 -0.06873037 0.10439327 -0.44313088 -0.009450919 0.4372747 0.2909451 -0.031744543 -0.09512402 0.018723575 0.15722604 0.1674163 0.35152084 -0.21174654 -0.7956373 -0.3161933 -0.39664486 0.44461024 -0.2661305 0.10182164 0.11690982 0.22506967 -0.7176184 -0.08518721 0.014092696 0.49712348 -0.008213669 -0.26244292 0.0487509 -0.12470662 0.2082944 0.15842842 -0.35445938 -0.012862262 -0.49477774 -0.27839923 -1.36130475e-05 0.4142771 -0.32670498 -0.30989978 -0.08097477 0.51776326 0.80362064 0.18060789
65 -0.4626138 0.94588 0.46448877 -0.17121173 -0.43472072 -0.018677477 -0.16491145 -0.07450568 -0.36642027 0.29333365 -0.47894698 0.7154557 -0.26830873 0.04324001 0.24966305 -0.4580771 0.023517717 -0.47475955 -0.14026013 -0.010531733 -0.28293017 -0.18367584 0.14999358 0.19733554 -0.088538654 -0.2418187 -0.15202786 0.1426893 -0.5891519 0.06451018 -0.1089789 0.36790305 -0.018842181 -0.32492396 -0.1074152 -0.15763174 -0.10558411 0.22873044 -0.19165349 0.01992077 0.26376632 -0.13243552 -0.10150496 -0.14888725 0.34568125 0.4034055 0.27941978 -0.7598707 0.12479235 -0.0404552 0.298711 -0.060959537 -0.11939214 -0.16956152 -0.3765612 0.004731847 -0.3143752 0.8415676 -0.25067106 0.025081018 -0.30195448 0.32874155 -0.0016469385 0.273843
130 -0.13353235 0.3996311 0.23144548 0.13568665 0.18837315 -0.26012406 -0.30666345 0.067375734 -0.4333311 0.2774631 -0.31435108 0.21013992 0.06950943 -0.15859789 -0.35982716 -0.5031937 0.7228637 -0.027521824 0.31223097 -0.39340472 -0.41459885 0.07327564 -0.37442917 -0.22666156 -0.5638174 0.13093604 0.4093916 -0.25542632 -0.6181697 0.050504934 -0.068099596 0.37365627 0.13288054 -0.013092947 -0.65620637 0.029588971 -0.5106372 -0.45775858 -0.32963488 0.11590689 0.120666385 -0.014277452 -0.11357125 -0.54506963 0.022859015 0.021647194 0.16427214 -0.16990648 0.023921648 -0.021292409 -0.63239026 0.18325904 0.11157698 -0.021375053 0.08739918 -0.40818736 -0.23182988 0.69864064 -0.122329764 -0.31146032 0.011543058 0.33412805 -0.31127676 0.060840335
101 -0.23974405 0.21235085 1.082765 0.07502074 -0.27555767 0.24183044 0.022655603 -0.00089855597 -0.038656604 0.20790856 -0.64878255 0.6904615 -0.098674454 0.018408671 -0.016923444 -0.5643487 0.03432525 -0.3720648 -0.40860125 -0.12934346 0.5033295 -0.22461845 0.5147408 -0.03965021 -0.53462696 -0.15099448 0.111171 0.22079235 -0.19550887 0.029061826 0.43576857 0.4913175 0.37674809 0.09401844 -0.09481263 -0.12483279 -0.2881965 0.7999668 0.14691293 0.21623413 0.54167646 0.1890315 -0.7851384 -0.12436656 0.20952626 -0.23376411 0.34915003 -0.5843408 0.23343845 0.41067693 0.29857922 0.43907806 -0.19901001 -0.39266634 -0.580946 -0.13731895 0.1350087 0.25223425 0.11121049 0.2226183 0.031181335 0.36819625 0.017318403 0.29733625
57 -0.013817838 0.3361772 0.035863396 0.2176584 -0.04967113 -0.36756238 -0.09858022 1.2694936 0.09544744 -0.2765693 0.14375497 0.17720121 0.3756352 0.2415949 -0.06782023 0.025718974 0.18575737 -0.003600906 -0.17202231 -0.5800184 0.52422285 -0.019626267 0.23667222 -0.35576287 -0.13673498 0.72148424 0.2860818 0.05396399 -0.07274641 0.08346197 -0.06196024 0.051924143 0.31928584 -0.28281114 -0.5705297 -0.17699777 -0.6146144 0.6942733 -0.45676297 0.19748628 -0.121461265 0.27325672 -0.72203827 -0.3375529 0.097952835 0.41979602 -0.098443635 -0.41618305 0.032127067 -0.17988841 0.16055997 0.021744188 -0.23309019 -0.28589508 -0.8327522 -0.15082861 -0.041269507 0.3034737 -0.28551415 -0.22535723 -0.10555345 0.47308314 0.74943274 0.09492251
143 -0.3918222 -0.15029415 1.0469904 0.16196734 0.08570342 -0.06473306 -0.28862336 -0.116667606 -0.29464984 0.2916741 -0.59311914 0.79699224 -0.07129537 0.27631155 -0.2612505 -0.2716903 0.21153653 -0.47298828 -0.1489802 -0.32309002 0.38229492 -0.007060088 0.6311416 -0.2092796 -0.46691778 0.16944157 0.17449762 -0.21958718 -0.65295804 -0.19603379 0.16582029 0.50190145 0.19915843 -0.017882187 -0.13854721 -0.4308964 -0.14563927 0.49066615 -0.060229667 0.29550037 0.5486731 0.14230245 -0.28577775 -0.02400717 0.42929125 -0.06026866 0.51966727 -0.28270686 -0.330083 -0.0914856 0.7092745 0.033925336 0.13875225 -0.32512647 -0.6677746 0.18777373 -0.024552427 0.49922988 0.022865333 -0.022916343 -0.18157344 0.089662954 -0.100450516 0.15123576
165 -0.32769287 0.0730191 0.76842165 0.27955195 0.15283917 -0.347565 -0.42128482 0.03301612 -0.35100955 0.5339264 -0.5859207 0.6429664 -0.19582884 -0.054246362 -0.44957933 -0.07416781 0.22152808 -0.5649059 -0.15588753 -0.3643606 0.02739816 -0.050206102 0.3079613 -0.055551887 -0.72572625 0.34469667 0.4331312 0.08356666 -0.84425837 0.08177102 -0.1521546 0.5044499 0.1043308 -0.21079223 -0.5895206 -0.2630023 -0.10525705 0.27411157 -0.15522006 0.078401856 0.22187571 0.06082306 0.061994597 -0.32608837 0.8827805 -0.21429521 0.39296076 0.069089435 -0.44239864 -0.0034646126 0.409562 0.105244055 0.42373163 -0.29995963 -0.66158307 -0.20547259 -0.11016037 0.27419117 0.12196076 0.18611325 0.081238545 0.34753132 0.0072678165 -0.106870234
43 -0.09739046 0.73997045 0.70154756 0.13475122 -0.80866826 0.07954581 -0.18372923 0.06737558 -0.0347654 0.22449246 -0.5192251 0.823153 -0.07491536 0.24783614 -0.1196373 -0.51435834 -0.1463487 -0.5497795 -0.50286233 0.099469416 -0.17283674 0.011193929 0.23069881 0.174444 -0.39588377 -0.059418924 -0.010371301 -0.11132723 -0.17379388 -0.028045833 -0.028576037 0.20218076 0.37047982 -0.38987646 0.13265616 -0.15893364 -0.11078628 0.7352452 0.13209112 0.04988378 0.29304087 -0.039113376 -0.24971512 0.09168422 0.1806428 0.42275152 0.32902738 -0.5198369 0.5604387 0.4366773 0.26797307 0.16740751 -0.11748653 -0.6867274 -0.039856523 -0.037282616 -0.23442078 0.752589 -0.40306112 -0.013335997 -0.14105451 0.54785687 0.22724766 0.025901487
111 0.052146073 0.5585142 0.18956468 0.1890498 0.08355036 -0.468279 -0.13250192 0.31952864 -0.36451766 -0.08130596 -0.150627 0.00015669673 0.044077136 -0.2553652 -0.2991002 -0.5175171 0.6967179 -0.14170955 0.0511825 -0.3405084 -0.33052924 -0.01596237 -0.30201024 -0.3055478 -0.5037748 0.20170468 0.31321272 0.11316655 -0.4031102 -0.11630644 -0.25060874 0.10018473 -0.11149496 -0.025771271 -0.6425827 0.26548678 -0.42270565 -0.48564053 -0.4999821 0.1970549 0.45929486 -0.031769227 -0.50603396 -0.3096368 -0.0820901 0.018939951 0.17800294 0.01567284 0.17799366 0.043751318 -0.50544065 0.24109446 -0.15676421 -0.12890106 0.13993591 -0.4273138 -0.19478865 0.6120572 -0.06915534 -0.39803302 -0.067208335 0.050869893 -0.036750488 -0.12752077
142 -0.4514498 -0.25972444 1.0750004 -0.13038142 -0.01288582 -0.13557799 -0.3021164 -0.08101215 -0.26662233 0.11854985 -0.4868572 0.92991453 -0.05249461 0.05604177 -0.19488208 -0.558641 0.33591032 -0.50119966 -0.12163146 -0.32315704 0.4333182 -0.11847314 0.65777457 -0.3772286 -0.45301253 0.033038363 0.28647876 -0.09032497 -0.47154412 0.026339656 0.26108596 0.40800026 0.012125199 -0.075675145 -0.27810636 -0.31267187 -0.07698808 0.65692186 0.10429448 0.39322796 0.56628895 0.20286822 -0.6110752 0.16066462 0.33807757 -0.21108067 0.5445984 -0.20158528 -0.14513433 0.14085709 0.72226226 0.18705869 0.034828793 -0.2759835 -0.5907674 0.2667297 0.23636813 0.1963312 -0.16248745 0.020773772 -0.15316544 0.41260573 0.061776508 -0.0016039534
36 0.20642832 0.20062499 0.35453895 0.28415853 -0.09469861 -0.612917 -0.06907726 1.2824676 0.25923815 -0.10838573 0.25887144 0.08957651 0.4824225 0.031460427 0.0029887923 -0.068977095 0.31396517 -0.19944131 -0.21814825 -0.29929525 0.29762253 0.3123681 0.051142164 -0.31170976 0.05568498 0.50373375 0.32306612 0.34414533 -0.31265855 0.14444043 0.13303669 0.0458846 0.31688347 -0.36467707 -0.9304577 -0.38481733 -0.48054042 0.49181765 -0.48181537 0.17362426 0.10465784 0.26215723 -0.807823 -0.09997232 0.05772773 0.3705404 -0.054311883 -0.35725906 0.15869404 -0.11289538 0.38042545 0.10688681 -0.42344514 -0.031460196 -0.6715098 -0.131186 0.08627958 0.34406275 -0.24793395 -0.19222632 0.04584329 0.5863929 0.60581577 0.3285838
23 -0.09175678 0.8369334 0.5052768 0.014185493 -0.8880229 0.042042006 -0.09925937 0.14205407 0.0019984706 0.0161596 -0.2463605 0.86863196 -0.16568483 0.13275126 -0.041896712 -0.63818926 -0.29426518 -0.43143475 -0.4494157 0.18761249 -0.20087445 0.16431603 0.07570076 0.30099502 -0.30487657 -0.19838431 0.04093767 -0.21428259 -0.29594442 0.12857613 0.08292102 0.36273575 0.34703377 -0.30426148 0.102844656 -0.16806446 -0.48084188 0.4543621 0.24380367 0.10501369 0.461682 0.38382593 -0.32792142 0.13855104 0.012892969 0.35657948 0.36255687 -0.5060006 0.43501577 0.30715945 0.38817102 0.045775827 -0.113485545 -0.9957069 -0.14562824 -0.18619774 -0.27804762 0.7388109 -0.6789231 0.1368825 -0.20805857 0.48662463 0.32907066 -0.18410386
121 -0.38206756 0.013848416 0.9458879 -0.03548805 -0.1950761 0.0875436 0.08450438 -0.11091709 -0.16338228 -0.016383084 -0.6034174 0.82994944 -0.09888195 -0.033408925 -0.14345887 -0.48537287 0.2244267 -0.4943259 -0.14347452 -0.26611283 0.5565355 -0.15684974 0.5664894 -0.1316826 -0.7980969 -0.09250693 0.14093918 0.17722508 -0.17287663 0.03122802 0.3583236 0.46663377 0.2602519 -0.0030616985 -0.19433618 -0.13226518 -0.16974431 0.8074511 0.13209422 0.5661767 0.4688211 0.15949948 -0.72950643 -0.086398624 0.2789768 -0.20383956 0.5828693 -0.4234737 0.22931276 0.11895766 0.3866024 0.60299844 -0.10500343 -0.22457123 -0.5916041 0.19496113 0.2574923 0.22208872 -0.022020532 0.35337886 -0.010688604 0.36578587 0.10708914 0.16710028
124 -0.36249396 0.16796465 0.76251435 0.0072431816 -0.0554665 -0.032014612 -0.32973787 -0.33551687 -0.4344873 0.4596367 -0.465571 0.66051483 -0.14895515 0.27467752 -0.20739724 -0.35998982 0.15892297 -0.34531975 -0.10372612 -0.22364199 0.14052603 -0.016938156 0.6780591 -0.15813261 -0.29738405 0.34802425 0.17513177 -0.09840327 -0.9289908 -0.010774676 0.11564958 0.40430063 0.40922868 -0.36429065 -0.13295141 -0.15877654 -0.12002171 0.28126577 -0.051393807 0.3114276 0.56601214 -0.09726958 -0.07715057 -0.10671116 0.2089288 0.0070843794 0.08215828 -0.2232038 -0.24651179 0.024778059 0.548789 0.25792 0.10924785 -0.48613155 -0.70446515 0.060557496 -0.20198338 0.48446056 -0.05510772 0.2108001 -0.026191676 0.24602892 -0.309187 0.17782848
105 -0.42316306 0.40175384 0.52355194 -0.13247664 -0.13156115 -0.23461428 -0.42501447 -0.30027813 -0.6237992 0.3649843 -0.42235902 0.66350293 -0.013930372 -0.052233573 0.12786607 -0.4689216 0.019232487 -0.386093 -0.12761195 0.06136162 0.119236134 -0.19869146 0.40659842 -0.25238082 -0.24651459 0.183092 -0.11507414 0.13048097 -0.85772234 -0.014430308 -0.12351137 0.51830757 0.11228676 -0.5010963 -0.1811489 -0.1435156 -0.2475958 0.13875763 -0.2558508 0.08342435 0.39213467 -0.19206288 0.13800684 -0.2911019 0.051808733 0.06945169 0.04571649 -0.3003979 0.09498867 0.11122371 0.42712206 0.30294803 0.044885263 -0.38311753 -0.39025626 -0.12740861 -0.1866395 0.66777104 0.09709537 0.23549813 -0.31255406 0.4721344 -0.2929721 0.096565194
133 0.13638425 0.27451396 0.24791937 0.03382517 0.07928458 -0.19351268 -0.17029469 0.50357133 -0.33207324 -0.31797 -0.1160371 0.22838163 0.26336434 -0.33908024 -0.16646896 -0.48800606 0.6879766 0.081593424 -0.22140172 -0.6015326 0.2453395 0.20652616 -0.026054025 -0.27587903 -0.32700247 0.17477694 0.6792967 -0.0053449236 -0.3270314 -0.31484395 0.16182852 0.17378977 0.19838107 0.12068432 -0.39526734 0.21565102 -0.6452003 -0.3679482 0.13992578 0.27411103 0.23005842 0.04302686 -0.5566549 -0.11388153 -0.35749316 -0.09160559 0.3663664 -0.024331111 0.07988683 -0.09886582 -0.75377184 0.03385897 -0.16964842 0.050047707 0.1251363 -0.47778833 -0.10060335 0.422846 -0.5957663 -0.44611126 -0.046234455 0.013651869 0.23934072 -0.026263405
117 0.51267636 0.13123749 0.0688148 0.10803761 -0.25828552 -0.3967166 -0.21370795 0.43603364 0.087519124 -0.74737376 0.079484016 0.14052153 0.4088639 -0.078514256 -0.1809725 -0.43017244 -0.109794475 0.088736854 -0.2431532 -0.63613963 0.5307262 -0.12079871 0.25958058 -0.41278473 -0.37634775 0.6420933 0.3823638 0.041255586 -0.21256086 -0.017094234 -0.21642475 -0.012572537 0.39994162 -0.008240549 -0.28271827 0.008093611 -0.4426929 0.31014374 -0.0598108 0.33356512 0.30063456 0.15947331 -0.53310543 -0.26097605 -0.19552317 0.30130872 0.2769683 -0.07425796 -0.2398947 -0.074377745 -0.22993825 -0.21711367 0.27523693 -0.344932 -0.58315504 -0.38563454 -0.060807865 0.26651984 -0.5343766 -0.11017763 -0.4579209 0.62106293 0.72155255 0.698692
164 -0.45197955 -0.07495331 0.86763054 0.14262097 0.18905553 -0.24829759 -0.53833026 -0.0386119 -0.32391557 0.5648866 -0.6039916 0.62061405 -0.033232298 0.013686074 -0.49358708 -0.2185918 0.26035094 -0.5630476 -0.17572781 -0.24167296 0.21914358 -0.015688416 0.36369902 -0.13971563 -0.48153937 0.3833723 0.37838098 -0.05338101 -0.6400027 -0.14678855 0.18712561 0.59742224 0.1674375 0.0052725626 -0.49653494 -0.45632106 -0.118080705 0.48857695 -0.1747067 0.27088517 0.20598212 0.17473476 -0.16874003 -0.1111117 0.91351426 -0.21326475 0.39849877 0.010267863 -0.38321728 -0.08997371 0.5565012 -0.003001579 0.115312815 -0.31127337 -0.6214971 -0.017220002 -0.36860967 0.20840795 0.03884551 0.29901823 -0.18203743 0.2876415 -0.08425262 0.0886165
31 -0.3419448 0.7895432 0.53158617 0.20653583 0.21922243 -0.64533246 0.30515176 0.6167668 0.0108251525 -0.4073156 0.37444758 0.2594218 0.11008618 0.034118425 -0.14401709 -0.42456606 0.30626053 -0.20646213 0.114542216 -0.01564255 -0.36959425 0.09903449 -0.28273857 -0.17414503 -0.4984906 -0.06800651 0.27334958 0.035681896 -0.3293934 -0.08508306 0.17306672 0.5553778 -0.017996991 -0.3138651 -0.6931047 -0.17645913 -0.5273218 0.037989847 -0.7411112 -0.4657947 0.21376356 -0.25003782 -0.7849245 0.04692233 -0.036878895 0.12848851 0.33669922 -0.4324846 0.044205304 -0.0673816 0.01751232 0.37088975 -0.5823392 0.09837687 -0.000821697 -0.010145018 -0.08337341 0.07650238 -0.5612621 -0.17774095 -0.253997 -0.11547384 0.25280097 0.72907007
166 -0.35933885 0.12399359 0.46647534 0.16985115 0.08279872 -0.4093592 -0.63975734 0.25680593 -0.46664965 0.6167431 -0.4874139 0.6487546 -0.32798502 -0.054556295 -0.35705212 -0.14958872 0.34661743 -0.39730373 -0.031336583 -0.3980714 0.08542671 0.16715178 0.20138067 -0.05094682 -0.75822 0.032756038 0.20437488 -0.0031166214 -0.97436047 0.106689855 -0.07008318 0.38385022 0.28749356 -0.33151188 -0.7030371 -0.08935564 -0.2370526 0.3081751 -0.1939652 0.15211697 0.3113474 0.047418762 -0.020019563 -0.46673614 0.77854574 -0.19401859 0.3314985 0.09340739 -0.48658746 0.19728848 0.2650437 -0.061444357 0.49103117 -0.1513545 -0.35890663 -0.19851689 -0.10252745 0.30643424 0.12765187 0.23735914 -0.13729584 0.16161074 -0.039975915 -0.2966249
103 -0.41165367 0.42015368 0.88041806 0.04752121 -0.18165535 0.24793261 -0.17319784 -0.3975924 -0.2947872 0.271118 -0.3479712 0.88335085 -0.062393576 0.092584044 -0.095672145 -0.43195954 0.111837484 -0.40194154 -0.13661112 -0.35760397 0.32404926 -0.00095921685 0.8674978 0.059908435 -0.25699055 0.16679652 0.011986848 0.23878679 -0.58350736 0.14505877 0.13950627 0.34163326 0.33788067 -0.36005336 -0.03645542 -0.21975851 -0.17396717 0.35072404 0.1051761 0.059468288 0.5758535 0.010765572 -0.27765495 -0.3876061 0.3090223 0.094659 0.13730276 -0.47398698 0.024646796 0.3999325 0.474161 0.26182476 -0.14067721 -0.52784383 -0.41548342 0.14607027 -0.03683209 0.35858393 0.03792906 0.032767594 -0.16124663 0.20552908 0.0161384 0.28650665
123 -0.37738046 0.10265696 0.9214577 0.0058449283 -0.04568917 0.026608901 -0.31610554 -0.3111916 -0.41080078 0.30879417 -0.3649233 0.91639 -0.09639114 0.22826691 -0.1245292 -0.26833558 0.19512637 -0.54809195 -0.20092039 -0.22199911 0.31768999 -0.16067041 0.787198 -0.06713172 -0.5138822 0.20137662 0.22958007 0.009812624 -0.70580494 -0.0010368153 0.16588531 0.41543254 0.32652646 -0.31695744 -0.02956158 -0.22180271 -0.17388073 0.28908655 0.09292289 0.4364695 0.5269874 0.092613414 -0.49198917 -0.08296524 0.23342985 -0.0745408 0.19122738 -0.43822226 -0.18273877 0.062315684 0.496071 0.048946954 -0.07996473 -0.4158616 -0.5763257 0.27666682 -0.020274466 0.34438032 0.16170968 0.038722496 -0.05574981 0.17294271 0.051503833 0.12020166
116 0.3846387 0.07019929 0.030936828 -0.026937013 -0.20170008 -0.3433392 -0.12112218 0.40295315 -0.044983648 -0.4304338 -0.07210643 0.010759068 0.54886025 -0.09098714 -0.293495 -0.4572877 0.16348642 0.21469316 -0.4400661 -0.6778434 0.39758277 -0.13827768 0.090790905 -0.1096314 -0.3124287 0.5876897 0.38377136 0.062305294 -0.041788332 -0.030383972 0.013365515 -0.09172731 0.4904387 0.0018153391 -0.33007458 0.2223042 -0.62460756 0.24417068 -0.30851528 0.2717887 0.30577293 0.24849148 -0.68856645 -0.11363863 -0.024603663 0.04725143 0.0014414467 -0.016843956 -0.28545573 -0.11683154 -0.2767134 0.0787179 0.12627962 -0.0474825 -0.43625063 -0.3662503 -0.13700905 0.4148628 -0.6049851 -0.32361186 -0.38447297 0.46741888 0.6043727 0.792539
110 -0.12041405 0.75944316 0.3486938 0.15895341 0.19826591 -0.32950416 -0.009264627 0.083002634 -0.5567222 0.13271455 -0.09997526 0.02607849 0.030988043 -0.15953024 -0.4533508 -0.3624296 0.62569416 -0.1802258 0.07638162 -0.54915607 -0.30620223 -0.08728437 -0.32088307 -0.3006515 -0.42150652 0.002381764 0.26821464 -0.11805685 -0.59247655 0.026446477 -0.036404006 0.26559964 0.15434954 -0.058215186 -0.61494243 -0.009001277 -0.35652104 -0.5198324 -0.51550364 0.16211385 0.24958558 -0.22643857 -0.15693876 -0.46535125 -0.09381268 0.023889143 0.13168967 0.060616326 0.13428237 0.10559593 -0.43404517 0.27086827 -0.107702315 -0.10448151 -0.056923915 -0.36437443 -0.28527242 0.7392846 -0.1853833 -0.16312025 -0.23491466 -0.10018095 -0.21464673 -0.0632162
144 -0.35832062 0.061072044 0.7959482 0.17688967 0.036115024 -0.26383227 -0.5142862 -0.25068772 -0.4827841 0.40585834 -0.5732934 0.8371288 -0.033806417 0.22841352 -0.3159491 -0.1196919 0.20357117 -0.43140152 -0.042470977 -0.24176487 0.15296316 -0.23841208 0.48430264 -0.12878878 -0.49278465 0.40006196 0.43793765 0.014908268 -0.6648319 -0.024917012 0.003439296 0.5096481 0.30407244 -0.05045891 -0.43267435 -0.39779916 -0.15968394 0.45939794 -0.018751271 0.22980997 0.31710902 -0.08543745 -0.107162036 -0.06333981 0.4221838 -0.086095385 0.28027007 -0.15620466 -0.4262461 -0.08452461 0.6204046 0.059935927 0.08930411 -0.4701458 -0.6409036 -0.040463004 -0.17085288 0.4805668 0.08029071 0.22415881 -0.026412008 0.21417944 -0.26653326 -0.037141792
85 -0.5662169 0.81229806 0.5192455 -0.23651597 -0.18828489 -0.0847234 -0.35902524 -0.20261861 -0.2602246 0.3085748 -0.62597406 0.61530286 -0.13804576 -0.016152762 0.11659998 -0.4322859 0.090662144 -0.5563904 -0.18260987 0.02686307 0.013671227 -0.15389249 0.29028636 -0.031907525 -0.14786562 0.15928705 -0.18763663 0.063821286 -0.7460552 0.097352795 -0.21065058 0.5659015 -0.009122094 -0.35664985 -0.03906846 -0.06597017 -0.28511754 0.027579995 -0.11662638 -0.052385055 0.4274216 -0.17987576 -0.050391477 -0.24406141 0.23684481 0.34238526 0.07136185 -0.5129931 0.34888482 0.18047382 0.44687235 0.14995427 0.114642814 -0.1063708 -0.3671536 0.0837207 -0.36054465 0.66545826 -0.08951181 0.1329675 -0.24774423 0.29286796 -0.1401142 0.07107517
163 -0.33681482 -0.14195491 1.0280842 -0.051107682 0.18826754 -0.37797028 -0.3540833 -0.06445562 -0.15817674 0.29841214 -0.78249395 0.77308697 -0.03886537 0.12724721 -0.3624976 -0.31864345 0.2946247 -0.35605186 -0.16785152 -0.093842804 0.3025761 -0.05676771 0.4185602 -0.33258045 -0.5329084 0.52213013 0.19903538 0.0097906785 -0.6365042 -0.21453649 0.23876658 0.5300998 0.017590608 0.035942644 -0.3606362 -0.42489854 -0.23264994 0.517895 -0.031343114 0.27263 0.41099426 0.023758743 -0.33821952 0.056930047 0.9156289 -0.27110824 0.5389737 -0.20437987 -0.4720093 -0.085281424 0.6387024 -0.05590179 0.08265609 -0.35297605 -0.6562398 0.11554345 0.10068733 0.21391769 0.07226908 0.07371211 -0.31248048 0.20296012 0.051008344 0.09813113
102 -0.34900302 0.28009343 1.1060276 0.055954166 -0.24108946 0.36621454 0.028685866 -0.119657315 -0.3747778 0.19673187 -0.50653785 0.9802856 0.03544771 0.08062222 0.1870347 -0.46975076 0.16259736 -0.47580713 -0.28053147 -0.24905808 0.52142596 -0.01052449 0.6239714 0.113383956 -0.42670456 -0.011568494 0.22264962 0.23221526 -0.3476187 -0.0040662424 0.24080987 0.42058414 0.40530604 -0.16502756 -0.16383302 -0.2762442 -0.1265877 0.47832137 0.19800487 0.1603789 0.4006473 0.034718677 -0.53567016 -0.107319064 0.18979467 -0.20025001 0.095569186 -0.49927303 0.17509744 0.35492903 0.372142 0.35480177 -0.008121733 -0.48626223 -0.5154263 0.07796741 0.11737672 0.15908447 -0.02346315 0.16176777 -0.13458833 0.27963108 0.11243808 0.16040795
138 0.3969471 0.043455794 0.10740768 -0.017314125 -0.2964194 -0.12542477 -0.48890188 0.60088336 -0.08919968 -0.59161675 -0.39273223 -0.018309025 0.4051721 0.09935644 -0.32750645 -0.3509757 -0.06952296 -0.070364356 -0.3427156 -0.6382191 0.5328493 -0.05270966 0.18052597 -0.3764814 -0.16676079 0.60617137 0.33730873 0.08649439 -0.42290527 -0.22747906 -0.33391747 -0.029361488 0.4973629 -0.01314433 -0.24043892 0.21847272 -0.70881677 0.23155767 0.26459506 0.21577196 0.28178793 0.18184553 -0.31577775 -0.31078544 0.0006180642 0.508807 0.56517375 -0.29997662 -0.010200108 0.04488904 -0.0031262648 -0.42433816 0.289391 -0.42623892 -0.636926 -0.29090893 -0.17862527 -0.097449206 -0.687346 0.0721915 -0.54284114 0.59226716 0.67614615 0.86687744
152 0.10261272 0.29185835 0.2694152 0.20404406 0.1762316 -0.22155747 -0.1121065 0.4974422 -0.22131503 -0.4165455 -0.3264186 0.23421687 0.055970058 -0.2733775 -0.11841359 -0.558379 0.93269855 0.074760534 -0.10744832 -0.6287816 -0.03641022 0.22405444 -0.17171095 -0.21473424 -0.5122644 0.18253304 0.44513556 -0.21160051 -0.6186135 -0.27295095 -0.0057648565 0.12735566 0.043695893 0.16531636 -0.35600898 0.18600452 -0.81674343 -0.12459147 0.23900706 0.13503127 0.256212 -0.068978146 -0.2142433 -0.3252651 0.011406497 -0.29643685 0.25446054 -0.012632654 0.09436375 0.18477753 -0.7356465 0.025236215 0.29160964 0.08889543 0.34658813 -0.62180054 -0.21692654 0.6055353 -0.37168744 -0.29427588 -0.08931124 0.30773243 0.10358758 -0.05991365
157 0.26446578 0.03297496 0.337361 -0.35381526 -0.10360081 0.0074373637 -0.6160199 0.5253236 -0.07833682 -0.68613756 -0.4978862 -0.1211394 0.32054824 0.025860716 -0.17504883 -0.20564859 -0.065349 -0.0015520159 -0.40779245 -0.7715659 0.33430243 0.031156287 0.04425105 -0.29839048 -0.40925232 0.4471654 0.29066554 0.026216036 -0.120002314 -0.46823254 0.009995683 -0.24955328 0.44010118 0.041485943 -0.16096497 0.3205747 -0.566803 0.23524824 0.09554965 0.36119512 0.57170707 -0.026255747 -0.4031755 -0.29454908 -0.08145793 0.32831073 0.60384244 -0.18350974 -0.13018303 0.13796845 -0.121909834 -0.23473103 0.1351465 -0.34246698 -0.47357544 -0.742034 -0.5251618 0.06887792 -0.81374013 0.011090431 -0.40940946 0.675134 0.5131178 0.6118862
146 -0.34331393 0.12230238 0.58793163 0.13029352 0.044342224 -0.4044385 -0.6323533 0.16536362 -0.5401221 0.38081285 -0.409329 0.687066 -0.25844064 -0.05882295 -0.389438 -0.26586416 0.24548846 -0.3849222 0.06385618 -0.41720378 -0.045935553 -0.022417013 0.084132686 -0.1411351 -0.5377388 0.10249492 -0.0067463717 0.015234739 -1.059294 -0.039106302 -0.28722942 0.5235295 0.10682071 -0.45791212 -0.4455573 -0.13622133 -0.045208544 0.2187252 -0.05806549 0.3788017 0.25774884 -0.31547922 0.046931703 -0.2689955 0.6684427 -0.22711858 0.052676953 0.027828598 -0.28635392 0.13594456 0.19858792 0.17118433 0.32524568 -0.32146013 -0.21018612 -0.2508946 -0.0016372028 0.5859205 0.18474194 0.33494475 -0.056331772 0.19135103 -0.0619772 -0.055778954
150 -0.07274595 0.41082767 0.2630368 0.2371485 0.2767108 -0.32869068 -0.72572154 0.14542174 -0.34618598 0.23282483 -0.3443074 0.33713022 0.05794422 -0.32894552 -0.14759642 -0.45282608 0.871085 0.23364775 -0.023993785 -0.3011179 -0.34020352 0.18412082 -0.2778193 -0.1683622 -0.6972356 0.10343099 0.41007906 -0.19694762 -0.7287561 0.077875614 -0.17907599 0.42264718 0.17869817 0.08613526 -0.3517639 -0.04406211 -0.7825234 -0.29063436 -0.20849669 0.105434 0.1734427 0.010303724 -0.0145621635 -0.5680618 0.1533634 -0.33593163 0.1871663 0.027181791 -0.07360728 -0.08543067 -0.4858568 0.12408621 0.12357254 0.009733091 0.022838043 -0.49577352 -0.18009496 0.6696629 -0.3223536 -0.056131523 0.13853896 0.22013251 -0.19242589 -0.12061104
72 -0.024794392 0.5236386 0.33666435 0.008390883 0.32856008 -0.8445985 0.106732786 0.77334124 -0.09072317 -0.30037588 -0.056202628 -0.15520617 0.3067588 -0.13973488 -0.32506034 -0.49926868 0.48159707 -0.16350414 0.17916645 0.05181755 -0.2177797 0.28279054 -0.07189328 -0.28817317 -0.37707776 0.04254543 0.15693663 -0.23152202 -0.20944571 -0.30864415 0.02297186 0.17524585 -0.04977271 -0.10414418 -0.46114388 -0.026187567 -0.2749827 -0.04627542 -0.57654274 0.0062749744 0.15885302 -0.06478259 -0.5417383 -0.44949082 -0.2626104 -0.07862011 0.24900153 -0.2657045 0.12845959 -0.06051261 -0.44819438 0.26698813 -0.5661597 0.12591171 -0.29347676 -0.24197173 -0.14170156 0.54812086 -0.34173483 -0.47206715 -0.3497974 -0.05776706 0.32912958 0.4002152
94 0.28435475 0.30643135 0.08803372 0.12551232 -0.09803484 -0.48913082 0.13249543 0.6955648 -0.026290003 -0.2390717 0.060297754 0.063273035 0.598953 -0.23379721 -0.51742685 -0.4173777 0.51430726 0.11526393 -0.3433669 -0.41790968 -0.011483271 0.038661934 -0.2418602 -0.39225572 -0.17728603 0.5229424 0.53339624 -0.045198284 -0.07326138 -0.1854481 0.1022387 0.111988805 0.24277236 0.053185415 -0.17747936 -0.090265095 -0.34624356 0.15312096 -0.13087569 0.21032992 -0.027502343 0.21246216 -0.581887 -0.29960015 -0.26333582 0.17851102 0.46380532 -0.2267772 -0.20060351 -0.07754635 -0.40740147 0.3387452 -0.3731967 0.201799 -0.2683186 -0.46772847 -0.33059925 0.5801076 -0.40682718 -0.1992225 -0.007707588 -0.14576519 0.28402978 0.5286891
135 0.34550315 0.18381958 0.33414817 -0.30689815 -0.020445928 -0.033839613 -0.24551171 0.44899043 -0.023522586 -0.5303258 -0.25159848 0.19129083 0.3971864 0.034457996 -0.17376374 -0.31454152 0.48832303 -0.0034369498 -0.35098517 -0.6584297 0.25957444 0.18308826 -0.045416594 -0.25263068 -0.4391892 0.50577885 0.61369765 0.25918 0.08638816 -0.13942187 0.0041595413 0.040117197 0.52732676 0.110538706 -0.06543422 0.2475819 -0.5197756 -0.0024892676 -0.2906804 0.38476437 0.18003577 0.15657285 -0.42574668 -0.09747425 -0.088838816 0.103229314 0.28181815 0.22054 -0.064597435 -0.09533213 -0.6164181 0.14476459 -0.017153876 0.06629134 -0.2535628 -0.59405994 -0.14134757 0.3863042 -0.63474786 -0.46165004 -0.3305125 0.37138182 0.44328403 0.56596196
71 -0.13947143 0.81988686 0.21748619 -0.047169823 0.45756468 -0.7619078 0.12704007 0.66092765 -0.25645164 -0.14638239 -0.2102363 0.20165218 0.17044424 -0.17404881 -0.26490408 -0.5256878 0.33653438 -0.15919964 0.16721082 -0.08764121 -0.28947374 0.18738931 -0.28658497 -0.3777236 -0.23001559 0.0243871 0.101030454 -0.036332842 -0.24905509 -0.21890666 -0.21099511 0.27927294 0.07038844 -0.25803173 -0.59269565 0.004843314 -0.4685015 -0.051948927 -0.565157 -0.034524895 0.2852628 -0.026100317 -0.5080194 -0.2819315 -0.24441878 -0.07773027 -0.039702244 -0.10283292 0.2736237 -0.020569427 -0.17261006 0.4638615 -0.4424574 0.18285708 0.05049839 -0.30597767 -0.093867354 0.46956834 -0.2495396 -0.3051198 -0.46149966 -0.31446764 0.08649383 0.3434212
87 -0.34237376 0.7453511 0.2487127 -0.17043282 0.019054966 -0.28644636 -0.361772 0.12767482 -0.7196386 0.2715128 -0.28147775 0.4117069 -0.17364098 -0.15216708 0.033511057 -0.5083265 0.3534808 -0.3406102 0.18846118 0.07178448 -0.036781553 -0.019357113 0.050662924 0.1385382 -0.31821662 0.031212576 0.054652184 -0.281487 -0.7611724 0.030385062 -0.23060499 0.50887704 0.09299936 -0.4165054 -0.2691271 -0.10994618 -0.0967989 -0.123503424 -0.18248439 -0.35389334 0.27074075 -0.29781216 -0.15614946 -0.11911319 0.14289458 -0.011635839 0.3317796 -0.393583 0.25109768 -0.14924797 0.29924977 0.13442501 -0.12778942 -0.42374632 0.09185721 -0.0893104 -0.673099 0.8162586 0.04368309 -0.07824773 -0.30128664 -0.04460629 -0.08016143 0.20781639
134 0.35305327 0.24135908 0.2634618 -0.1833072 0.004585891 -0.11921146 -0.18485647 0.50687677 -0.27229378 -0.35263056 -0.0950882 0.20620745 0.31271124 -0.13855074 -0.17354807 -0.35810438 0.59194875 -0.038011506 -0.34629297 -0.7979106 0.22303018 0.32677132 0.06526431 -0.35856423 -0.28959453 0.31081924 0.575658 -0.11030244 -0.008968157 -0.2284918 -0.07707324 0.29277396 0.29518646 0.2835584 -0.23286597 0.30897194 -0.72445434 -0.13015373 -0.05038041 0.31558105 0.17269166 0.01992703 -0.503803 0.026928224 -0.22124088 0.058321323 0.31573975 0.22223529 0.01632203 -0.06765867 -0.64759 -0.0062680687 -0.2775745 0.07894033 -0.117574155 -0.5278503 -0.10444635 0.51504296 -0.6338096 -0.44928017 0.004765105 0.23784676 0.17996824 0.47526518
145 -0.39868414 0.029929368 0.6174727 0.089367144 0.107617594 -0.13476843 -0.5584643 0.050232183 -0.534441 0.5136809 -0.6508048 0.7554489 -0.07991359 0.17142455 -0.3913999 -0.06838906 -0.03572574 -0.46296385 -0.035410948 -0.31701872 0.10268567 -0.14945894 0.20909174 -0.067525685 -0.53224033 0.32117537 0.23728399 -0.10928184 -1.0818579 0.1300192 -0.09563883 0.34572452 0.23889917 -0.23388688 -0.34558654 -0.267227 -0.16008693 0.22685024 -0.21030265 0.23486209 0.28981334 -0.06710468 -0.07983767 -0.21717866 0.6689481 -0.13889146 0.14502054 -0.011957439 -0.3896983 0.04294386 0.43718043 0.3844627 0.16150127 -0.4965363 -0.34174883 -0.13646202 -0.11504396 0.46024123 0.059546676 0.22091533 -0.072157405 0.28231353 -0.23550293 -0.041549247
174 0.31030568 0.3051548 0.16281234 -0.019862503 0.16515684 -0.012620103 -0.35763147 0.24397358 0.07800232 -0.3469242 -0.5151996 0.016269928 0.120724715 -0.08856725 0.02950571 -0.5210422 0.7174568 -0.06426256 0.024626274 -0.9685769 -0.021087538 0.053809755 -0.04006524 -0.34890157 -0.53350973 0.2673441 0.5944301 -0.02068936 -0.31068838 -0.26170084 -0.05876659 0.14783563 0.62761396 0.38973576 -0.06486404 0.37660423 -0.7581353 0.14703293 0.17045622 0.43419087 0.2948369 0.2089706 -0.21696416 -0.20383751 -0.05446615 -0.26403072 0.46956515 -0.009628746 0.08312992 0.42590177 -0.5728267 -0.1759877 -0.05808171 -0.11305441 0.05044571 -0.6028156 0.039663076 0.40809375 -1.0489078 -0.30095667 -0.37385792 0.48706952 0.09361411 0.12873915
107 -0.33717814 0.47247872 0.3420082 -0.31416968 0.33176455 -0.4037284 -0.31974068 -0.19053066 -0.76023495 0.3491774 -0.09503261 0.50481486 -0.16690378 -0.048405293 0.011020328 -0.4181502 0.2392822 -0.33990484 0.023505121 -0.07743833 -0.034727804 0.10707894 -0.13099581 0.0031459143 -0.48721877 0.02452936 -0.08883342 -0.1504977 -0.9005848 0.043730993 -0.3380253 0.69579977 0.059410267 -0.28755397 -0.30455875 -0.14541058 -0.13681906 -0.098438464 -0.023221608 -0.08905664 0.12363413 -0.43930817 -0.2951495 -0.34577712 0.21259 0.10167981 0.24337491 -0.23863654 0.13037652 0.0126001155 0.22473918 0.20712137 -0.03396952 -0.42554504 -0.09316308 -0.29249075 -0.39134738 0.8115104 0.03330241 -0.09390321 -0.15941727 0.15843973 -0.12589402 -0.046451658
156 0.33644435 0.06278177 0.399446 -0.25842422 -0.021022774 0.10967211 -0.54780096 0.4098714 0.032097504 -0.63516444 -0.5785284 0.02830236 0.40365225 -0.100138634 -0.19967686 -0.23494568 0.1669865 0.012386587 -0.357754 -0.92154825 0.18184604 0.089642435 0.07994092 -0.3130391 -0.5585908 0.3803764 0.59572273 -0.07387825 -0.033585366 -0.3151607 -0.06444196 -0.17872472 0.5024664 0.07503411 -0.03738655 0.39612496 -0.52583796 0.27228644 -0.27175552 0.23734738 0.37826392 0.23838933 -0.39326784 -0.3701171 -0.1719885 0.037311986 0.31583583 -0.031687353 0.30119926 -0.0624747 -0.23869525 -0.06488437 0.12861596 -0.074158594 -0.18498123 -0.7511274 -0.38268685 0.15212603 -0.84912765 0.0029770706 -0.38243225 0.6472493 0.49728668 0.48891675
98 0.2248576 0.07056156 0.17016296 0.14410411 -0.2609804 -0.5110846 -0.1406102 0.9057426 0.13260327 -0.40419716 0.08160445 0.23302604 0.4230116 0.34109625 -0.039922155 -0.4105384 -0.08144464 -0.18579897 -0.19094077 -0.7232866 0.82293695 -0.18248428 0.26669982 -0.09625035 -0.26164958 0.6385553 0.452021 -0.10908482 -0.2275857 0.16146646 -0.33199888 0.13913581 0.3575417 0.004250834 -0.36912575 0.051440604 -0.44278172 0.5436614 -0.011946076 0.41083115 0.109592505 0.106040925 -0.5264779 -0.52128273 0.13844225 0.70451313 0.0793341 -0.13494584 -0.18262102 -0.12953636 -0.14721099 -0.34560394 0.20086801 -0.32939163 -0.4954124 -0.123983085 -0.108604655 0.021965386 -0.7500837 -0.006098072 -0.3984579 0.4636141 0.6764481 0.54710335
155 0.41159976 0.11140353 0.4202715 -0.23089184 0.03436011 -0.03585531 -0.19927326 0.33583686 -0.049976792 -0.5921593 -0.59555596 0.15332054 0.26957753 -0.026125811 -0.15597561 -0.36731985 0.4064205 -0.12169741 -0.2667985 -0.9858392 0.11337594 0.13466488 -0.024763875 -0.2824881 -0.4047355 0.5030966 0.62472653 0.09152917 0.049122714 -0.21044543 -0.023247208 0.02499319 0.5635776 0.10356478 -0.0261158 0.4892807 -0.4432314 -0.034099605 -0.24402761 0.23313883 0.25157022 0.20844595 -0.20177019 -0.19098505 -0.14059165 -0.11865407 0.34991857 -0.07578651 0.050764263 0.019810906 -0.5186447 -0.09800913 -0.092449225 -0.17730647 -0.11397312 -0.65166986 -0.004647537 0.40074426 -0.94076574 -0.23739067 -0.0954157 0.5729271 0.32927638 0.34297785
83 -0.34389025 0.6727204 0.9086813 -0.03054007 -0.45856786 0.4235508 -0.14418988 -0.14040622 -0.27841532 0.49533167 -0.45060956 0.92144567 -0.060380854 -0.006562902 0.014021417 -0.42743385 0.13914964 -0.56369346 -0.2116188 -0.12243398 0.25369653 0.18965802 0.4894681 0.01804608 -0.14311405 0.26438874 -0.01939798 0.16480479 -0.47614983 0.1651178 0.08808191 0.2463854 0.26579612 -0.3907546 0.13469012 -0.280718 -0.22973613 0.5390993 0.24731937 0.0085205985 0.46088272 -0.24884208 -0.3029114 -0.1742732 0.17759287 0.20103933 0.23111008 -0.5083357 0.1643948 0.39649662 0.224323 0.13071665 -0.0431424 -0.44937748 -0.36100847 0.034466136 -0.05142161 0.3734146 0.13387626 0.15631919 -0.35087517 0.4249267 0.032051243 0.29487842
171 0.058779936 0.31518698 0.40071735 0.11166415 0.15579322 -0.16577592 -0.48713416 0.49658117 -0.25256664 -0.07497577 -0.36727172 0.22468023 -0.1980821 -0.25990435 -0.109469466 -0.5607967 0.83570915 0.06856865 0.10657875 -0.51102 -0.20045125 0.49984735 -0.32728663 -0.31359848 -0.8648613 0.07144338 0.46613535 -0.075218305 -0.6896996 0.0031366744 0.0026503757 0.18800133 0.41703257 0.108986475 -0.2492195 0.12613982 -0.85214466 0.04027097 0.10868136 0.22704722 -0.042835597 -0.014712675 -0.11274882 -0.47006682 0.16436979 -0.5582937 0.24564484 0.13095048 -0.064011976 0.249558 -0.45074964 0.1659089 0.20997036 0.09545348 0.24154313 -0.65977854 -0.4408697 0.5592264 -0.45996073 -0.16859272 0.25330654 0.4410603 -0.12464383 -0.19702035
25 -0.4125198 1.0863318 0.4630017 0.08762289 -0.49776483 0.07212335 0.04243964 -0.06859818 -0.36067754 0.11248476 -0.074913576 0.71355224 -0.3814123 0.2102827 0.033892654 -0.4985339 -0.38129628 -0.3800671 -0.21528079 0.17908184 -0.41212004 -0.025828252 -0.22301377 0.34213206 -0.3428256 -0.018704033 0.17762357 0.020384034 -0.33762747 0.12674072 -0.1486759 0.45008188 0.35075825 -0.3951068 -0.11153691 -0.3022821 -0.29960993 0.33069068 -0.2371682 0.025003739 0.39477316 0.16124563 -0.09631633 0.19390994 0.16655685 0.47292435 0.24685737 -0.55007726 0.3536882 0.10928088 0.45199597 0.0020120738 -0.28051895 -0.4805374 0.0020857102 -0.4646217 -0.27954677 0.4794748 -0.6952087 0.045361813 -0.6061406 0.5109124 0.3419425 0.36709386
45 -0.34607702 1.2000818 0.36448675 0.053101897 -0.42613554 0.087281644 -0.103598244 -0.12492532 -0.33266106 0.1735688 -0.35136327 0.7292952 -0.3538467 0.24186829 0.13928975 -0.60187995 -0.10684219 -0.53150576 -0.19971576 0.03666015 -0.3510941 -0.30130813 -0.16536815 0.08780704 -0.3815929 -0.27644488 -0.11414545 -0.049458034 -0.42782977 0.069331095 -0.20733236 0.21175584 0.25314572 -0.41452748 -0.12406269 -0.27764165 -0.25694275 0.18861505 -0.02002724 -0.04408648 0.26226747 -0.105567835 -0.27246824 0.09264508 0.3469708 0.406772 0.021996373 -0.6473789 0.17462909 0.003070439 0.45396537 0.0143374875 -0.16282848 -0.38400337 -0.2123819 -0.17031653 -0.3146 0.52261794 -0.49439052 0.009768166 -0.45802706 0.42330086 0.16814408 0.2887498
92 0.069295965 0.45371777 0.2925631 -0.058913235 0.08682963 -0.768875 -0.08211368 0.69709283 -0.13779107 -0.2898516 -0.10747669 -0.002283163 0.22117148 -0.35235548 -0.27349678 -0.60017735 0.42227626 0.0063088485 0.13806693 -0.29303437 -0.13969997 0.06973206 -0.29871377 -0.28819963 -0.24030338 0.24973743 0.085063785 -0.06356921 -0.09792948 -0.35498652 -0.13124484 0.17870665 0.13828972 0.090261206 -0.3990176 -0.023926044 -0.36052823 -0.33728272 -0.48150188 0.19571827 0.31661037 -0.011544683 -0.6876796 -0.50362986 -0.20910355 -0.10519051 0.35903892 -0.094955936 0.12065022 -0.20110993 -0.3901877 0.37467957 -0.38454834 -0.0688163 0.090660974 -0.32923594 -0.20637685 0.6126841 -0.20038135 -0.38643005 -0.16331391 -0.25230846 0.26209795 0.123748004
175 0.34223804 0.2664291 0.27106294 -0.15261702 0.075875424 0.0808101 -0.36603278 0.43022928 0.018662762 -0.51410496 -0.74799466 -0.011571264 0.23252414 -0.24426931 0.06266226 -0.3284991 0.39046425 0.026055757 -0.15778378 -1.0418842 -0.11033824 0.20236823 -0.019865522 -0.24456109 -0.59692776 0.33786032 0.78972757 0.1578671 -0.1185716 -0.16882227 0.03201139 0.057121698 0.42803904 0.38642773 0.022904877 0.5335364 -0.5985495 0.1419489 -0.07951242 0.50701517 0.3770346 0.23801365 -0.23856743 -0.2735502 0.078494065 -0.13006367 0.39941695 -0.30908418 0.048042536 0.21428813 -0.44383842 -0.32268748 -0.10532425 -0.26340884 -0.0037442395 -0.50617623 -0.15310776 0.2528911 -0.89106536 -0.116831355 -0.3591706 0.62525606 0.13412893 0.3275001
126 -0.3473455 0.2176877 0.4024138 0.053986594 0.22977024 -0.47844365 -0.45457023 0.0068315896 -0.61916196 0.5249391 -0.37074026 0.61932606 -0.18547611 -0.091748826 -0.16744973 -0.43128657 0.09336825 -0.32122725 0.029753644 -0.06978316 0.12211764 -0.028712528 0.13635543 -0.27469367 -0.2522234 -0.012592854 0.16606103 0.10206959 -1.1740289 0.06929971 -0.25718814 0.4712937 0.13581264 -0.3118862 -0.31944314 -0.13875693 -0.14316286 -0.020973952 -0.037868105 0.3468862 0.25354767 -0.42768183 -0.010976454 -0.2520312 0.4011796 0.0505457 0.18668197 -0.26604196 0.040384363 0.08829687 0.41416767 0.27118662 0.24118713 -0.44481358 -0.14253548 -0.31952947 -0.13885818 0.58104414 0.16060004 0.21690065 -0.10375074 0.4220651 -0.11913105 -0.11959287
104 -0.425677 0.5182214 0.6831657 -0.094339 -0.0818599 0.21487032 -0.3772019 -0.34688553 -0.4471979 0.4353785 -0.44762522 0.8760873 0.11065168 0.07878108 0.029109932 -0.3027406 0.16599815 -0.43793747 -0.16213852 0.046471685 -0.04722282 -0.019638238 0.68563235 -0.32139033 -0.17096356 0.2578842 -0.050655164 -0.017616302 -0.77095944 0.06412124 -0.0908015 0.4131394 0.31841886 -0.35649467 -0.07949631 -0.25364465 -0.12617135 0.2613168 -0.039238974 0.19581892 0.475024 0.027417408 0.016691573 -0.33569574 0.03913007 0.06805829 0.08959051 -0.44823566 0.022782637 0.20705773 0.46795443 0.27909058 -0.059949096 -0.34074655 -0.5070738 0.019012317 -0.09582281 0.47326756 0.037148178 0.31002432 -0.2498753 0.24785987 0.057923883 0.13136244
37 0.16135357 0.107479885 0.12491447 0.1259228 -0.112214446 -0.43836015 -0.030242492 1.2476461 0.35215157 -0.23856954 0.32167378 0.30581558 0.43335834 0.21187289 -0.095355 0.021742735 0.3020472 -0.043061957 -0.115974 -0.4163675 0.505068 0.2619715 -0.06318312 -0.30585286 -0.14483483 0.53508043 0.17491765 0.22864099 -0.32870755 0.18835206 -0.032233655 0.23650415 0.5725076 -0.2591431 -0.6709227 -0.59623325 -0.4879294 0.6319808 -0.4926351 0.20161371 0.05684581 0.10143703 -0.6179899 -0.31006083 0.22150421 0.30997708 -0.054705683 -0.5219072 0.19926418 -0.23670544 0.35562134 0.066935286 -0.29033095 -0.2752505 -0.9040545 -0.030289927 -0.013738636 0.4270799 -0.51997775 -0.035843667 0.10923158 0.47121945 0.7867074 0.2177951
137 0.41016176 -0.045275036 0.16954045 -0.13045713 -0.3481915 -0.08782899 -0.46297362 0.55343664 -0.19689916 -0.6613849 -0.20672715 -0.035484347 0.31244642 -0.09140604 -0.21029189 -0.43180192 -0.049818598 -0.09105802 -0.21987438 -0.7959974 0.3827107 -0.050715007 0.115611754 -0.21587376 -0.3394097 0.65200937 0.5024579 -0.029152837 -0.11518195 -0.18047205 -0.20168838 -0.30929235 0.5623421 0.009415781 -0.1363109 0.13649608 -0.51451063 0.33699012 -0.016096972 0.15393603 0.46113443 0.07503587 -0.39874887 -0.30435076 -0.09196725 0.24855109 0.44996905 -0.13100824 -0.047941614 -0.025988633 -0.14624383 0.011351055 0.22394097 -0.22291361 -0.46885043 -0.35881078 -0.15081553 0.055036634 -0.67802566 -0.25996786 -0.5914745 0.6015155 0.6610328 0.7747124
106 -0.40307954 0.41884667 0.40145418 -0.19930266 0.077001415 -0.29487824 -0.35815778 -0.14294079 -0.66125506 0.24770612 -0.4764534 0.53675777 -0.12913492 -0.10053819 0.17019778 -0.4417761 0.096634194 -0.19539593 0.028092612 0.011097793 -0.06601382 0.03293877 0.22820878 -0.23607521 -0.37335247 0.15314399 -0.023087343 -0.115232654 -0.97634614 0.016473282 -0.10425294 0.5053429 0.011539203 -0.3458979 -0.32221714 -0.118586466 -0.1030539 -0.010595628 -0.28254893 0.0040546097 0.28741336 -0.48256838 -0.02845037 -0.11930142 0.34555975 0.14812958 -0.004327851 -0.41608793 0.19294332 0.20041926 0.46676144 0.20437464 0.09539231 -0.30919296 -0.19216931 -0.24883273 -0.45356947 0.8133867 0.084966816 0.19107336 -0.07748499 0.20773628 -0.037724715 -0.01707375
63 -0.26042768 0.79137254 0.7342616 0.07710674 -0.6007923 0.118190855 -0.09536099 -0.036573794 -0.16994955 0.4085906 -0.5309087 0.937954 -0.030276716 0.032283723 0.0046904157 -0.43827552 -0.06687411 -0.43946514 -0.23553245 -0.060838684 -0.096232824 -0.031870693 0.466657 0.13891798 -0.015753208 0.15780479 -0.26236945 0.18407407 -0.41276968 0.07078884 0.052237608 0.13784866 0.2876539 -0.13133322 0.1806252 -0.33194208 -0.17834479 0.6798394 0.22464783 -0.019103054 0.36796772 -0.21023086 -0.45990163 -0.08753396 0.31670934 0.23563574 0.39211187 -0.61400455 0.41915512 0.31788233 0.12483001 0.10967239 0.056255642 -0.5629289 -0.16059932 0.08783699 -0.23433225 0.54075044 -0.31575686 0.19308725 -0.22525308 0.53611434 0.10818026 0.06370899
93 0.17510028 0.39006808 0.26453587 -0.01733264 0.09258448 -0.569237 -0.045773655 0.6149126 -0.01683683 -0.20491093 -0.0014125033 -0.08580964 0.39718243 -0.22556227 -0.4448835 -0.57007504 0.6113281 0.21121614 -0.039528597 -0.2669724 -0.17736767 0.20827885 -0.18870859 -0.34064832 -0.19244803 0.38871548 0.24679714 -0.015150028 -0.27076283 -0.16324186 -0.0072152875 0.21505444 0.074072696 0.032215524 -0.21034883 0.0156879 -0.32872686 -0.042860955 -0.20346293 0.15987423 0.048882555 0.11683274 -0.9511112 -0.42825752 -0.4396955 0.069781676 0.46357873 -0.050142903 0.014172109 -0.21911953 -0.45015353 0.0957532 -0.45340514 0.057060275 -0.25820452 -0.36700556 -0.29336384 0.45354998 -0.26384997 -0.39101553 -0.16050568 -0.103402935 0.2797833 0.28583366
29 -0.25749975 1.0160099 0.6332475 0.0429695 -0.013773799 -0.7096256 -0.032914173 0.57496065 -0.262746 -0.083834045 0.054735027 0.2121231 -0.19281301 -0.19067967 -0.26207697 -0.3523864 -0.025139552 -0.47437847 -0.10954014 0.06262863 -0.7430183 0.10969808 -0.32088566 0.11034197 -0.25845984 -0.0060194787 0.08634198 -0.11919122 -0.5849742 -0.14212641 0.12535746 0.59067744 -0.12999813 -0.43041673 -0.3153294 -0.21544199 -0.4078619 0.021671738 -0.5746457 -0.27392384 0.018713523 -0.35165977 -0.4059221 -0.15041754 -0.19788875 0.45416725 0.437351 -0.50908434 0.16232073 0.020765245 0.14540003 0.3488172 -0.4334938 -0.229111 0.27505568 -0.090585165 -0.12252574 0.003098257 -0.7100307 -0.098924994 -0.52944285 -0.057912853 0.07837683 0.5381704
51 -0.17884092 0.8188274 0.36375394 -0.075560905 0.34128797 -0.79286313 0.39613357 0.56619054 -0.33072644 -0.2996833 0.2574107 0.3209005 0.29509422 -0.15169129 -0.27933323 -0.44169745 0.27967346 -0.3091294 0.27086654 0.056837182 -0.3292995 0.15694858 -0.2308713 -0.23212889 -0.3467308 0.08140088 0.10902831 -0.017049368 -0.41005787 -0.112921976 0.18263185 0.46834782 -0.05561595 -0.35772023 -0.49076632 -0.089387566 -0.47871614 0.07921242 -0.4935691 -0.16441613 0.2935512 -0.09471949 -0.49483398 -0.3679643 -0.1744107 0.024964556 0.07149682 -0.21819533 0.39870286 -0.21337415 -0.11305457 0.37684205 -0.4342962 0.25300834 0.07956117 -0.1636513 0.031593136 0.25422645 -0.6311291 -0.3263006 -0.22259347 -0.09601605 0.28615877 0.61343426
58 0.16506633 0.22499226 0.12834309 -0.0328604 -0.2485994 -0.48569822 -0.28080976 1.3126296 0.3974392 -0.11487376 0.32819158 0.44758815 0.25586998 0.3747903 -0.022881413 0.08898757 0.15429476 0.14646997 -0.25791585 -0.74161845 0.6205794 -0.02926067 0.15189013 -0.16346452 -0.3357831 0.79868066 0.11551913 -0.08117456 -0.21170425 0.12636265 -0.17463967 0.13350476 0.31578505 -0.31136638 -0.46747163 -0.16761234 -0.41583535 0.61535996 -0.1957175 0.24717066 0.11006921 0.13961811 -0.44347507 -0.54303616 0.14979427 0.54770535 -0.06427508 -0.34946656 0.10218527 -0.11732288 0.09391086 0.04846362 -0.120702535 -0.33070147 -1.0073096 -0.07469552 -0.185197 0.26393637 -0.51249903 -0.0052815084 -0.116617106 0.55828965 0.67419297 0.16075456
95 0.28151074 0.15694562 -0.016645173 0.12186273 -0.09639414 -0.27571613 0.10130495 0.79655194 0.17673452 -0.12444495 -0.018340709 0.08240734 0.65435463 -0.22147319 -0.6083891 -0.31276968 0.23235694 0.019089514 -0.32080153 -0.5073851 0.07239524 -0.02528668 -0.076351695 -0.37075597 -0.39381033 0.48848322 0.37331364 0.052852325 -0.04672338 0.00056639855 0.13585982 0.15700905 0.26735768 0.170865 -0.23289798 -0.006362108 -0.5778492 0.023099443 -0.17734739 0.1585994 -0.0017822585 0.17651206 -0.7792849 -0.13118418 -0.21598522 0.22279224 0.12067058 -0.21020989 -0.3578864 -0.07901484 -0.35600057 0.20178445 -0.10752023 0.22258162 -0.40011412 -0.36869246 -0.21189654 0.61006516 -0.4244254 -0.22207955 -0.26648316 0.3285698 0.6836908 0.570627
88 -0.4840866 0.7759824 0.37076268 -0.048719794 0.18140082 -0.3434256 -0.073441185 0.11379187 -0.6828729 0.21645382 -0.007845088 0.44220564 0.12767713 -0.32141268 -0.11328322 -0.32705662 0.38515693 -0.34759516 0.27796942 0.0062551135 -0.23361282 -0.062216405 -0.23475799 0.13836248 -0.3313942 0.14309695 -0.030371811 -0.20615461 -0.8039998 -0.15138999 -0.2050018 0.3851801 0.19995466 -0.37821242 -0.3744745 0.0039077634 -0.08024225 -0.39275855 0.014769514 -0.2974814 0.40665415 -0.29063004 -0.14101389 -0.24288657 0.1347 -0.032082696 0.38625684 -0.26295945 0.012903934 0.060234044 0.11137924 0.073012486 -0.2709346 -0.24450864 -0.02971141 -0.2272336 -0.5133672 0.78191286 -0.1654338 -0.10920179 -0.33234727 -0.08171122 -0.109149046 0.15388101
153 0.24402994 0.2060831 0.37973863 -0.042399 0.20310676 -0.025431817 -0.10681976 0.38462165 -0.2731886 -0.3909553 -0.22631378 0.19484459 0.12997316 -0.31540665 0.12315158 -0.39269164 0.80978656 -0.14782755 -0.08700551 -0.7093367 0.14848496 0.029228946 -0.07768409 -0.34415767 -0.3304274 0.19139697 0.5182133 -0.18937024 -0.38008386 -0.17738204 0.03550747 0.11379444 0.2563772 0.17255582 -0.2021502 0.19012742 -0.86428076 -0.2020325 0.14404297 0.22209166 0.11989965 0.089917585 -0.47970527 -0.1912363 -3.5961744e-05 -0.37165338 0.40309846 0.026286405 0.069867924 0.33121026 -0.87211996 -0.1960532 0.1390379 -0.09023526 0.033064067 -0.599488 -0.18321735 0.58043563 -0.6719117 -0.43656662 -0.19160469 0.17202395 0.18239859 0.09611465
38 0.10455953 0.15048718 0.08202288 0.21213987 -0.3458527 -0.31421655 -0.36398163 1.3557135 0.39815363 -0.16409779 0.3616342 0.41122672 0.34763244 0.31383428 -0.10509247 0.024849236 0.3466065 0.15196502 -0.16796347 -0.4949286 0.6083044 0.27349284 0.0381782 -0.1724868 -0.40140185 0.7332213 -0.063874885 0.048509553 -0.4422404 0.3797535 -0.08739285 0.2980534 0.44667795 -0.2847324 -0.4581809 -0.4099078 -0.5416748 0.5556268 -0.57543147 0.24504517 0.1203353 0.14326413 -0.4430941 -0.43014047 0.15133604 0.51235104 -0.08086139 -0.6464189 -0.06981231 0.045685045 0.25317305 -0.067425095 -0.37190297 -0.29882962 -1.0641773 -0.022513345 -0.018028613 0.24560928 -0.4080809 0.08077789 0.029364202 0.6457224 0.5737196 0.26106095
136 0.3158584 0.070640944 0.03253122 -0.041426476 -0.27812195 -0.16712329 -0.37198207 0.3727506 0.039700232 -0.56012267 -0.2884615 0.04248391 0.42985436 0.055447444 -0.25139445 -0.35760003 0.28217515 -0.08483696 -0.28182924 -0.87863064 0.27988896 0.08286912 0.055230066 -0.31660354 -0.4797301 0.59302294 0.5357641 0.03322706 0.098905094 -0.21890542 -0.07555643 -0.15910606 0.457196 -0.046531588 -0.08463269 0.31302342 -0.5159853 0.17066872 -0.22695982 0.16232972 0.47774947 0.23219755 -0.49420926 -0.05336685 -0.06282608 -0.042884342 0.2721232 -0.020167286 0.08551795 -0.15317795 -0.3507326 -0.020451544 0.14703678 -0.22314475 -0.4435235 -0.67343074 -0.21840844 0.21110132 -0.581202 -0.28238618 -0.2652982 0.58913505 0.5015558 0.81584513
168 -0.30199933 0.299137 0.5271833 0.09967358 0.3602998 -0.28470033 -0.7383223 0.32048517 -0.5784387 0.28918523 -0.32123965 0.4109332 -0.30298692 0.059912924 -0.12134832 -0.6128374 0.6654006 -0.25190777 -0.035299297 -0.33941844 0.052790288 0.22178403 0.006458931 -0.24004936 -0.58159137 0.3262342 -0.038675763 0.007902934 -1.1717803 -0.0747521 -0.028149372 0.27851924 0.19822904 -0.23009966 -0.7601954 -0.21797052 -0.5807345 0.18856591 -0.22029938 0.22219384 0.040213544 0.10824154 0.22084737 -0.32362223 0.672705 -0.3779885 0.3536174 0.009736698 -0.15573578 0.0695545 -0.30042085 -0.18786436 0.27169737 0.08740002 -0.09343787 -0.30285364 -0.23011836 0.45062762 -0.100973204 -0.04925054 0.14400458 0.078436546 -0.18703632 -0.4547168
172 0.20339815 0.13839644 0.25218946 0.04814343 0.16707413 0.011823683 -0.25198358 0.43443748 -0.20862807 -0.15073767 -0.38903117 0.09091106 -0.04541233 -0.2166609 0.06408155 -0.6631911 0.83046573 0.027766634 -0.086153805 -0.73988587 -0.029342111 0.37479597 -0.40033117 -0.3890475 -0.7738484 0.050448447 0.30948246 -0.22917803 -0.67884 0.016264372 0.052255575 0.035404563 0.4112582 0.14444713 -0.2907136 0.09937575 -0.8247911 0.020300355 0.19683133 0.086223155 0.18607785 0.05290821 -0.22240455 -0.38276845 0.16592157 -0.55234545 0.5008456 0.08146577 0.051102057 0.3194305 -0.60717666 -0.008333741 0.009745912 0.020718591 0.28720534 -0.72095495 -0.20727642 0.55176693 -0.6013629 -0.09945631 -0.16686392 0.3773742 -0.030552668 -0.076080754
46 -0.5037963 1.2555181 0.43627933 0.087513134 -0.22037375 0.027597189 -0.07520485 0.114641085 -0.4538839 -0.00044096855 -0.38905266 0.55706984 -0.37243116 0.25152534 0.054180704 -0.5712073 -0.27313215 -0.37923333 0.17669259 0.17946263 -0.33279014 -0.15617092 -0.08464807 0.29742384 -0.41258985 -0.14469382 -0.030820498 -0.0827721 -0.4754645 0.043827962 -0.26861766 0.33287382 0.1625096 -0.35010138 -0.23836768 -0.23661585 -0.21002181 -0.0016273999 -0.2919938 0.011715269 0.4911205 -0.16804108 -0.119337335 -0.19056278 0.1398478 0.4198509 0.16931033 -0.6610484 0.25242096 -0.20454527 0.3296925 -0.08000908 -0.12748447 -0.3930552 -0.06485691 -0.072682716 -0.29196838 0.43923756 -0.40476 0.040102076 -0.3954944 0.31818238 0.042114705 0.40744072
167 -0.37604225 0.10272585 0.3989233 0.21958624 0.14249486 -0.3258904 -0.6414709 0.3380715 -0.498629 0.5122922 -0.46114886 0.6039221 -0.41578227 -0.077035576 -0.3011284 -0.43427804 0.49395135 -0.39210105 0.070822306 -0.5372607 0.016398633 0.08264515 0.17474972 -0.20975661 -0.73097163 0.17566527 -0.096551195 0.09729943 -1.0875295 0.0008857497 -0.082910895 0.38368347 0.20739073 -0.3681675 -0.6956081 -0.39010745 -0.50824684 0.12316526 -0.06600839 0.27807617 0.16831796 -0.07657806 0.26999432 -0.46944296 0.5645501 -0.40276307 0.33103785 0.06241008 -0.23462251 0.09856657 -0.001811224 -0.063794106 0.45201835 -0.11271948 -0.19560748 -0.22166057 -0.22832735 0.33921787 0.009790787 0.044988062 -0.008736062 0.04688979 0.09299849 -0.32973757
77 0.252485 0.18008752 -0.014313966 0.037846327 -0.09057668 -0.40850902 0.086512774 1.0093553 0.2523909 -0.248132 0.07994664 0.18382907 0.39639086 0.25144172 -0.042823568 -0.19856784 0.04743676 -0.07872564 -0.3400044 -0.7055422 0.5411473 -0.3938097 0.13653727 -0.30643293 -0.12598835 0.892332 0.2857683 -0.036629234 -0.050552104 0.12008696 -0.016316378 0.32385004 0.15827696 -0.18935356 -0.576251 -0.09801715 -0.56659937 0.65402967 -0.3338532 0.28548852 0.1177195 0.2716202 -0.6400922 -0.35393316 0.0025546437 0.33559704 0.033691153 -0.32771388 -0.059578024 -0.19101208 -0.10996021 -0.15586342 -0.09525074 -0.20613198 -0.44892943 -0.20934364 -0.13939664 0.27640933 -0.42461517 -0.14663333 -0.26552406 0.5262135 0.8772579 0.22142497
68 -0.43207595 0.8922531 0.22384167 0.14127758 0.038286168 -0.19240156 0.020803764 0.3346301 -0.51113594 0.1869359 -0.09397047 0.39222977 -0.23265211 -0.33291057 -0.12099775 -0.42432067 0.3867542 -0.5153822 0.10718964 0.2858108 -0.42632157 -0.15761907 0.04356364 0.20592725 -0.31056842 -0.054279175 0.033110354 -0.31503382 -0.8236892 -0.18393874 -0.33152 0.5155902 0.15702564 -0.48687813 -0.2522494 -0.1108739 -0.10841132 -0.2141667 -0.26621732 -0.11371959 0.27297914 -0.33179107 -0.2816065 -0.37733337 -0.08033225 0.19340782 0.25682053 -0.15821299 0.082733266 0.05851374 0.13354066 0.12649207 -0.352792 -0.34452373 0.17205091 -0.19107553 -0.57596654 0.45411035 -0.34881738 -0.09398124 -0.3621105 -0.052549396 0.03283349 0.44316494
169 -0.25427407 0.36927927 0.38496858 0.018251712 0.32547668 -0.17195477 -0.78862005 0.35719442 -0.4116634 0.2695321 -0.3400077 0.28593174 -0.22696923 -0.24115458 -0.066592366 -0.6940058 0.77375585 -0.33311665 0.1287493 -0.34539023 -0.10345369 0.29949823 -0.20959117 -0.42348093 -0.48509884 0.2623563 0.24769814 0.17849694 -0.92508024 -0.0477293 -0.008665038 0.63516486 0.18024434 -0.04041712 -0.41266483 -0.10045641 -0.8329714 0.09937155 -0.21216813 0.24721637 0.028498162 0.14591417 0.22859502 -0.635963 0.399252 -0.3777341 0.33670312 0.16978578 -0.23622012 -0.1336414 -0.30004984 -0.122588314 0.35696083 -0.06809991 -0.12399625 -0.586036 -0.17090651 0.557323 -0.29212376 -0.19980997 0.2915592 0.023462024 -0.27995563 -0.32966894
128 -0.2997147 0.4615709 0.4244202 0.06322683 0.3315558 -0.42716777 -0.43643847 0.013462844 -0.74533063 0.45838335 -0.17036489 0.5411745 0.01103452 -0.11383268 -0.09147192 -0.56151974 0.34751645 -0.12779996 -0.07369321 -0.34816238 -0.23890288 0.27674305 -0.2887753 -0.12713346 -0.47807482 0.122802354 0.025604723 -0.056803785 -1.0205122 -0.062080603 -0.23013456 0.59550065 0.41481307 0.0021988833 -0.38746402 -0.21969423 -0.09844408 -0.32261375 -0.21447138 0.14219478 0.052241117 -0.42568377 0.016416278 -0.38148353 0.3011305 -0.17981286 0.20553616 -0.2872559 0.074632026 0.08057112 -0.27251312 -0.12946202 0.0065702563 -0.1935494 -0.11933514 -0.15966438 -0.22689548 0.56494284 0.099581465 -0.24984421 -0.10267291 0.12231943 -0.12847953 -0.08049866
170 -0.18401103 0.3115369 0.34453785 0.024021193 0.24201947 -0.28577918 -0.53314924 0.4003459 -0.11300592 0.27678645 -0.43665552 0.17688553 -0.08739053 -0.35377005 -0.070913754 -0.5378377 0.7177501 -0.056761775 0.14465603 -0.4819202 -0.14153223 0.42520183 -0.30475125 -0.094885215 -0.73790926 0.22707121 0.33008957 -0.08199989 -1.0006677 0.08143438 0.011472952 0.48217222 0.32520428 -0.032582548 -0.324271 0.12103815 -0.90383863 0.026881017 -0.02355349 0.35302058 0.075365394 0.12797117 0.11953485 -0.40627345 0.31311867 -0.42611253 0.33463517 0.29374096 -0.10545546 -0.012634235 -0.4708498 0.118393764 0.16196603 0.003302239 0.036798514 -0.6813731 -0.25290504 0.63852245 -0.36999634 -0.02822157 0.34281078 0.27651593 -0.26176748 -0.20588183
70 -0.26951665 0.91310096 0.08641766 0.038785156 0.10527915 -0.60325384 0.2274615 0.6547048 -0.5215795 -0.008857839 -0.050170492 0.11454818 0.07997424 -0.24786036 -0.15591694 -0.32826746 0.30640444 -0.37235248 0.0864181 0.035952143 -0.56085926 0.08404082 -0.17778906 -0.36101523 -0.29299206 0.002029339 -0.033555776 0.024970815 -0.69840974 -0.16508885 -0.08403157 0.4471432 0.11467684 -0.4242291 -0.528843 -0.06306748 -0.26211104 -0.1896091 -0.4261828 -0.082405046 0.39579198 -0.17236799 -0.2935227 -0.08483988 -0.16003974 -0.0430849 0.079854995 -0.07255227 0.09058921 -0.08246247 -0.28207716 0.38627768 -0.370866 0.050207146 0.05237414 -0.3670619 -0.025043882 0.60181993 -0.3110137 -0.145927 -0.4694122 -0.17001705 0.16543065 0.45297134
127 -0.48213878 0.33281022 0.26807475 0.2034049 0.25533023 -0.4427275 -0.64697 0.035806455 -0.51205754 0.39032772 -0.19190371 0.7221439 -0.16569716 0.08463229 -0.005586756 -0.5680269 0.18436934 -0.18028215 0.0647341 -0.33727807 -0.11830559 0.25532755 -0.10634976 -0.34248087 -0.49758345 0.04057049 -0.06465462 -0.1109737 -0.98072416 -0.124804795 -0.20333496 0.6044778 0.18291605 -0.2981102 -0.33461156 -0.075505756 0.08688911 -0.14246199 -0.13284661 0.17106639 0.124932066 -0.5337547 -0.05701253 -0.34871092 0.42128396 -0.113511205 0.28129467 -0.25426286 0.021621924 0.074715145 0.13054319 0.19789292 0.027284099 -0.36789158 -0.109989844 -0.37639862 -0.23445427 0.6268109 0.20849857 -0.07083517 -0.076634794 0.19770916 -0.04485529 -0.17465141
76 0.17626897 0.26703063 0.0680821 0.36433622 -0.05154301 -0.5051016 0.11032892 1.046498 0.13636968 -0.3603195 0.0889175 0.24788342 0.6749284 0.03102495 -0.20027336 -0.08250014 0.077698335 -0.044654537 -0.34665486 -0.5725679 0.20024613 -0.3281504 -0.06025778 -0.45114133 -0.05591664 0.45927665 0.39544484 -0.10044674 0.008884039 0.14860193 0.093687095 0.1430273 0.28961012 0.003436784 -0.48822394 -0.03193234 -0.633749 0.4322073 -0.3128756 0.2574957 0.06492208 0.34403783 -0.66444176 -0.09126001 -0.104752235 0.24395144 0.25713256 -0.20320308 -0.1316336 -0.20032378 -0.14806591 0.0933496 -0.1826328 0.022099126 -0.46310905 -0.23144989 -0.1872524 0.44433525 -0.24579903 -0.008098107 -0.4155921 0.5856914 0.8990426 0.20843804
149 -0.16600485 0.5357176 0.3268791 0.15136041 0.34491947 -0.30874726 -0.7376853 0.14839877 -0.44182137 0.45063356 -0.3750676 0.37645584 -0.032944225 -0.16581737 -0.034676854 -0.6699228 0.6935112 -0.15173136 0.21717343 -0.38666135 -0.14073744 0.31111917 -0.19670923 -0.22129984 -0.6584603 0.25188795 0.117612556 -0.05614954 -0.8799951 -0.0342547 -0.22059853 0.47105074 0.2535263 -0.02325261 -0.4060214 -0.25085133 -0.42850837 -0.29276556 -0.20331743 0.18355754 -0.011460915 0.03379732 0.03353699 -0.44535998 0.35720143 -0.15245847 0.1260062 -0.030982472 -0.21119273 0.05510916 -0.5074551 0.102679744 0.21037178 0.026004525 -0.07858791 -0.41175953 -0.20765105 0.4709654 -0.3328953 -0.23176095 0.1963652 0.052527193 -0.37406063 -0.109183
49 -0.30304414 1.0267946 0.3299354 -0.046370134 -0.085115075 -0.6332468 0.024604453 0.5335368 -0.33064303 -0.09706767 0.083093114 0.55211776 -0.18969777 -0.2863865 -0.2937691 -0.40512308 0.12590584 -0.45948273 -0.016733583 0.1801558 -0.6973366 -0.010135785 -0.11376442 0.0815208 -0.050685506 -0.0887284 0.014707541 -0.06094592 -0.75543183 -0.28815997 -0.1610294 0.5469181 0.011998833 -0.488998 -0.44881958 0.017628694 -0.430823 -0.18021609 -0.40401122 -0.199548 0.11213745 -0.32533827 -0.3272592 -0.10604586 -0.20115857 0.19004978 0.276 -0.1511286 0.12198474 -0.00763884 -0.04961011 0.34066683 -0.4430997 -0.10811084 0.09341159 -0.15498798 -0.25021037 0.18221822 -0.5199705 -0.01872096 -0.31521267 -0.024397708 0.056623224 0.5160336
67 -0.33984777 1.0470862 0.4242355 -0.08977932 -0.14288533 -0.124271095 -0.13456343 0.18321545 -0.420761 0.16427207 -0.31655553 0.4465541 -0.3126186 -0.1549441 -0.02779331 -0.5056103 0.14115426 -0.19348264 0.21073878 0.40034023 -0.19358076 -0.3255504 0.1005576 0.3199549 -0.36453685 0.032758735 -0.025227163 -0.23622185 -0.80899316 -0.034398995 -0.33124793 0.41182014 0.07943093 -0.54615396 -0.42046547 -0.066871926 -0.05390541 -0.1313239 -0.18552029 -0.25018972 0.33560014 -0.36515474 -0.30228898 -0.41613892 -0.0062971385 0.10230768 0.30623773 -0.47008145 0.18818213 -0.20251861 0.24095993 -0.043021124 -0.20991008 -0.3568687 0.044009816 -0.18304864 -0.42309073 0.50649333 -0.32782212 -0.05636154 -0.30975038 -0.047770552 -0.032336075 0.15565437
113 0.05382639 0.3487793 0.3861113 -0.09972571 0.028230686 -0.49266127 -0.09279182 0.5730376 -0.13158476 -0.28226155 0.08039154 0.0028071646 0.22520019 -0.4482905 -0.20507102 -0.42503104 0.58845013 0.096234314 -0.2101724 -0.41915593 -0.018368177 0.17118795 -0.12019395 -0.44570056 -0.37455922 0.4278281 0.41177347 -0.17546576 -0.25577775 -0.21681173 -0.04344936 0.109705426 0.32383466 0.24784794 -0.21380463 0.13503537 -0.6087802 -0.23001269 -0.12041605 0.18928663 0.26743412 0.06756458 -0.68238103 -0.095464535 -0.35958028 0.22628483 0.45769918 -0.05456787 -0.026532644 -0.28394708 -0.64304924 0.07140074 -0.24681695 -0.020875618 -0.047630403 -0.4467575 -0.15121141 0.47537488 -0.22613883 -0.47066152 0.05021521 -0.15358782 0.28835145 0.11842963
50 -0.43739697 1.039837 0.46675757 0.008657933 0.21059602 -0.6355221 0.20566854 0.6441431 -0.39591712 -0.272513 0.17285798 0.24534217 0.10834175 -0.24658747 -0.28751987 -0.47635883 0.1392323 -0.31710246 0.076696664 0.0665591 -0.5666754 0.17372532 -0.12530822 -0.2609225 -0.1801437 -0.020458724 -0.020975647 -0.0069589633 -0.59289545 -0.21119529 -0.15897943 0.5589898 -0.05294151 -0.46359238 -0.4475996 0.022819092 -0.39545313 -0.17423491 -0.5540102 -0.3296057 -0.10629792 -0.05141266 -0.43023133 -0.08227707 -0.10708513 0.12563615 0.16320375 -0.13359322 0.14916 -0.036212984 0.0026854514 0.4059391 -0.2669823 -0.031867143 0.15876645 -0.1656288 0.0025763998 0.30421302 -0.5948844 -0.27986357 -0.40086356 0.0057178685 0.19335197 0.53221136
47 -0.43186015 1.1888278 0.44699597 0.028633934 -0.19683494 -0.28429732 -0.046623852 0.24991457 -0.50459135 0.140038 -0.12225762 0.43519905 -0.36835608 -0.050104007 0.11809488 -0.5432112 -0.07102085 -0.35871577 -0.026850842 0.21013089 -0.45985544 -0.22043155 -0.08143695 0.39039958 -0.33684587 -0.007855199 0.0459387 -0.40151712 -0.60280097 -0.13931239 -0.41491225 0.24438165 0.09631171 -0.45701188 -0.36013997 0.052717596 -0.19440499 0.01464012 -0.44064993 -0.08922359 0.59778136 -0.27130803 -0.1692236 -0.25076512 -0.0042686816 0.20546266 0.21062957 -0.5305064 0.25997347 -0.017485097 0.12068948 0.043114547 -0.19965918 -0.45683965 -0.02879363 0.047479462 -0.36267745 0.113788396 -0.4396266 0.02597333 -0.2916484 0.14629814 0.010417815 0.52385324
86 -0.44401982 0.7764052 0.40205723 -0.3019607 -0.033721544 -0.23729731 -0.19255644 0.022134712 -0.5371841 0.38433897 -0.41414478 0.48732802 -0.12701352 -0.11264799 0.27830702 -0.46920362 0.08534776 -0.3188704 0.018016728 0.07241786 -0.037431177 -0.1523492 0.30882967 0.02550894 -0.31921855 -0.054104652 -0.10127171 -0.06795069 -0.5846069 -0.10180829 -0.20546009 0.6027343 -0.12322453 -0.4337714 -0.2823878 -0.04755576 -0.22699031 -0.06102624 -0.09717996 -0.11010468 0.30579156 -0.28372177 -0.095178865 -0.19522351 0.25304958 0.1488487 0.054498542 -0.6174436 0.17752829 -0.19581771 0.34936395 0.14933516 0.03699884 -0.3680411 -0.25020504 -0.17240524 -0.58466613 0.7600772 -0.0460834 0.15897594 -0.41278592 0.19027781 -0.12619686 -0.053825617
30 -0.15435223 1.040419 0.57755315 0.009657426 0.19443281 -0.7689981 0.08939846 0.4930122 -0.18936485 -0.2787384 0.21875611 0.34338135 -0.061669122 -0.16344197 -0.1060841 -0.23159163 0.28695893 -0.4264738 0.18676592 0.17404173 -0.61008936 -0.058211632 -0.4621994 -0.27000976 -0.3396793 -0.043022852 0.20404291 0.024277244 -0.41682172 -0.20429634 0.11161762 0.62779456 -0.11687879 -0.3983979 -0.52576584 -0.09703683 -0.41539797 -0.050656687 -0.55972826 -0.27575195 0.07132431 -0.08505617 -0.5929445 0.007586014 -0.15682472 0.3794761 0.4140992 -0.3977058 0.23954813 -0.02628757 0.18003103 0.3954315 -0.31508753 -0.049926475 0.035312824 0.021762328 -0.06121868 0.07160049 -0.60324657 -0.11252983 -0.4113877 -0.023534607 0.2991127 0.654821
173 0.03982156 0.337705 0.18791647 0.04043528 0.31100678 0.037749574 -0.26393107 0.33164358 -0.19686766 -0.3656366 -0.27783403 0.20913577 0.016434392 -0.23922496 -0.04432638 -0.7189223 0.8099792 -0.10019701 0.015154648 -0.9607937 0.08671646 0.22659856 -0.24197729 -0.48498598 -0.59633625 0.34631574 0.47106835 -0.074757606 -0.34916973 -0.035855517 -0.00030653665 -0.12411956 0.38167092 0.16176404 -0.10732002 0.15143006 -0.9041719 0.0151122445 0.2560959 0.37295106 0.15651308 0.15354416 -0.14059211 -0.22837247 0.00757154 -0.5334314 0.6330377 0.079223715 0.07342703 0.451437 -0.5557878 -0.30596346 0.01400918 -0.057163674 0.24678676 -0.52489793 -0.08686992 0.46235096 -0.7150101 -0.2450107 -0.30416906 0.43253398 0.12599821 0.055555988
28 -0.34948367 1.1660733 0.5163043 0.01339401 -0.28660426 -0.61231816 -0.005977778 0.36444423 -0.23362257 -0.107338205 -0.098085746 0.533373 -0.29638243 -0.01367926 -0.118643284 -0.35689026 0.005399323 -0.43391588 0.0494128 0.14641201 -0.76814926 0.18184222 -0.17566505 0.16180399 -0.43717748 0.06435512 0.19620962 -0.15480039 -0.45787978 -0.33034912 -0.24133794 0.42926615 -0.034090485 -0.45916963 -0.23136865 -0.09524187 -0.31012642 -0.035884827 -0.6039649 -0.112168714 0.24878557 -0.37657034 -0.1393057 -0.24417293 -0.39929053 0.3644753 0.3087056 -0.5887449 0.19853169 0.123397805 0.3144352 0.24165031 -0.3076083 -0.29620036 0.08030451 0.1061455 -0.29006016 0.023174863 -0.7342576 0.06135175 -0.5633988 0.03890397 0.09748642 0.4068118
148 -0.20772119 0.3660144 0.4228164 0.15402128 0.39922598 -0.3870819 -0.7822256 0.29041317 -0.56293947 0.51852864 -0.32610285 0.6021415 -0.23382597 0.023436155 -0.111881495 -0.48145944 0.53238124 -0.15422946 0.07750078 -0.3837306 -0.17523772 0.13550197 -0.04809668 -0.2714927 -0.54968953 0.18943216 -0.036253933 0.010922461 -1.0593963 -0.074899144 -0.14583409 0.5214757 0.25429547 -0.11142087 -0.3807492 -0.27591765 -0.3422173 -0.05353849 -0.07962832 0.21668412 0.16874246 -0.3075492 0.110448815 -0.46310043 0.47103643 -0.058236223 0.19502643 0.03197902 0.09644996 -0.01022905 -0.3733545 -0.18700214 0.21218911 0.0100675 -0.19163187 -0.42881355 -0.26138246 0.39361975 -0.040407453 -0.23242809 -0.0018153512 0.018698681 -0.23078789 -0.19355167
129 -0.20928329 0.6735068 0.38683885 0.12820722 0.3789692 -0.3528557 -0.49359116 -0.0015248053 -0.49371475 0.4459402 -0.33565003 0.37018856 0.011873541 -0.013235778 -0.352489 -0.36993146 0.6348202 -0.06575776 0.04080202 -0.34922403 -0.19885321 0.15140213 -0.369667 -0.36634928 -0.55200297 0.08928071 0.18208104 -0.12531243 -0.81983656 0.03144007 -0.087223455 0.44928542 0.13910988 -0.004212229 -0.444094 0.075669594 -0.40422484 -0.40885362 -0.13998015 0.0038322129 0.10238853 -0.3159624 0.122928664 -0.50441587 0.28727716 -0.07191773 0.07334925 -0.24092148 -0.06577494 -0.05351814 -0.502001 0.106968015 -0.12639737 -0.18056038 -0.15534711 -0.27709362 -0.20666528 0.5586457 -0.13146842 -0.41465896 -0.068847485 -0.03367829 -0.25380552 0.018876571
48 -0.46758255 1.0414909 0.48477894 0.104601085 -0.2123508 -0.50264585 -0.053650457 0.51746017 -0.36818334 -0.12647276 -0.08812627 0.55087394 -0.3681724 -0.12493119 0.049187236 -0.32700646 0.009059728 -0.4666591 -0.02182526 0.35571966 -0.6857579 -0.10167775 -0.027623814 0.24832869 -0.34564337 0.018485624 0.054026898 -0.18172058 -0.6597047 0.024757411 -0.1318824 0.34689716 0.07765715 -0.47673702 -0.37726945 0.03324109 -0.10208237 -0.21802641 -0.43127948 -0.18916197 0.26066306 -0.34941667 -0.27838206 -0.3618611 -0.22390924 0.14809322 0.2543097 -0.31064996 0.07915836 0.21608809 0.03616986 0.19314218 -0.14294426 -0.38862747 0.03983079 -0.17393051 -0.46507913 0.12558796 -0.5087245 -0.11720035 -0.39965838 -0.06358609 -0.024892973 0.46479017
89 -0.5711437 0.7290323 0.16042303 0.17112733 0.07052746 -0.349689 0.16327155 0.1568564 -0.67308897 0.19038326 -0.16564661 0.28123456 0.007542554 -0.3620873 -0.255085 -0.11840279 0.53322715 -0.2808147 0.1626557 -0.0553161 -0.22799602 0.0024048486 -0.30224967 -0.2259421 -0.2870376 -0.0721534 0.03437909 -0.117542356 -0.7805135 -0.024874922 -0.2131168 0.43061683 0.24913464 -0.41728625 -0.52345544 0.036389433 -0.19171421 -0.29540518 -0.25987414 0.05883648 0.22808601 -0.16054155 -0.22007404 -0.30741963 -0.19558173 -0.039292656 0.27189425 -0.21804428 -0.011311113 0.143418 -0.107132494 0.060495857 -0.30174157 -0.12249547 0.08189979 -0.30174872 -0.46949235 0.68075645 -0.28489733 -0.33685812 -0.4914101 -0.19070289 -0.14854228 0.2627418
